{"learner":{"attributes":{"scikit_learn":"{\"_estimator_type\": \"classifier\"}"},"feature_names":["is_dgw_in_gw+1","is_dgw_in_gw+2","is_dgw_in_gw+3","is_dgw_in_gw+4","is_dgw_in_gw+5","is_dgw_in_gw+6","is_dgw","GW","opp_1_team","opp_1_team.1","opp_2_team","opp_2_team.1","assists","bonus","bps","clean_sheets","creativity","goals_conceded","goals_scored","ict_index","influence","minutes","own_goals","penalties_missed","penalties_saved","red_cards","saves","selected","team_a_score","team_h_score","threat","transfers_balance","transfers_in","transfers_out","value","yellow_cards","xG","xA","key_passes","npg","npxG","xGChain","xGBuildup","xP","team_form","upcoming_strength","opp_1_strength","opp_2_strength","position_DEF","position_FWD","position_GK","position_MID","team_2.0","team_3.0","team_4.0","team_5.0","team_6.0","team_7.0","team_8.0","team_9.0","team_10.0","team_11.0","team_12.0","team_13.0","team_14.0","team_15.0","team_16.0","team_17.0","team_18.0","team_19.0","team_20.0","team_28.0","team_30.0","was_home_1","was_home_2","team_strength_2.0","team_strength_3.0","team_strength_4.0","team_strength_5.0","team_strength_6.0","team_strength_7.0","team_strength_8.0","team_strength_9.0","team_strength_10.0","team_strength_11.0","team_strength_12.0","team_strength_13.0","team_strength_14.0","team_strength_15.0","team_strength_16.0","team_strength_17.0","team_strength_18.0","team_strength_19.0","team_strength_20.0"],"feature_types":["float","float","float","float","float","float","float","float","float","float","float","float","float","float","float","float","float","float","float","float","float","float","float","float","float","float","float","float","float","float","float","float","float","float","float","float","float","float","float","float","float","float","float","float","float","float","float","float","i","i","i","i","i","i","i","i","i","i","i","i","i","i","i","i","i","i","i","i","i","i","i","i","i","i","i","i","i","i","i","i","i","i","i","i","i","i","i","i","i","i","i","i","i","i"],"gradient_booster":{"model":{"gbtree_model_param":{"num_parallel_tree":"1","num_trees":"100"},"iteration_indptr":[0,1,2,3,4,5,6,7,8,9,10,11,12,13,14,15,16,17,18,19,20,21,22,23,24,25,26,27,28,29,30,31,32,33,34,35,36,37,38,39,40,41,42,43,44,45,46,47,48,49,50,51,52,53,54,55,56,57,58,59,60,61,62,63,64,65,66,67,68,69,70,71,72,73,74,75,76,77,78,79,80,81,82,83,84,85,86,87,88,89,90,91,92,93,94,95,96,97,98,99,100],"tree_info":[0,0,0,0,0,0,0,0,0,0,0,0,0,0,0,0,0,0,0,0,0,0,0,0,0,0,0,0,0,0,0,0,0,0,0,0,0,0,0,0,0,0,0,0,0,0,0,0,0,0,0,0,0,0,0,0,0,0,0,0,0,0,0,0,0,0,0,0,0,0,0,0,0,0,0,0,0,0,0,0,0,0,0,0,0,0,0,0,0,0,0,0,0,0,0,0,0,0,0,0],"trees":[{"base_weights":[5.0968303E-8,-9.3447363E-1,1.0108852E0,-1.2046139E0,-3.5059157E-1,4.344035E-1,1.295642E0,-1.2896624E0,-5.6620544E-1,-7.6601166E-1,-6.606919E-3,9.806421E-2,6.6351736E-1,6.735502E-1,1.3511494E0,-1.430203E0,-1.0180877E0,-7.6102644E-1,-3.5843992E-1,-1.1134192E0,-4.596731E-1,-3.1159753E-1,3.1473455E-1,-8.521586E-2,4.654626E-1,-3.4293616E-1,7.320107E-1,7.1839947E-1,-4.367821E-1,1.2799668E0,1.8612603E0,-1.6459018E0,-1.326137E0,-1.479931E0,-8.7117535E-1,-7.84159E-1,6.628815E-1,-6.9774616E-1,-1.9178106E-1,-4.4631377E-1,-1.287613E0,-8.182978E-1,-1.6265854E-1,1.2963095E-2,-5.091971E-1,-1.1183562E-1,4.408046E-1,-3.6764604E-1,1.1528186E-1,1.9227625E-1,7.145206E-1,-4.3855226E-1,1.0267137E0,8.6217105E-1,3.7330773E-1,1.3958637E0,6.439696E-1,-1.048937E0,2.8437993E-1,9.842109E-1,1.3571709E0,9.195806E-1,1.9565645E0,-3.6726496E-1,-5.029609E-1,-4.2998043E-1,-3.1417367E-1,-4.686804E-1,-2.812828E-1,-4.071869E-1,-2.2236288E-1,-1.8876697E-1,-3.0178836E-1,-5.9946146E-2,3.9623663E-1,-2.3143426E-1,1.9886446E-1,2.9837213E-2,-1.4334115E-1,4.4404188E-1,-1.6477136E-1,-4.0629327E-1,-1.1705848E-1,-2.6338342E-1,1.7254664E-1,-1.7009243E-1,4.2285986E-2,-1.1388179E-1,6.4366534E-2,-1.23071216E-1,-3.1700855E-1,-8.6980656E-2,1.4117539E-1,1.0024722E-1,2.0854549E-1,-4.12041E-3,-1.7531674E-1,-5.6277487E-2,8.492082E-2,1.7661494E-1,-3.0352188E-2,2.2972412E-1,-2.2857453E-1,-1.7694917E-1,7.930952E-2,4.549469E-1,-1.0266485E-2,2.2152457E-1,3.3542645E-1,3.5696153E-2,2.5050202E-1,-4.631295E-2,4.8499265E-1,1.7119533E-1,4.0390515E-1,-3.7321615E-1,-1.3470873E-1,3.9623663E-1,-1.0083167E-1,2.7746814E-1,4.9921834E-1,4.1288254E-1,1.8562566E-1,4.0885642E-1,-7.992288E-2,5.893619E-1,6.2163606E-2],"categories":[],"categories_nodes":[],"categories_segments":[],"categories_sizes":[],"default_left":[0,0,0,0,0,0,0,0,0,0,0,0,0,0,0,0,0,0,0,0,0,0,0,0,0,1,0,0,0,0,0,0,0,0,0,0,0,0,0,0,0,0,0,0,0,0,0,0,0,0,0,0,0,0,0,0,1,0,0,0,0,0,0,0,0,0,0,0,0,0,0,0,0,0,0,0,0,0,0,0,0,0,0,0,0,0,0,0,0,0,0,0,0,0,0,0,0,0,0,0,0,0,0,0,0,0,0,0,0,0,0,0,0,0,0,0,0,0,0,0,0,0,0,0,0,0,0],"id":0,"left_children":[1,3,5,7,9,11,13,15,17,19,21,23,25,27,29,31,33,35,37,39,41,43,45,47,49,51,53,55,57,59,61,63,65,67,69,71,73,75,77,79,81,83,85,87,89,91,93,95,97,99,101,103,105,107,109,111,113,115,117,119,121,123,125,-1,-1,-1,-1,-1,-1,-1,-1,-1,-1,-1,-1,-1,-1,-1,-1,-1,-1,-1,-1,-1,-1,-1,-1,-1,-1,-1,-1,-1,-1,-1,-1,-1,-1,-1,-1,-1,-1,-1,-1,-1,-1,-1,-1,-1,-1,-1,-1,-1,-1,-1,-1,-1,-1,-1,-1,-1,-1,-1,-1,-1,-1,-1,-1],"loss_changes":[8.577924E3,7.438467E2,7.154824E2,1.744082E2,2.1348238E2,1.1118826E2,9.989258E1,1.07154785E2,1.5148331E1,7.150717E1,8.029337E1,3.9509167E1,5.9437073E1,1.2321487E1,9.489844E1,3.9854736E1,6.479059E1,6.9667816E0,1.0398729E1,3.6192596E1,3.8353188E1,2.6962837E1,2.1503971E1,2.2234898E1,1.3146652E1,7.703839E0,3.722473E1,1.0806763E1,4.7057023E0,5.2419678E1,2.7445923E1,5.767212E0,3.639673E1,8.966309E0,4.5828003E1,6.001396E0,2.3473918E0,6.625637E0,1.0567194E1,1.4105908E1,1.4456909E1,1.4088791E1,2.4493818E1,1.2746396E1,1.37228775E1,9.659548E0,8.126221E0,1.2491381E1,1.1739371E1,1.1050753E1,8.279987E0,5.735793E0,2.0854902E0,1.783847E1,2.524905E1,7.821617E0,1.0098877E1,9.8423004E-2,3.8975153E0,1.8260254E1,2.5447266E1,1.7099722E1,3.7089844E0,0E0,0E0,0E0,0E0,0E0,0E0,0E0,0E0,0E0,0E0,0E0,0E0,0E0,0E0,0E0,0E0,0E0,0E0,0E0,0E0,0E0,0E0,0E0,0E0,0E0,0E0,0E0,0E0,0E0,0E0,0E0,0E0,0E0,0E0,0E0,0E0,0E0,0E0,0E0,0E0,0E0,0E0,0E0,0E0,0E0,0E0,0E0,0E0,0E0,0E0,0E0,0E0,0E0,0E0,0E0,0E0,0E0,0E0,0E0,0E0,0E0,0E0,0E0,0E0],"parents":[2147483647,0,0,1,1,2,2,3,3,4,4,5,5,6,6,7,7,8,8,9,9,10,10,11,11,12,12,13,13,14,14,15,15,16,16,17,17,18,18,19,19,20,20,21,21,22,22,23,23,24,24,25,25,26,26,27,27,28,28,29,29,30,30,31,31,32,32,33,33,34,34,35,35,36,36,37,37,38,38,39,39,40,40,41,41,42,42,43,43,44,44,45,45,46,46,47,47,48,48,49,49,50,50,51,51,52,52,53,53,54,54,55,55,56,56,57,57,58,58,59,59,60,60,61,61,62,62],"right_children":[2,4,6,8,10,12,14,16,18,20,22,24,26,28,30,32,34,36,38,40,42,44,46,48,50,52,54,56,58,60,62,64,66,68,70,72,74,76,78,80,82,84,86,88,90,92,94,96,98,100,102,104,106,108,110,112,114,116,118,120,122,124,126,-1,-1,-1,-1,-1,-1,-1,-1,-1,-1,-1,-1,-1,-1,-1,-1,-1,-1,-1,-1,-1,-1,-1,-1,-1,-1,-1,-1,-1,-1,-1,-1,-1,-1,-1,-1,-1,-1,-1,-1,-1,-1,-1,-1,-1,-1,-1,-1,-1,-1,-1,-1,-1,-1,-1,-1,-1,-1,-1,-1,-1,-1,-1,-1],"split_conditions":[-4.1491234E-1,-2.68533E-1,1.1788738E0,-9.220261E-1,-3.44428E-1,-2.6924887E-1,-5.8358914E-1,-3.9630297E-1,-7.0469165E-1,1E0,-2.6442167E-1,7.6835316E-1,-5.8358914E-1,1E0,1E0,-2.9500774E-1,-7.430299E-1,-1.6308923E-1,-4.1799343E-1,-1.0503861E-1,-6.633095E-1,-1.435067E-1,-2.6898837E-1,-3.9591601E-1,3.0810244E-2,6.538635E-1,1E0,-1.4535164E0,3.131122E-1,-2.7774945E-1,-3.2962698E-1,-1.5785223E0,1E0,-4.596431E-1,-2.9499388E-1,2.478334E-1,-5.841894E-1,1E0,-1.1460679E-1,-1.6014171E0,-1.823509E-2,1E0,-4.2897168E-1,-2.9080477E-1,-1.1862127E-1,6.122165E-1,1.272602E-1,-1.8429787E-1,-3.8302976E-1,-6.3334084E-1,1E0,1.009836E0,-1.7566862E-2,8.8909453E-1,8.1553555E-1,-3.364146E-2,1.2177724E0,7.808227E-1,3.7850332E-1,-1.757877E-1,1E0,-2.91601E-1,5.183367E0,-3.6726496E-1,-5.029609E-1,-4.2998043E-1,-3.1417367E-1,-4.686804E-1,-2.812828E-1,-4.071869E-1,-2.2236288E-1,-1.8876697E-1,-3.0178836E-1,-5.9946146E-2,3.9623663E-1,-2.3143426E-1,1.9886446E-1,2.9837213E-2,-1.4334115E-1,4.4404188E-1,-1.6477136E-1,-4.0629327E-1,-1.1705848E-1,-2.6338342E-1,1.7254664E-1,-1.7009243E-1,4.2285986E-2,-1.1388179E-1,6.4366534E-2,-1.23071216E-1,-3.1700855E-1,-8.6980656E-2,1.4117539E-1,1.0024722E-1,2.0854549E-1,-4.12041E-3,-1.7531674E-1,-5.6277487E-2,8.492082E-2,1.7661494E-1,-3.0352188E-2,2.2972412E-1,-2.2857453E-1,-1.7694917E-1,7.930952E-2,4.549469E-1,-1.0266485E-2,2.2152457E-1,3.3542645E-1,3.5696153E-2,2.5050202E-1,-4.631295E-2,4.8499265E-1,1.7119533E-1,4.0390515E-1,-3.7321615E-1,-1.3470873E-1,3.9623663E-1,-1.0083167E-1,2.7746814E-1,4.9921834E-1,4.1288254E-1,1.8562566E-1,4.0885642E-1,-7.992288E-2,5.893619E-1,6.2163606E-2],"split_indices":[21,33,21,21,34,32,34,27,21,48,32,21,34,61,50,32,34,27,14,31,34,31,27,27,43,37,49,44,36,33,27,7,48,43,32,45,20,89,36,31,43,56,7,32,27,34,32,40,20,44,75,21,36,21,43,14,41,20,20,27,56,44,17,0,0,0,0,0,0,0,0,0,0,0,0,0,0,0,0,0,0,0,0,0,0,0,0,0,0,0,0,0,0,0,0,0,0,0,0,0,0,0,0,0,0,0,0,0,0,0,0,0,0,0,0,0,0,0,0,0,0,0,0,0,0,0,0],"split_type":[0,0,0,0,0,0,0,0,0,0,0,0,0,0,0,0,0,0,0,0,0,0,0,0,0,0,0,0,0,0,0,0,0,0,0,0,0,0,0,0,0,0,0,0,0,0,0,0,0,0,0,0,0,0,0,0,0,0,0,0,0,0,0,0,0,0,0,0,0,0,0,0,0,0,0,0,0,0,0,0,0,0,0,0,0,0,0,0,0,0,0,0,0,0,0,0,0,0,0,0,0,0,0,0,0,0,0,0,0,0,0,0,0,0,0,0,0,0,0,0,0,0,0,0,0,0,0],"sum_hessian":[9.078573E3,4.717624E3,4.3609497E3,3.2246406E3,1.4929836E3,1.4427238E3,2.9182256E3,2.844657E3,3.7998364E2,6.757153E2,8.172683E2,5.851505E2,8.575733E2,2.4013023E2,2.6780955E3,1.8717532E3,9.7290375E2,1.9472644E2,1.8525719E2,3.1539856E2,3.6031674E2,4.1931738E2,3.979509E2,3.9090967E2,1.9424083E2,5.4387432E1,8.0318585E2,2.3114659E2,8.983639E0,2.3532278E3,3.248678E2,6.043318E2,1.2674214E3,2.326034E2,7.4030035E2,1.9205562E2,2.6708114E0,5.9971855E1,1.2528534E2,6.6041885E1,2.4935667E2,1.624339E2,1.9788284E2,1.5903468E2,2.602827E2,9.080759E1,3.071433E2,1.6194829E2,2.2896138E2,9.34784E1,1.0076243E2,5.147382E1,2.9136124E0,5.8830695E2,2.1487892E2,2.112369E1,2.100229E2,4.6132197E0,4.3704185E0,4.899725E2,1.8632551E3,3.0835732E1,2.9403207E2,4.3704185E1,5.606276E2,9.126891E2,3.5473233E2,2.0031085E2,3.2292538E1,1.5417867E2,5.861217E2,1.153305E2,7.672513E1,1.4568062E0,1.2140052E0,5.7301044E1,2.6708114E0,6.2399868E1,6.288547E1,2.6708114E0,6.337107E1,2.3163219E2,1.7724476E1,1.5612106E2,6.312827E0,8.449476E1,1.13388084E2,5.365903E1,1.0537565E2,2.2192015E2,3.8362564E1,6.99267E1,2.088089E1,2.1803534E2,8.910798E1,6.1914265E1,1.0003403E2,8.158115E1,1.4738023E2,3.9333767E1,5.414463E1,9.7848816E1,2.9136124E0,4.249018E1,8.983639E0,1.6996073E0,1.2140052E0,3.9916492E2,1.8914201E2,1.393678E2,7.551112E1,2.6708114E0,1.8452879E1,1.9181282E2,1.8210077E1,2.6708114E0,1.9424083E0,1.2140052E0,3.1564136E0,4.5282394E2,3.714856E1,1.8154233E3,4.7831806E1,2.2337696E1,8.498036E0,2.9257526E2,1.4568062E0],"tree_param":{"num_deleted":"0","num_feature":"94","num_nodes":"127","size_leaf_vector":"1"}},{"base_weights":[-9.910662E-3,-7.231186E-1,6.8322074E-1,-1.0129768E0,-3.6025816E-1,3.0012807E-1,8.832776E-1,-1.0839134E0,-4.4460455E-1,-6.565474E-1,-8.18108E-2,2.194146E-1,8.113758E-1,7.397729E-1,1.017037E0,-1.2398326E0,-9.3381363E-1,-5.6463546E-1,-1.4401667E-1,-9.517712E-1,-3.9545062E-1,-2.7269438E-1,2.5537708E-1,-1.18268415E-1,3.0149522E-1,8.766053E-1,-6.380458E-2,7.699093E-1,1.9525559E-1,3.0734763E-1,1.0461336E0,-1.2621913E0,1.9978108E-1,-1.0694418E0,-6.787179E-1,-5.9942394E-1,5.525E-1,-2.4283868E-1,1.0468692E0,-3.1642804E-1,-1.0586535E0,-7.0018685E-1,-1.8268512E-1,-1.6559236E-1,-6.04083E-1,1.6875623E-1,6.0054076E-1,-2.7616653E-1,2.5595415E-1,-2.628823E-1,3.5222036E-1,1.1185254E0,6.865881E-1,-3.737236E-1,3.8423276E-1,6.684249E-1,8.8849163E-1,-9.9241656E-1,3.5910287E-1,-2.7335492E-1,7.803751E-1,1.3277047E0,9.6725255E-1,-2.98859E-1,-3.882601E-1,-1.2970103E-1,2.8957936E-1,-3.7489745E-1,-2.4517524E-1,-3.6898565E-1,-1.5975656E-1,-4.0531284E-1,-1.6429132E-1,3.6746386E-1,-2.0785347E-1,-9.552286E-2,2.4156295E-1,4.347919E-1,5.5005606E-2,-4.0562544E-2,-3.9995623E-1,-3.370429E-1,-1.598373E-1,-2.6422176E-1,-1.0308374E-1,-1.9209595E-1,2.0005219E-3,-1.208669E-1,2.375612E-2,5.8340844E-2,-2.1703324E-1,7.617308E-2,-4.7726393E-2,2.0267539E-1,-1.4900725E-1,2.735435E-2,-1.2351784E-1,1.4227124E-1,-1.1935892E-1,-2.7373892E-1,-1.1471224E-2,1.2694289E-1,3.344781E-2,2.7897509E-2,3.6292607E-1,1.20131075E-1,2.7865216E-1,2.2668481E-1,-1.9004898E-1,2.3127541E-1,1.4738157E-1,2.6969418E-1,-1.5356618E-1,-4.999478E-1,-3.864805E-2,1.3402495E-1,-2.1426198E-1,1.3626538E-1,-1.5611023E-1,2.8749502E-1,-2.7001667E-1,-2.162938E-1,4.014088E-1,2.9601866E-1,6.554587E-2],"categories":[],"categories_nodes":[],"categories_segments":[],"categories_sizes":[],"default_left":[0,0,0,0,0,0,0,0,0,0,0,0,0,0,0,0,0,0,0,0,0,0,0,0,0,0,0,0,0,0,0,0,0,0,0,0,0,1,0,0,0,0,0,0,0,0,0,0,0,0,0,0,1,0,0,0,0,0,0,0,0,0,0,0,0,0,0,0,0,0,0,0,0,0,0,0,0,0,0,0,0,0,0,0,0,0,0,0,0,0,0,0,0,0,0,0,0,0,0,0,0,0,0,0,0,0,0,0,0,0,0,0,0,0,0,0,0,0,0,0,0,0,0,0,0],"id":1,"left_children":[1,3,5,7,9,11,13,15,17,19,21,23,25,27,29,31,33,35,37,39,41,43,45,47,49,51,53,55,57,59,61,63,65,67,69,71,73,75,77,79,81,83,85,87,89,91,93,95,97,99,101,103,105,-1,107,109,111,113,115,117,119,121,123,-1,-1,-1,-1,-1,-1,-1,-1,-1,-1,-1,-1,-1,-1,-1,-1,-1,-1,-1,-1,-1,-1,-1,-1,-1,-1,-1,-1,-1,-1,-1,-1,-1,-1,-1,-1,-1,-1,-1,-1,-1,-1,-1,-1,-1,-1,-1,-1,-1,-1,-1,-1,-1,-1,-1,-1,-1,-1,-1,-1,-1,-1],"loss_changes":[4.371043E3,4.5799146E2,3.4340137E2,9.717334E1,1.597345E2,6.33636E1,5.5782715E1,4.922168E1,9.676411E0,7.194174E1,6.4408E1,3.69348E1,1.2020798E1,2.3226318E1,3.1101807E1,3.4139893E1,3.736151E1,7.829067E0,9.494846E0,2.9517609E1,3.22639E1,2.2571083E1,1.0717306E1,1.5494997E1,3.0760056E1,8.201416E0,8.670724E0,1.5646362E1,1.5154926E1,1.70651E1,3.1174194E1,7.5388184E0,8.626028E0,3.1564758E1,3.036052E1,6.5614624E0,6.1631804E0,6.063055E0,1.8904829E0,1.1746929E1,1.2214447E1,1.2898338E1,2.5614147E1,2.8152214E1,1.4975723E1,8.154477E0,6.280529E0,9.203179E0,1.1317337E1,1.2939779E1,1.674112E1,7.769394E0,7.383087E0,0E0,5.007417E0,1.2897858E1,9.556641E0,5.306797E0,6.674798E0,5.3189206E0,1.1049568E1,7.6724854E0,1.648584E1,0E0,0E0,0E0,0E0,0E0,0E0,0E0,0E0,0E0,0E0,0E0,0E0,0E0,0E0,0E0,0E0,0E0,0E0,0E0,0E0,0E0,0E0,0E0,0E0,0E0,0E0,0E0,0E0,0E0,0E0,0E0,0E0,0E0,0E0,0E0,0E0,0E0,0E0,0E0,0E0,0E0,0E0,0E0,0E0,0E0,0E0,0E0,0E0,0E0,0E0,0E0,0E0,0E0,0E0,0E0,0E0,0E0,0E0,0E0,0E0,0E0,0E0],"parents":[2147483647,0,0,1,1,2,2,3,3,4,4,5,5,6,6,7,7,8,8,9,9,10,10,11,11,12,12,13,13,14,14,15,15,16,16,17,17,18,18,19,19,20,20,21,21,22,22,23,23,24,24,25,25,26,26,27,27,28,28,29,29,30,30,31,31,32,32,33,33,34,34,35,35,36,36,37,37,38,38,39,39,40,40,41,41,42,42,43,43,44,44,45,45,46,46,47,47,48,48,49,49,50,50,51,51,52,52,54,54,55,55,56,56,57,57,58,58,59,59,60,60,61,61,62,62],"right_children":[2,4,6,8,10,12,14,16,18,20,22,24,26,28,30,32,34,36,38,40,42,44,46,48,50,52,54,56,58,60,62,64,66,68,70,72,74,76,78,80,82,84,86,88,90,92,94,96,98,100,102,104,106,-1,108,110,112,114,116,118,120,122,124,-1,-1,-1,-1,-1,-1,-1,-1,-1,-1,-1,-1,-1,-1,-1,-1,-1,-1,-1,-1,-1,-1,-1,-1,-1,-1,-1,-1,-1,-1,-1,-1,-1,-1,-1,-1,-1,-1,-1,-1,-1,-1,-1,-1,-1,-1,-1,-1,-1,-1,-1,-1,-1,-1,-1,-1,-1,-1,-1,-1,-1,-1],"split_conditions":[-4.390606E-1,-2.8665397E-1,1.2271703E0,-9.220261E-1,-3.44428E-1,1.4531249E0,-1.7299373E-1,-2.9821E-1,-3.9508352E-1,1E0,-2.5267276E-1,-3.9508352E-1,1E0,1E0,-6.633095E-1,-3.1682476E-1,1E0,1E0,-4.8735717E-1,-1.0503861E-1,-6.633095E-1,1E0,1.8080221E0,7.6835316E-1,-5.8358914E-1,1.9647133E-1,4.5442557E-1,3.7412757E-1,-1.8944971E-2,1.455702E-1,-4.5791793E-1,-1.0559993E0,3.0810244E-2,-3.44428E-1,-8.227503E-1,-4.0884322E-1,5.466976E-1,-2.9981345E-2,-2.9287863E-1,1.0070102E0,-2.1441641E-1,5.1156974E-1,-9.514947E-1,-2.1996248E-1,-4.0360355E-1,1.1019684E0,1E0,-4.051729E-1,1.8683471E-1,-4.391652E-3,1E0,-3.4932432E-1,-1.9209681E-1,-3.737236E-1,2.7529104E0,-2.91601E-1,4.2903185E0,3.8246185E-1,1.747397E0,-2.4849461E-1,1E0,-3.2131824E-1,1E0,-2.98859E-1,-3.882601E-1,-1.2970103E-1,2.8957936E-1,-3.7489745E-1,-2.4517524E-1,-3.6898565E-1,-1.5975656E-1,-4.0531284E-1,-1.6429132E-1,3.6746386E-1,-2.0785347E-1,-9.552286E-2,2.4156295E-1,4.347919E-1,5.5005606E-2,-4.0562544E-2,-3.9995623E-1,-3.370429E-1,-1.598373E-1,-2.6422176E-1,-1.0308374E-1,-1.9209595E-1,2.0005219E-3,-1.208669E-1,2.375612E-2,5.8340844E-2,-2.1703324E-1,7.617308E-2,-4.7726393E-2,2.0267539E-1,-1.4900725E-1,2.735435E-2,-1.2351784E-1,1.4227124E-1,-1.1935892E-1,-2.7373892E-1,-1.1471224E-2,1.2694289E-1,3.344781E-2,2.7897509E-2,3.6292607E-1,1.20131075E-1,2.7865216E-1,2.2668481E-1,-1.9004898E-1,2.3127541E-1,1.4738157E-1,2.6969418E-1,-1.5356618E-1,-4.999478E-1,-3.864805E-2,1.3402495E-1,-2.1426198E-1,1.3626538E-1,-1.5611023E-1,2.8749502E-1,-2.7001667E-1,-2.162938E-1,4.014088E-1,2.9601866E-1,6.554587E-2],"split_indices":[21,33,21,21,34,43,33,33,27,48,32,27,62,64,34,27,48,64,21,31,34,49,34,21,34,46,21,43,31,32,16,7,43,34,34,27,28,42,33,44,43,7,7,7,31,8,52,27,44,21,49,27,42,0,14,44,14,37,43,31,61,27,56,0,0,0,0,0,0,0,0,0,0,0,0,0,0,0,0,0,0,0,0,0,0,0,0,0,0,0,0,0,0,0,0,0,0,0,0,0,0,0,0,0,0,0,0,0,0,0,0,0,0,0,0,0,0,0,0,0,0,0,0,0,0],"split_type":[0,0,0,0,0,0,0,0,0,0,0,0,0,0,0,0,0,0,0,0,0,0,0,0,0,0,0,0,0,0,0,0,0,0,0,0,0,0,0,0,0,0,0,0,0,0,0,0,0,0,0,0,0,0,0,0,0,0,0,0,0,0,0,0,0,0,0,0,0,0,0,0,0,0,0,0,0,0,0,0,0,0,0,0,0,0,0,0,0,0,0,0,0,0,0,0,0,0,0,0,0,0,0,0,0,0,0,0,0,0,0,0,0,0,0,0,0,0,0,0,0,0,0,0,0],"sum_hessian":[8.840058E3,4.356908E3,4.483149E3,2.4211038E3,1.9358042E3,1.5388589E3,2.94429E3,2.1516555E3,2.6944827E2,9.37197E2,9.9860724E2,1.330271E3,2.0858794E2,1.4235524E3,1.5207378E3,1.0518086E3,1.099847E3,1.9192876E2,7.7519516E1,4.386113E2,4.9858575E2,6.3775977E2,3.608474E2,2.600351E2,1.0702358E3,1.9411816E2,1.4469764E1,1.3485051E3,7.50472E1,6.0348743E1,1.460389E3,1.0358441E3,1.59644985E1,7.159836E2,3.8386343E2,1.8658186E2,5.346885E0,7.231478E1,5.204735E0,6.3731388E1,3.748799E2,2.0404651E2,2.9453925E2,4.8311935E2,1.5464044E2,2.8964755E2,7.119986E1,1.8305821E2,7.697689E1,8.791328E1,9.8232263E2,8.324652E1,1.1087164E2,3.487953E0,1.0981811E1,7.3021423E2,6.182909E2,8.48505E0,6.656215E1,2.7280506E1,3.3068237E1,3.1612582E2,1.1442632E3,1.1471201E2,9.211321E2,8.982323E0,6.982176E0,4.1527325E2,3.0071033E2,7.891193E1,3.049515E2,1.04096E1,1.7617227E2,3.4828682E0,1.864017E0,6.81005E1,4.214282E0,3.087464E0,2.1172707E0,5.5052265E1,8.679124E0,3.3272818E2,4.2151714E1,1.3448149E2,6.956501E1,8.550555E1,2.090337E2,2.4498085E2,2.381385E2,2.002688E1,1.3461357E2,2.3010559E2,5.9541977E1,6.700164E1,4.198216E0,4.9431927E1,1.336263E2,5.79158E1,1.9061094E1,2.180381E1,6.610947E1,7.58189E2,2.2413358E2,6.9653587E0,7.6281166E1,5.2046597E1,5.882505E1,8.234483E0,2.7473273E0,4.6046014E2,2.6975412E2,6.140497E2,4.241234E0,4.2432494E0,4.2418013E0,6.2076702E1,4.485448E0,6.701742E0,2.0578764E1,3.0290485E1,2.7777529E0,1.2400267E0,3.148858E2,1.1149445E3,2.9318785E1],"tree_param":{"num_deleted":"0","num_feature":"94","num_nodes":"125","size_leaf_vector":"1"}},{"base_weights":[-1.3711653E-2,-5.974801E-1,4.689037E-1,-9.215239E-1,-3.505006E-1,1.1228544E-1,6.087327E-1,-1.2142367E0,-8.127198E-1,-5.6435764E-1,-7.9220645E-2,-1.5616955E-1,2.469027E-1,4.7089556E-1,7.049574E-1,-7.675841E-1,-1.2573708E0,-9.3790394E-1,-5.853548E-1,-8.008102E-1,-3.6944532E-1,-4.0948248E-1,6.752987E-2,-3.884111E-1,-4.9168415E-2,-1.19345464E-1,3.015499E-1,2.2978473E-1,5.2530736E-1,-8.4453814E-2,7.246247E-1,1.7705266E-1,-8.6600846E-1,-1.2597351E0,-5.8013182E-2,-1.1458113E0,-6.225098E-1,-6.287423E-1,6.921727E-1,-1.0987813E0,-6.481944E-1,-8.754143E-1,-2.6588425E-1,-5.3086954E-1,5.9747297E-2,-1.8761365E-1,1.9506659E-1,-8.258041E-3,-5.741877E-1,-4.109188E-1,9.148359E-2,-4.2207512E-1,2.1288523E-1,2.6125434E-1,6.8891686E-1,3.9688963E-2,5.8736414E-1,4.9152994E-1,8.647562E-1,6.304285E-1,-4.3696323E-1,1.0246317E0,6.672447E-1,-1.1422274E-1,2.6948583E-1,-3.5184354E-1,-1.2744445E-1,-1.06402524E-1,-3.7862197E-1,-3.4804392E-1,-8.2127035E-2,-3.4519333E-1,-1.4151892E-1,4.3218244E-2,-2.025628E-1,4.4343448E-1,-1.4504246E-1,-3.523931E-1,-1.7664954E-1,-1.2545572E-1,-2.936442E-1,3.354399E-1,-2.8007823E-1,9.624597E-3,-1.2168007E-1,-1.7203008E-1,2.677259E-1,2.9754406E-1,-5.911414E-2,-5.4434827E-3,-1.6650738E-1,5.032547E-2,2.241922E-1,7.05887E-2,-2.0080037E-1,-2.0274284E-1,9.9196434E-2,-5.4402143E-2,-2.3473305E-1,1.3589838E-1,-1.4521057E-2,-2.4629276E-1,4.496308E-3,1.15294375E-1,-2.6346678E-1,6.975717E-2,2.4343656E-1,-1.6706036E-1,2.3172466E-1,-2.220538E-2,2.3716685E-1,2.0146926E-1,-1.8756387E-1,1.24277614E-1,1.9350177E-1,2.7317834E-1,-1.6829932E-1,-6.2467616E-2,3.0379575E-1,-1.8965663E-1,3.1061944E-1,-2.3708399E-1,3.111693E-1,2.085054E-1,3.2838877E-2],"categories":[],"categories_nodes":[],"categories_segments":[],"categories_sizes":[],"default_left":[0,0,0,0,0,0,0,0,0,0,0,0,0,0,0,0,0,0,0,0,0,0,0,0,0,0,0,0,0,0,0,0,0,0,0,0,0,0,0,0,0,0,0,0,0,0,0,0,0,0,0,0,0,0,0,0,0,0,0,0,0,0,0,0,0,0,0,0,0,0,0,0,0,0,0,0,0,0,0,0,0,0,0,0,0,0,0,0,0,0,0,0,0,0,0,0,0,0,0,0,0,0,0,0,0,0,0,0,0,0,0,0,0,0,0,0,0,0,0,0,0,0,0,0,0],"id":2,"left_children":[1,3,5,7,9,11,13,15,17,19,21,23,25,27,29,31,33,35,37,39,41,43,45,47,49,51,53,55,57,59,61,63,65,67,-1,69,71,73,75,77,79,81,83,85,87,89,91,93,95,97,99,101,103,105,107,109,111,113,115,117,119,121,123,-1,-1,-1,-1,-1,-1,-1,-1,-1,-1,-1,-1,-1,-1,-1,-1,-1,-1,-1,-1,-1,-1,-1,-1,-1,-1,-1,-1,-1,-1,-1,-1,-1,-1,-1,-1,-1,-1,-1,-1,-1,-1,-1,-1,-1,-1,-1,-1,-1,-1,-1,-1,-1,-1,-1,-1,-1,-1,-1,-1,-1,-1],"loss_changes":[2.364245E3,3.036266E2,2.2900806E2,5.1309326E1,1.2508298E2,4.684301E1,4.3433594E1,7.5684814E0,3.360858E1,5.5280487E1,4.6163696E1,1.0744948E1,1.7307972E1,1.771576E1,3.0199036E1,4.018812E0,7.685547E-1,4.992871E1,2.4202637E1,2.4027283E1,3.4500412E1,1.6720325E1,2.1510756E1,9.633856E0,1.5183848E1,1.1430954E1,1.1545845E1,1.7113087E1,1.228421E1,1.2392323E1,3.192212E1,2.2542942E0,4.621361E0,4.015503E-1,0E0,5.486267E0,2.4065498E1,1.50082245E1,1.4168265E1,6.3810883E0,2.7134247E1,1.4055702E1,2.2979675E1,1.46197815E1,1.4823798E1,1.3715883E1,6.519083E0,7.534236E0,8.651968E0,6.981902E0,1.090273E1,1.0357133E1,1.0517765E1,1.0592728E1,7.729374E0,1.4203241E1,9.346458E0,1.1716171E1,6.9809036E0,5.432255E0,1.0080822E1,7.730835E0,2.459961E1,0E0,0E0,0E0,0E0,0E0,0E0,0E0,0E0,0E0,0E0,0E0,0E0,0E0,0E0,0E0,0E0,0E0,0E0,0E0,0E0,0E0,0E0,0E0,0E0,0E0,0E0,0E0,0E0,0E0,0E0,0E0,0E0,0E0,0E0,0E0,0E0,0E0,0E0,0E0,0E0,0E0,0E0,0E0,0E0,0E0,0E0,0E0,0E0,0E0,0E0,0E0,0E0,0E0,0E0,0E0,0E0,0E0,0E0,0E0,0E0,0E0,0E0],"parents":[2147483647,0,0,1,1,2,2,3,3,4,4,5,5,6,6,7,7,8,8,9,9,10,10,11,11,12,12,13,13,14,14,15,15,16,16,17,17,18,18,19,19,20,20,21,21,22,22,23,23,24,24,25,25,26,26,27,27,28,28,29,29,30,30,31,31,32,32,33,33,35,35,36,36,37,37,38,38,39,39,40,40,41,41,42,42,43,43,44,44,45,45,46,46,47,47,48,48,49,49,50,50,51,51,52,52,53,53,54,54,55,55,56,56,57,57,58,58,59,59,60,60,61,61,62,62],"right_children":[2,4,6,8,10,12,14,16,18,20,22,24,26,28,30,32,34,36,38,40,42,44,46,48,50,52,54,56,58,60,62,64,66,68,-1,70,72,74,76,78,80,82,84,86,88,90,92,94,96,98,100,102,104,106,108,110,112,114,116,118,120,122,124,-1,-1,-1,-1,-1,-1,-1,-1,-1,-1,-1,-1,-1,-1,-1,-1,-1,-1,-1,-1,-1,-1,-1,-1,-1,-1,-1,-1,-1,-1,-1,-1,-1,-1,-1,-1,-1,-1,-1,-1,-1,-1,-1,-1,-1,-1,-1,-1,-1,-1,-1,-1,-1,-1,-1,-1,-1,-1,-1,-1,-1,-1],"split_conditions":[-6.080985E-1,-3.9508352E-1,9.132428E-1,-2.9503548E-1,-2.6470762E-1,-3.7655777E-1,-2.213589E-1,-1.5785223E0,-3.44428E-1,1E0,-2.9191446E-1,-4.4050395E-1,-5.0386876E-1,-3.9659688E-1,-8.227503E-1,-1.5681417E0,3.7412757E-1,1E0,1E0,-8.227503E-1,-2.9466096E-1,1E0,-3.123712E-1,-6.3334084E-1,-2.700227E-1,-2.249757E-1,1.6249074E0,-1.05266884E-1,1E0,-5.334763E-1,-4.7438297E-1,1E0,-4.0381116E-1,-2.453983E0,-5.8013182E-2,1E0,-8.227503E-1,-1.544647E0,9.355134E-2,-7.6019056E-2,5.0138786E-2,-8.029604E-1,-3.5994896E-1,1E0,-2.9175848E-1,1E0,1E0,2.1361461E-1,1E0,2.0699828E0,-1.9963178E-1,1E0,1.0070102E0,1E0,-4.1059774E-1,1E0,-3.9755034E-1,8.957711E-1,7.716572E-1,-1.6308923E-1,1E0,-2.8704566E-1,1E0,-1.1422274E-1,2.6948583E-1,-3.5184354E-1,-1.2744445E-1,-1.06402524E-1,-3.7862197E-1,-3.4804392E-1,-8.2127035E-2,-3.4519333E-1,-1.4151892E-1,4.3218244E-2,-2.025628E-1,4.4343448E-1,-1.4504246E-1,-3.523931E-1,-1.7664954E-1,-1.2545572E-1,-2.936442E-1,3.354399E-1,-2.8007823E-1,9.624597E-3,-1.2168007E-1,-1.7203008E-1,2.677259E-1,2.9754406E-1,-5.911414E-2,-5.4434827E-3,-1.6650738E-1,5.032547E-2,2.241922E-1,7.05887E-2,-2.0080037E-1,-2.0274284E-1,9.9196434E-2,-5.4402143E-2,-2.3473305E-1,1.3589838E-1,-1.4521057E-2,-2.4629276E-1,4.496308E-3,1.15294375E-1,-2.6346678E-1,6.975717E-2,2.4343656E-1,-1.6706036E-1,2.3172466E-1,-2.220538E-2,2.3716685E-1,2.0146926E-1,-1.8756387E-1,1.24277614E-1,1.9350177E-1,2.7317834E-1,-1.6829932E-1,-6.2467616E-2,3.0379575E-1,-1.8965663E-1,3.1061944E-1,-2.3708399E-1,3.111693E-1,2.085054E-1,3.2838877E-2],"split_indices":[21,27,21,32,34,27,33,7,34,48,32,20,34,27,34,45,43,48,64,34,32,48,27,44,21,20,16,34,53,7,16,53,27,45,0,66,34,44,7,27,44,43,44,59,33,49,68,34,53,42,41,48,44,54,43,58,27,20,34,27,55,32,62,0,0,0,0,0,0,0,0,0,0,0,0,0,0,0,0,0,0,0,0,0,0,0,0,0,0,0,0,0,0,0,0,0,0,0,0,0,0,0,0,0,0,0,0,0,0,0,0,0,0,0,0,0,0,0,0,0,0,0,0,0,0],"split_type":[0,0,0,0,0,0,0,0,0,0,0,0,0,0,0,0,0,0,0,0,0,0,0,0,0,0,0,0,0,0,0,0,0,0,0,0,0,0,0,0,0,0,0,0,0,0,0,0,0,0,0,0,0,0,0,0,0,0,0,0,0,0,0,0,0,0,0,0,0,0,0,0,0,0,0,0,0,0,0,0,0,0,0,0,0,0,0,0,0,0,0,0,0,0,0,0,0,0,0,0,0,0,0,0,0,0,0,0,0,0,0,0,0,0,0,0,0,0,0,0,0,0,0,0,0],"sum_hessian":[8.389721E3,3.7968442E3,4.5928765E3,1.6410331E3,2.1558113E3,1.2941346E3,3.298742E3,4.419383E2,1.1990947E3,1.2048871E3,9.509241E2,4.32159E2,8.619756E2,1.3585624E3,1.9401797E3,4.0575447E1,4.0136285E2,7.7130145E2,4.2779327E2,5.430238E2,6.6186334E2,2.9199637E2,6.5892773E2,1.3547852E2,2.9668048E2,1.1176141E2,7.502142E2,2.5110103E2,1.1074613E3,4.7082207E1,1.8930975E3,3.753359E0,3.682209E1,4.002894E2,1.0734615E0,4.6327704E2,3.0802444E2,4.142329E2,1.3560352E1,1.8182477E2,3.6119904E2,1.1118634E2,5.50677E2,2.3187918E2,6.0117188E1,2.1944534E2,4.3948236E2,4.481612E1,9.0662384E1,8.2520386E1,2.141601E2,5.8335495E1,5.342592E1,6.810436E2,6.917063E1,1.6467029E2,8.643074E1,1.00946124E3,9.800012E1,1.5288672E1,3.1793535E1,3.0123846E2,1.591859E3,2.382698E0,1.370661E0,2.0740797E1,1.6081293E1,1.4248115E0,3.9886456E2,4.5545972E2,7.817328E0,6.693636E1,2.4108807E2,2.3375162E1,3.9085776E2,7.972986E0,5.587366E0,1.571439E2,2.4680868E1,2.1434576E2,1.4685327E2,2.6362357E0,1.085501E2,1.7603181E2,3.7464517E2,2.2572586E2,6.1533146E0,1.2367084E1,4.7750103E1,1.5089447E2,6.8550865E1,4.2001144E2,1.947092E1,3.322094E1,1.1595181E1,8.1735855E1,8.926533E0,5.1923256E1,3.059713E1,5.9124935E1,1.5503516E2,3.0040022E1,2.8295473E1,4.673148E1,6.694438E0,6.4859766E2,3.2445915E1,3.98883E0,6.51818E1,1.4379608E2,2.0874207E1,8.123598E1,5.194767E0,6.7387915E2,3.3558206E2,9.529761E1,2.7025096E0,4.9289913E0,1.0359681E1,2.857527E1,3.218265E0,1.6512572E0,2.9958722E2,1.5161216E3,7.573745E1],"tree_param":{"num_deleted":"0","num_feature":"94","num_nodes":"125","size_leaf_vector":"1"}},{"base_weights":[-1.5225742E-2,-4.8907942E-1,3.32295E-1,-7.975036E-1,-2.7788734E-1,1.1258941E-1,4.7796366E-1,-1.1062331E0,-6.8902355E-1,-7.604073E-1,-1.8582998E-1,5.17448E-3,2.8473723E-1,7.2138447E-1,4.3435785E-1,-6.311995E-1,-1.1565651E0,-7.9976654E-1,-4.89735E-1,-7.958335E-1,1.0824783E0,-6.9765025E-1,-1.11330375E-1,-9.6202426E-2,1.6008484E-1,1.5223022E-1,4.273075E-1,4.2011613E-1,8.342681E-1,1.01970926E-1,4.6254516E-1,2.1403192E-1,-7.314659E-1,-1.1621522E0,-3.84135E-1,-1.0261515E0,-4.905115E-1,-5.4591364E-1,2.2976877E-1,-8.8832986E-1,-4.6662602E-1,1.6007581E0,-1.4744084E-1,-8.6937976E-1,8.706035E-2,-2.0393597E-1,1.0742237E-1,4.776348E-2,-2.824906E-1,1.7575069E-1,-1.2666796E0,8.3134994E-2,5.299704E-1,6.827323E-1,3.2317725E-1,5.415012E-1,-4.64275E-1,-1.9733284E-1,8.6894536E-1,-4.6648684E-1,1.8640953E-1,2.6618147E-1,4.9485037E-1,2.815682E-1,-1.0465008E-1,-3.0784982E-1,-1.01120345E-1,-9.123612E-2,-3.4945714E-1,7.9712465E-2,-2.2913046E-1,-3.1282917E-1,-3.8047366E-2,-3.0556518E-1,-1.0640039E-1,-1.758236E-1,1.4898737E-1,1.4114289E-1,-2.866893E-1,5.324995E-1,-2.7212566E-1,-1.7512223E-1,2.1395326E-1,1.3767695E-1,5.502337E-1,-3.450265E-1,-1.7164142E-1,-4.7148686E-2,2.8574204E-1,-2.7895814E-2,-1.1511206E-1,-4.1893233E-2,5.322964E-2,5.39021E-3,2.1670932E-1,-4.328535E-2,-1.7544734E-1,-3.8122872E-1,5.6995716E-2,-4.5785046E-1,-8.054133E-2,4.43785E-2,-7.296877E-2,6.0243208E-2,2.5249556E-1,2.198705E-1,-3.1296605E-1,3.9154408E-3,1.2548774E-1,1.7381285E-1,-2.825066E-1,-2.8270066E-1,1.727549E-1,3.1131148E-1,-1.6320793E-1,-1.0122298E-2,2.6892942E-1,1.111941E-1,-2.539949E-1,7.368289E-2,-1.7634179E-1,1.7278484E-1,4.502905E-2,1.5412551E-1,2.2034714E-2],"categories":[],"categories_nodes":[],"categories_segments":[],"categories_sizes":[],"default_left":[0,0,0,0,0,0,0,0,0,0,0,0,0,0,0,0,0,0,0,0,0,0,0,0,0,0,0,0,0,0,0,0,0,0,0,0,0,0,1,0,0,0,0,0,0,1,0,0,0,0,0,0,0,1,0,0,0,0,0,0,0,0,0,0,0,0,0,0,0,0,0,0,0,0,0,0,0,0,0,0,0,0,0,0,0,0,0,0,0,0,0,0,0,0,0,0,0,0,0,0,0,0,0,0,0,0,0,0,0,0,0,0,0,0,0,0,0,0,0,0,0,0,0,0,0],"id":3,"left_children":[1,3,5,7,9,11,13,15,17,19,21,23,25,27,29,31,33,35,37,39,41,43,45,47,49,51,53,55,57,59,61,63,65,67,69,71,73,75,77,79,81,83,-1,85,87,89,91,93,95,97,99,101,103,105,107,109,111,113,115,117,119,121,123,-1,-1,-1,-1,-1,-1,-1,-1,-1,-1,-1,-1,-1,-1,-1,-1,-1,-1,-1,-1,-1,-1,-1,-1,-1,-1,-1,-1,-1,-1,-1,-1,-1,-1,-1,-1,-1,-1,-1,-1,-1,-1,-1,-1,-1,-1,-1,-1,-1,-1,-1,-1,-1,-1,-1,-1,-1,-1,-1,-1,-1,-1],"loss_changes":[1.3063082E3,2.1839569E2,1.464111E2,4.49057E1,8.841766E1,3.376082E1,2.8893372E1,7.7075806E0,2.1936096E1,2.1694458E1,6.3813408E1,1.768801E1,1.318774E1,1.3814362E1,2.18396E1,3.2083845E0,9.2544556E-1,4.491501E1,1.48367E1,9.136566E0,6.041886E0,2.8740883E1,2.9676735E1,1.8272541E1,1.0180464E1,9.486239E0,8.752651E0,1.2654995E1,1.0973907E1,8.914139E0,1.3526978E1,2.2002404E0,3.4220448E0,3.7704468E-1,1.1346196E0,5.449829E0,1.9443565E1,1.4439743E1,8.171627E0,1.378627E1,1.0213337E1,5.1218796E-1,0E0,1.3911484E1,8.414103E0,2.0484901E1,7.5671268E0,7.7234955E0,1.2322716E1,9.333476E0,8.751354E-1,6.588514E0,5.6046295E0,9.1471405E0,7.1201935E0,6.2788067E0,7.744133E0,5.118474E0,7.2834473E0,7.973771E0,7.515848E0,1.0929737E1,1.4680145E1,0E0,0E0,0E0,0E0,0E0,0E0,0E0,0E0,0E0,0E0,0E0,0E0,0E0,0E0,0E0,0E0,0E0,0E0,0E0,0E0,0E0,0E0,0E0,0E0,0E0,0E0,0E0,0E0,0E0,0E0,0E0,0E0,0E0,0E0,0E0,0E0,0E0,0E0,0E0,0E0,0E0,0E0,0E0,0E0,0E0,0E0,0E0,0E0,0E0,0E0,0E0,0E0,0E0,0E0,0E0,0E0,0E0,0E0,0E0,0E0,0E0,0E0],"parents":[2147483647,0,0,1,1,2,2,3,3,4,4,5,5,6,6,7,7,8,8,9,9,10,10,11,11,12,12,13,13,14,14,15,15,16,16,17,17,18,18,19,19,20,20,21,21,22,22,23,23,24,24,25,25,26,26,27,27,28,28,29,29,30,30,31,31,32,32,33,33,34,34,35,35,36,36,37,37,38,38,39,39,40,40,41,41,43,43,44,44,45,45,46,46,47,47,48,48,49,49,50,50,51,51,52,52,53,53,54,54,55,55,56,56,57,57,58,58,59,59,60,60,61,61,62,62],"right_children":[2,4,6,8,10,12,14,16,18,20,22,24,26,28,30,32,34,36,38,40,42,44,46,48,50,52,54,56,58,60,62,64,66,68,70,72,74,76,78,80,82,84,-1,86,88,90,92,94,96,98,100,102,104,106,108,110,112,114,116,118,120,122,124,-1,-1,-1,-1,-1,-1,-1,-1,-1,-1,-1,-1,-1,-1,-1,-1,-1,-1,-1,-1,-1,-1,-1,-1,-1,-1,-1,-1,-1,-1,-1,-1,-1,-1,-1,-1,-1,-1,-1,-1,-1,-1,-1,-1,-1,-1,-1,-1,-1,-1,-1,-1,-1,-1,-1,-1,-1,-1,-1,-1,-1,-1],"split_conditions":[-7.0469165E-1,-3.9559287E-1,1.2271703E0,-2.9503548E-1,-8.227503E-1,-2.2630902E-1,-4.7438297E-1,-1.5785223E0,-3.44428E-1,1E0,-2.9466096E-1,5.993152E-1,1E0,7.9855576E-2,-5.8358914E-1,-1.5681417E0,2.2699158E-1,1E0,-5.98558E-1,-5.086884E-1,-7.539151E-1,-7.539151E-1,-6.0765613E-2,5.5321664E-1,2.3660648E0,1.6002609E0,-6.2426764E-1,1.244405E0,-8.227503E-1,-3.9414468E-1,-2.8674048E-1,-4.057753E-1,-4.0381116E-1,-2.453983E0,-8.469901E-1,1E0,-8.227503E-1,1E0,-1.6840073E-1,-1.0619113E0,1.4521111E0,-6.146488E-1,-1.4744084E-1,-2.9506323E-1,-2.032858E-1,3.9187858E-1,-9.514947E-1,1E0,4.6929377E-1,-8.984334E-1,-1.9817595E-1,1.2155025E0,7.0897996E-1,4.7322645E0,-4.4050395E-1,5.183367E0,-1.5264733E-1,-1.0559993E0,-3.9077225E-1,-2.9772788E-1,6.5224135E-1,-2.9441127E-1,1E0,2.815682E-1,-1.0465008E-1,-3.0784982E-1,-1.01120345E-1,-9.123612E-2,-3.4945714E-1,7.9712465E-2,-2.2913046E-1,-3.1282917E-1,-3.8047366E-2,-3.0556518E-1,-1.0640039E-1,-1.758236E-1,1.4898737E-1,1.4114289E-1,-2.866893E-1,5.324995E-1,-2.7212566E-1,-1.7512223E-1,2.1395326E-1,1.3767695E-1,5.502337E-1,-3.450265E-1,-1.7164142E-1,-4.7148686E-2,2.8574204E-1,-2.7895814E-2,-1.1511206E-1,-4.1893233E-2,5.322964E-2,5.39021E-3,2.1670932E-1,-4.328535E-2,-1.7544734E-1,-3.8122872E-1,5.6995716E-2,-4.5785046E-1,-8.054133E-2,4.43785E-2,-7.296877E-2,6.0243208E-2,2.5249556E-1,2.198705E-1,-3.1296605E-1,3.9154408E-3,1.2548774E-1,1.7381285E-1,-2.825066E-1,-2.8270066E-1,1.727549E-1,3.1131148E-1,-1.6320793E-1,-1.0122298E-2,2.6892942E-1,1.111941E-1,-2.539949E-1,7.368289E-2,-1.7634179E-1,1.7278484E-1,4.502905E-2,1.5412551E-1,2.2034714E-2],"split_indices":[21,27,21,32,34,27,16,7,34,56,32,21,51,43,34,45,43,48,20,43,43,43,33,42,34,43,8,45,34,27,32,27,27,45,7,66,34,64,36,34,7,31,0,32,27,44,7,90,45,14,33,14,20,41,20,17,32,7,27,33,27,32,62,0,0,0,0,0,0,0,0,0,0,0,0,0,0,0,0,0,0,0,0,0,0,0,0,0,0,0,0,0,0,0,0,0,0,0,0,0,0,0,0,0,0,0,0,0,0,0,0,0,0,0,0,0,0,0,0,0,0,0,0,0,0],"split_type":[0,0,0,0,0,0,0,0,0,0,0,0,0,0,0,0,0,0,0,0,0,0,0,0,0,0,0,0,0,0,0,0,0,0,0,0,0,0,0,0,0,0,0,0,0,0,0,0,0,0,0,0,0,0,0,0,0,0,0,0,0,0,0,0,0,0,0,0,0,0,0,0,0,0,0,0,0,0,0,0,0,0,0,0,0,0,0,0,0,0,0,0,0,0,0,0,0,0,0,0,0,0,0,0,0,0,0,0,0,0,0,0,0,0,0,0,0,0,0,0,0,0,0,0,0],"sum_hessian":[7.9307065E3,3.3552827E3,4.575424E3,1.3625879E3,1.992695E3,1.8248524E3,2.7505713E3,3.518994E2,1.0106885E3,3.181014E2,1.6745935E3,1.1243333E3,7.0051917E2,4.1551245E2,2.3350588E3,3.5010506E1,3.1688892E2,6.4773474E2,3.6295377E2,3.1265927E2,5.442161E0,2.117162E2,1.4628773E3,6.798214E2,4.445118E2,3.6414496E2,3.3637424E2,1.1454141E2,3.0097104E2,1.8290044E2,2.1521584E3,3.592405E0,3.14181E1,3.1411237E2,2.7765393E0,3.7263516E2,2.7509955E2,3.3689072E2,2.606305E1,2.4275488E2,6.990437E1,4.0812325E0,1.3609285E0,1.7361389E2,3.8102318E1,1.0278293E3,4.3504794E2,3.8388992E2,2.959315E2,4.405514E2,3.9604263E0,3.0886777E2,5.5277187E1,9.580765E1,2.4056657E2,1.0105856E2,1.348285E1,9.63557E0,2.9133548E2,2.306922E1,1.5983122E2,3.053515E2,1.8468069E3,1.2788203E0,2.3135848E0,1.706501E1,1.435309E1,1.3435855E0,3.127688E2,1.134549E0,1.6419902E0,3.6572012E2,6.91504E0,5.496121E1,2.2013834E2,3.248147E2,1.2076034E1,2.2165272E1,3.8977778E0,1.042771E0,2.4171211E2,6.4051445E1,5.8529286E0,1.1959453E0,2.8852875E0,8.781454E1,8.5799355E1,3.0354553E1,7.747766E0,6.3650946E2,3.9131992E2,9.583805E1,3.392099E2,3.6863452E2,1.5255404E1,2.041057E2,9.182578E1,3.4329884E0,4.371184E2,2.7235267E0,1.2368996E0,2.5816153E2,5.0706253E1,2.76845E1,2.759269E1,9.366052E1,2.1471238E0,5.673095E1,1.8383563E2,9.9136375E1,1.9221885E0,9.301655E0,4.1811953E0,1.6751132E0,7.9604564E0,8.602031E0,2.8273343E2,7.2123547E0,1.5856864E1,1.4911218E2,1.0719044E1,8.2156944E1,2.2319455E2,1.7673173E3,7.948962E1],"tree_param":{"num_deleted":"0","num_feature":"94","num_nodes":"125","size_leaf_vector":"1"}},{"base_weights":[-1.5184409E-2,-3.8610262E-1,2.4171366E-1,-8.126291E-1,-2.6192987E-1,7.9137586E-2,3.5351267E-1,-3.2593575E-1,-8.7372804E-1,-5.2811575E-1,-1.4985892E-1,4.871739E-3,2.3750669E-1,5.365543E-1,3.1140754E-1,-4.3837088E-1,4.6261287E-1,-1.0927027E0,-6.1327034E-1,-9.6399367E-1,-4.59047E-1,-5.6859076E-1,-8.0355205E-2,2.149134E-1,-4.5941673E-2,1.806587E-1,5.475288E-1,1.4289406E-1,6.0311157E-1,2.3178817E-1,4.1642755E-1,-5.1103944E-1,2.8342682E-1,-7.1718596E-2,8.323674E-1,-1.105373E0,-6.5906197E-1,-4.1114005E-1,-9.23034E-1,-1.0941173E0,-3.9183316E-1,-5.8584166E-1,-1.6890046E-1,-8.273695E-1,-3.0390447E-1,-2.0303422E-1,2.1403477E-2,-2.0941181E-1,3.2323495E-1,-1.6126287E-1,5.9370827E-2,-7.6240224E-1,1.973167E-1,8.091693E-1,-8.58025E-2,-2.951051E-3,1.0027555E0,3.6418248E-2,6.521073E-1,2.0199214E-1,6.517241E-1,4.376742E-1,-9.232774E-2,-2.5206545E-2,-2.0843479E-1,-1.4758235E-1,3.2712469E-1,1.0847471E-1,-2.4293883E-1,4.3104553E-1,-7.476308E-2,-3.3412203E-1,-1.852366E-1,-2.7640128E-1,6.0508507E-3,-1.4257818E-1,2.7746482E-2,-3.0248702E-1,-1.24605484E-1,-3.392703E-1,-1.2631111E-2,-2.1502212E-1,8.697617E-2,-2.5186318E-1,-1.1153256E-1,-7.6650634E-2,3.905137E-1,-2.788546E-1,-6.0770873E-2,-6.1118197E-2,-3.198691E-1,-7.513966E-2,1.7770883E-1,-2.5731355E-2,5.3500462E-2,-9.63697E-2,3.8692948E-1,1.1376696E-1,-1.2052693E-1,-6.0317397E-2,1.2944698E-1,4.7064234E-2,-3.67683E-2,3.1261496E-2,-3.5116798E-1,5.0216127E-2,1.9140992E-1,3.5401857E-1,1.7667206E-1,-1.0836456E-1,1.6983484E-1,1.2474885E-1,-7.203566E-2,-3.675756E-3,3.685122E-1,3.0933765E-1,-5.9812386E-2,2.11279E-1,5.871817E-2,3.5021648E-2,9.652902E-2,1.3294986E-1,3.2270646E-1,1.3846794E-1,1.1580643E-2,-1.3141987E-1,8.469312E-2],"categories":[],"categories_nodes":[],"categories_segments":[],"categories_sizes":[],"default_left":[0,0,0,0,0,0,0,0,0,0,0,0,0,0,0,0,0,0,0,0,0,0,0,0,0,0,0,0,0,0,1,0,0,0,0,0,0,0,0,0,0,0,0,0,0,0,0,0,0,0,0,0,0,0,0,0,0,0,0,0,0,0,0,0,0,0,0,0,0,0,0,0,0,0,0,0,0,0,0,0,0,0,0,0,0,0,0,0,0,0,0,0,0,0,0,0,0,0,0,0,0,0,0,0,0,0,0,0,0,0,0,0,0,0,0,0,0,0,0,0,0,0,0,0,0,0,0],"id":4,"left_children":[1,3,5,7,9,11,13,15,17,19,21,23,25,27,29,31,33,35,37,39,41,43,45,47,49,51,53,55,57,59,61,63,65,67,69,71,73,75,77,79,81,83,85,87,89,91,93,95,97,99,101,103,105,107,109,111,113,115,117,119,121,123,125,-1,-1,-1,-1,-1,-1,-1,-1,-1,-1,-1,-1,-1,-1,-1,-1,-1,-1,-1,-1,-1,-1,-1,-1,-1,-1,-1,-1,-1,-1,-1,-1,-1,-1,-1,-1,-1,-1,-1,-1,-1,-1,-1,-1,-1,-1,-1,-1,-1,-1,-1,-1,-1,-1,-1,-1,-1,-1,-1,-1,-1,-1,-1,-1],"loss_changes":[7.172383E2,1.6291306E2,8.080118E1,2.035257E1,7.1128845E1,2.1326107E1,2.0138855E1,7.2071924E0,3.446292E1,2.0836899E1,4.8881886E1,1.3195897E1,1.0103001E1,1.2787537E1,1.7834122E1,3.7984934E0,2.1036475E0,1.1031494E0,1.7379456E1,6.7017975E0,2.2417892E1,1.6129898E1,1.801828E1,1.1137511E1,1.2101202E1,7.858412E0,1.4851042E1,9.078575E0,1.1637085E1,1.5157974E1,1.0022186E1,4.9351006E0,4.9255896E0,1.9403844E0,4.407223E0,6.286011E-1,2.1457963E0,5.644785E0,4.39402E0,2.9502487E0,4.483653E0,2.2797455E1,2.4216549E1,7.4924774E0,8.932486E0,2.4834599E1,1.3296612E1,8.726679E0,7.9561405E0,1.1303145E1,9.264083E0,3.2070608E0,6.2633343E0,4.469879E0,5.049119E0,6.34435E0,2.4190903E0,8.29274E0,9.06192E0,1.1627827E1,6.6419754E0,8.433289E0,5.0255604E0,0E0,0E0,0E0,0E0,0E0,0E0,0E0,0E0,0E0,0E0,0E0,0E0,0E0,0E0,0E0,0E0,0E0,0E0,0E0,0E0,0E0,0E0,0E0,0E0,0E0,0E0,0E0,0E0,0E0,0E0,0E0,0E0,0E0,0E0,0E0,0E0,0E0,0E0,0E0,0E0,0E0,0E0,0E0,0E0,0E0,0E0,0E0,0E0,0E0,0E0,0E0,0E0,0E0,0E0,0E0,0E0,0E0,0E0,0E0,0E0,0E0,0E0,0E0,0E0],"parents":[2147483647,0,0,1,1,2,2,3,3,4,4,5,5,6,6,7,7,8,8,9,9,10,10,11,11,12,12,13,13,14,14,15,15,16,16,17,17,18,18,19,19,20,20,21,21,22,22,23,23,24,24,25,25,26,26,27,27,28,28,29,29,30,30,31,31,32,32,33,33,34,34,35,35,36,36,37,37,38,38,39,39,40,40,41,41,42,42,43,43,44,44,45,45,46,46,47,47,48,48,49,49,50,50,51,51,52,52,53,53,54,54,55,55,56,56,57,57,58,58,59,59,60,60,61,61,62,62],"right_children":[2,4,6,8,10,12,14,16,18,20,22,24,26,28,30,32,34,36,38,40,42,44,46,48,50,52,54,56,58,60,62,64,66,68,70,72,74,76,78,80,82,84,86,88,90,92,94,96,98,100,102,104,106,108,110,112,114,116,118,120,122,124,126,-1,-1,-1,-1,-1,-1,-1,-1,-1,-1,-1,-1,-1,-1,-1,-1,-1,-1,-1,-1,-1,-1,-1,-1,-1,-1,-1,-1,-1,-1,-1,-1,-1,-1,-1,-1,-1,-1,-1,-1,-1,-1,-1,-1,-1,-1,-1,-1,-1,-1,-1,-1,-1,-1,-1,-1,-1,-1,-1,-1,-1,-1,-1,-1],"split_conditions":[-7.0469165E-1,-2.9471645E-1,1.2271703E0,-1.5785223E0,-3.9508352E-1,-1.6144168E-1,-4.5791793E-1,-1.6921173E-1,-2.9506323E-1,-8.227503E-1,-8.227503E-1,-9.067327E-1,1.1385974E0,-5.8358914E-1,7.664902E-1,1E0,-4.2414838E-1,-2.1441641E-1,-1.9445947E-3,1.3476065E0,1E0,1E0,-2.6470762E-1,-4.0190154E-1,-2.3934425E-1,-3.6701363E-1,9.0396494E-1,1E0,-5.577338E-1,1E0,4.2875834E0,-4.1654772E-1,-3.8559657E-1,9.293448E-1,7.2709155E-1,1E0,1E0,-7.539151E-1,-4.0558514E-1,1E0,5.5021816E-1,-3.44428E-1,1.1635999E-3,-1.7360675E-1,1E0,1E0,-2.6539266E-1,1.1194144E0,1E0,1E0,4.929604E-1,-2.4607266E-1,1E0,7.4435815E-2,1.2877089E0,-3.4932432E-1,-4.0360355E-1,-2.9150325E-1,1.4521111E0,1E0,7.6645416E-1,1E0,1.3873501E-1,-2.5206545E-2,-2.0843479E-1,-1.4758235E-1,3.2712469E-1,1.0847471E-1,-2.4293883E-1,4.3104553E-1,-7.476308E-2,-3.3412203E-1,-1.852366E-1,-2.7640128E-1,6.0508507E-3,-1.4257818E-1,2.7746482E-2,-3.0248702E-1,-1.24605484E-1,-3.392703E-1,-1.2631111E-2,-2.1502212E-1,8.697617E-2,-2.5186318E-1,-1.1153256E-1,-7.6650634E-2,3.905137E-1,-2.788546E-1,-6.0770873E-2,-6.1118197E-2,-3.198691E-1,-7.513966E-2,1.7770883E-1,-2.5731355E-2,5.3500462E-2,-9.63697E-2,3.8692948E-1,1.1376696E-1,-1.2052693E-1,-6.0317397E-2,1.2944698E-1,4.7064234E-2,-3.67683E-2,3.1261496E-2,-3.5116798E-1,5.0216127E-2,1.9140992E-1,3.5401857E-1,1.7667206E-1,-1.0836456E-1,1.6983484E-1,1.2474885E-1,-7.203566E-2,-3.675756E-3,3.685122E-1,3.0933765E-1,-5.9812386E-2,2.11279E-1,5.871817E-2,3.5021648E-2,9.652902E-2,1.3294986E-1,3.2270646E-1,1.3846794E-1,1.1580643E-2,-1.3141987E-1,8.469312E-2],"split_indices":[21,32,21,7,27,32,16,27,32,34,34,44,7,34,43,84,34,43,31,7,48,48,34,27,20,27,46,60,43,57,42,45,27,8,46,54,48,43,27,61,46,34,31,32,60,53,32,14,67,54,30,42,77,27,19,27,31,33,7,51,20,78,36,0,0,0,0,0,0,0,0,0,0,0,0,0,0,0,0,0,0,0,0,0,0,0,0,0,0,0,0,0,0,0,0,0,0,0,0,0,0,0,0,0,0,0,0,0,0,0,0,0,0,0,0,0,0,0,0,0,0,0,0,0,0,0,0],"split_type":[0,0,0,0,0,0,0,0,0,0,0,0,0,0,0,0,0,0,0,0,0,0,0,0,0,0,0,0,0,0,0,0,0,0,0,0,0,0,0,0,0,0,0,0,0,0,0,0,0,0,0,0,0,0,0,0,0,0,0,0,0,0,0,0,0,0,0,0,0,0,0,0,0,0,0,0,0,0,0,0,0,0,0,0,0,0,0,0,0,0,0,0,0,0,0,0,0,0,0,0,0,0,0,0,0,0,0,0,0,0,0,0,0,0,0,0,0,0,0,0,0,0,0,0,0,0,0],"sum_hessian":[7.525064E3,3.0789983E3,4.446066E3,6.930085E2,2.3859897E3,1.8123245E3,2.6337415E3,7.800238E1,6.150061E2,7.058275E2,1.6801622E3,1.2344639E3,5.778606E2,4.9034503E2,2.1433962E3,6.8657005E1,9.345374E0,3.323739E2,2.8263223E2,9.477378E1,6.110537E2,2.3816049E2,1.4420017E3,2.3983902E2,9.946249E2,4.8965625E2,8.8204346E1,7.136952E1,4.189755E2,1.2209547E3,9.224416E2,6.2642338E1,6.0146656E0,4.1517406E0,5.1936336E0,3.2143304E2,1.0940849E1,1.7243825E2,1.1019399E2,7.6470276E1,1.8303507E1,4.2451895E2,1.8653479E2,1.193492E2,1.18811295E2,6.5334357E2,7.886582E2,4.8585003E1,1.9125401E2,4.7449908E2,5.201258E2,7.72201E0,4.8193423E2,6.2221775E1,2.5982569E1,6.187174E1,9.497786E0,3.3480225E1,3.8549527E2,1.1414458E3,7.95089E1,8.8559705E2,3.6844593E1,1.9283924E1,4.3358414E1,3.2665298E0,2.7481356E0,2.937395E0,1.2143452E0,3.1209896E0,2.0726442E0,3.1475293E2,6.6801114E0,7.6359096E0,3.3049397E0,1.5301334E2,1.9424911E1,9.350539E1,1.6688608E1,7.381436E1,2.6559136E0,1.236116E1,5.9423466E0,1.9293677E2,2.3158218E2,1.7694131E2,9.593482E0,1.02159836E2,1.7189363E1,1.06131775E2,1.2679522E1,6.1722235E2,3.6121243E1,4.6888885E2,3.1976932E2,4.594387E1,2.6411316E0,1.779858E2,1.3268222E1,4.4526642E2,2.923265E1,3.3871988E2,1.814059E2,2.7108922E0,5.011118E0,4.5257883E2,2.9355413E1,2.156003E1,4.0661747E1,1.8579361E1,7.403207E0,2.209827E1,3.9773468E1,1.8992352E0,7.5985503E0,5.769253E0,2.7710974E1,3.4547098E2,4.00243E1,6.6796344E2,4.7348242E2,5.466379E1,2.4845112E1,8.354372E2,5.0159832E1,1.9073303E1,1.777129E1],"tree_param":{"num_deleted":"0","num_feature":"94","num_nodes":"127","size_leaf_vector":"1"}},{"base_weights":[-1.4095343E-2,-3.073835E-1,1.7307174E-1,-8.0237424E-1,-2.1744446E-1,8.475858E-2,2.9793075E-1,-2.6453412E-1,-9.0834993E-1,-4.5926055E-1,-1.1008337E-1,1.2184958E-1,-1.3119102E-1,1.9063619E-1,3.9026216E-1,-4.79443E-1,3.381916E-2,-1.0290596E0,-5.8487886E-1,-1.8659125E-1,-5.5549234E-1,-5.235651E-2,-4.586645E-1,1.434997E-2,2.0711517E-1,-4.484639E-1,3.4496062E-3,9.505511E-2,3.6574328E-1,4.1932577E-1,-2.7347656E-2,-8.264703E-1,-1.0058433E-1,4.4441292E-1,-3.5003063E-1,-1.0443695E0,-5.670788E-1,-6.2161255E-1,2.575876E-1,-6.6591394E-1,6.487518E-3,-5.894452E-1,-3.825137E-2,-1.3235286E-3,-3.1313446E-1,-6.751965E-1,1.547849E-1,1.17403865E-1,-1.2621471E-1,3.745521E-1,1.5334494E-1,-7.143512E-1,-1.2117687E-1,-5.7508055E-2,6.5046656E-1,1.2588848E-1,-1.0564965E0,9.30966E-2,4.533162E-1,4.3920398E-1,-2.0716064E-1,2.805135E-1,-5.294291E-1,-2.924855E-1,1.881219E-1,5.3764734E-2,-1.78038E-1,-1.7915845E-2,3.3624548E-1,-1.4011689E-1,2.000973E-1,-3.163566E-1,-1.5782641E-1,-2.5105974E-1,4.6393676E-3,-2.0426337E-1,8.178617E-2,-2.3283198E-1,4.2873102E-1,1.1981065E-1,-6.111434E-2,-2.0765767E-1,-1.0887324E-1,-7.683902E-2,7.6643646E-1,-8.94331E-3,1.792945E-1,-2.0329806E-1,1.2649835E-2,9.004648E-2,-2.1730813E-1,-2.8382242E-1,1.2688552E-1,2.969669E-2,2.5779864E-1,-8.370906E-3,-1.318173E-1,4.4100067E-1,1.0487099E-1,-7.694694E-2,5.4883275E-2,-2.4872671E-1,2.8929475E-1,5.5127095E-2,-2.0510072E-1,-3.4844905E-2,1.7043307E-1,2.3961826E-1,-9.770605E-2,-8.403877E-2,4.9199086E-2,-4.0449488E-1,1.7907478E-1,1.4290585E-1,-3.3433143E-2,1.995885E-1,7.339382E-2,5.191942E-2,1.4387518E-1,-2.9651728E-1,5.4686245E-2,-2.1787547E-3,2.862113E-1,7.777244E-2,-2.9335633E-1],"categories":[],"categories_nodes":[],"categories_segments":[],"categories_sizes":[],"default_left":[0,0,0,0,0,0,0,0,0,0,0,0,0,1,0,0,0,0,0,0,0,0,0,0,0,0,0,0,0,0,0,0,0,0,0,0,0,0,0,0,0,0,0,0,0,0,0,0,0,0,0,1,1,0,0,0,0,0,0,0,0,0,0,0,0,0,0,0,0,0,0,0,0,0,0,0,0,0,0,0,0,0,0,0,0,0,0,0,0,0,0,0,0,0,0,0,0,0,0,0,0,0,0,0,0,0,0,0,0,0,0,0,0,0,0,0,0,0,0,0,0,0,0,0,0],"id":5,"left_children":[1,3,5,7,9,11,13,15,17,19,21,23,25,27,29,31,33,35,37,39,41,43,45,47,49,51,53,55,57,59,61,63,65,67,69,71,73,75,-1,77,79,81,83,85,87,89,91,93,95,97,99,101,103,105,107,109,111,113,115,117,119,121,123,-1,-1,-1,-1,-1,-1,-1,-1,-1,-1,-1,-1,-1,-1,-1,-1,-1,-1,-1,-1,-1,-1,-1,-1,-1,-1,-1,-1,-1,-1,-1,-1,-1,-1,-1,-1,-1,-1,-1,-1,-1,-1,-1,-1,-1,-1,-1,-1,-1,-1,-1,-1,-1,-1,-1,-1,-1,-1,-1,-1,-1,-1],"loss_changes":[3.951163E2,1.24655914E2,4.8424637E1,2.4312683E1,6.1587837E1,2.0640963E1,1.7954727E1,4.65315E0,1.3433319E1,1.904277E1,3.308815E1,2.0144371E1,1.6145638E1,1.4086151E1,1.1871994E1,5.4523916E0,5.0751557E0,1.2498779E0,5.8362846E0,1.7759542E1,9.440247E0,1.8802414E1,3.1142227E1,1.4114283E1,1.0977818E1,9.712425E0,1.0541232E1,1.9559748E1,7.062538E0,1.1469406E1,1.0121785E1,5.3241673E0,3.0392373E0,5.3600516E0,2.298168E0,7.654724E-1,1.6698184E0,5.384575E0,0E0,1.3829094E1,1.145749E1,1.1516296E1,2.00105E1,2.0197332E1,2.9977211E1,8.5078125E0,1.8636452E1,7.5948715E0,1.2679389E1,7.620846E0,1.1322086E1,1.2726805E1,8.989684E0,9.028981E0,3.5905218E0,8.304688E0,7.740404E0,5.822596E0,9.788193E0,9.4375E0,8.936034E0,7.8860264E0,9.0495E0,0E0,0E0,0E0,0E0,0E0,0E0,0E0,0E0,0E0,0E0,0E0,0E0,0E0,0E0,0E0,0E0,0E0,0E0,0E0,0E0,0E0,0E0,0E0,0E0,0E0,0E0,0E0,0E0,0E0,0E0,0E0,0E0,0E0,0E0,0E0,0E0,0E0,0E0,0E0,0E0,0E0,0E0,0E0,0E0,0E0,0E0,0E0,0E0,0E0,0E0,0E0,0E0,0E0,0E0,0E0,0E0,0E0,0E0,0E0,0E0,0E0,0E0],"parents":[2147483647,0,0,1,1,2,2,3,3,4,4,5,5,6,6,7,7,8,8,9,9,10,10,11,11,12,12,13,13,14,14,15,15,16,16,17,17,18,18,19,19,20,20,21,21,22,22,23,23,24,24,25,25,26,26,27,27,28,28,29,29,30,30,31,31,32,32,33,33,34,34,35,35,36,36,37,37,39,39,40,40,41,41,42,42,43,43,44,44,45,45,46,46,47,47,48,48,49,49,50,50,51,51,52,52,53,53,54,54,55,55,56,56,57,57,58,58,59,59,60,60,61,61,62,62],"right_children":[2,4,6,8,10,12,14,16,18,20,22,24,26,28,30,32,34,36,38,40,42,44,46,48,50,52,54,56,58,60,62,64,66,68,70,72,74,76,-1,78,80,82,84,86,88,90,92,94,96,98,100,102,104,106,108,110,112,114,116,118,120,122,124,-1,-1,-1,-1,-1,-1,-1,-1,-1,-1,-1,-1,-1,-1,-1,-1,-1,-1,-1,-1,-1,-1,-1,-1,-1,-1,-1,-1,-1,-1,-1,-1,-1,-1,-1,-1,-1,-1,-1,-1,-1,-1,-1,-1,-1,-1,-1,-1,-1,-1,-1,-1,-1,-1,-1,-1,-1,-1,-1,-1,-1,-1],"split_conditions":[-7.5298816E-1,-2.9491064E-1,4.934517E-1,-1.5785223E0,-3.9508352E-1,1E0,-2.009976E-1,-4.2414838E-1,-2.9506323E-1,-6.3334084E-1,1E0,-2.6539266E-1,3.7305537E-1,-1.9657665E-1,3.9637642E0,1E0,2.6373023E-2,-2.1441641E-1,-4.1799343E-1,-4.069389E-1,1E0,1E0,-1.419344E-1,4.007171E-1,-4.0852287E-1,-1.9515578E-1,1E0,1E0,7.6645416E-1,1E0,2.6403947E0,-4.1799343E-1,1.9597938E-2,-3.8559657E-1,-8.495813E-1,1E0,1E0,1E0,2.575876E-1,1E0,-4.030319E-1,1E0,1E0,1E0,5.324961E-1,-2.9427257E-1,-2.8970894E-1,1.2925379E-1,-1.5323969E-3,-8.984334E-1,-5.8358914E-1,3.9097226E-1,-6.888039E-2,1E0,7.336184E-1,7.200566E-1,1.6002609E0,-6.3334084E-1,2.7490035E-1,1.009836E0,5.703089E-1,2.5542421E0,7.110987E-1,-2.924855E-1,1.881219E-1,5.3764734E-2,-1.78038E-1,-1.7915845E-2,3.3624548E-1,-1.4011689E-1,2.000973E-1,-3.163566E-1,-1.5782641E-1,-2.5105974E-1,4.6393676E-3,-2.0426337E-1,8.178617E-2,-2.3283198E-1,4.2873102E-1,1.1981065E-1,-6.111434E-2,-2.0765767E-1,-1.0887324E-1,-7.683902E-2,7.6643646E-1,-8.94331E-3,1.792945E-1,-2.0329806E-1,1.2649835E-2,9.004648E-2,-2.1730813E-1,-2.8382242E-1,1.2688552E-1,2.969669E-2,2.5779864E-1,-8.370906E-3,-1.318173E-1,4.4100067E-1,1.0487099E-1,-7.694694E-2,5.4883275E-2,-2.4872671E-1,2.8929475E-1,5.5127095E-2,-2.0510072E-1,-3.4844905E-2,1.7043307E-1,2.3961826E-1,-9.770605E-2,-8.403877E-2,4.9199086E-2,-4.0449488E-1,1.7907478E-1,1.4290585E-1,-3.3433143E-2,1.995885E-1,7.339382E-2,5.191942E-2,1.4387518E-1,-2.9651728E-1,5.4686245E-2,-2.1787547E-3,2.862113E-1,7.777244E-2,-2.9335633E-1],"split_indices":[21,32,20,7,27,49,33,34,32,44,50,32,34,37,30,48,45,43,14,27,53,49,27,37,16,33,54,61,20,56,42,14,46,27,21,54,48,52,0,56,27,48,50,69,34,32,32,27,31,14,34,37,41,52,44,21,43,44,29,21,43,27,16,0,0,0,0,0,0,0,0,0,0,0,0,0,0,0,0,0,0,0,0,0,0,0,0,0,0,0,0,0,0,0,0,0,0,0,0,0,0,0,0,0,0,0,0,0,0,0,0,0,0,0,0,0,0,0,0,0,0,0,0,0,0],"split_type":[0,0,0,0,0,0,0,0,0,0,0,0,0,0,0,0,0,0,0,0,0,0,0,0,0,0,0,0,0,0,0,0,0,0,0,0,0,0,0,0,0,0,0,0,0,0,0,0,0,0,0,0,0,0,0,0,0,0,0,0,0,0,0,0,0,0,0,0,0,0,0,0,0,0,0,0,0,0,0,0,0,0,0,0,0,0,0,0,0,0,0,0,0,0,0,0,0,0,0,0,0,0,0,0,0,0,0,0,0,0,0,0,0,0,0,0,0,0,0,0,0,0,0,0,0],"sum_hessian":[7.1958506E3,2.8029795E3,4.3928716E3,4.297693E2,2.3732102E3,2.573972E3,1.8188995E3,7.131792E1,3.584514E2,7.2868036E2,1.6445298E3,2.1970479E3,3.7692407E2,8.426986E2,9.7620087E2,4.1103447E1,3.0214468E1,2.5945078E2,9.9000595E1,1.9085077E2,5.378296E2,1.4118673E3,2.3266241E2,9.723342E2,1.2247136E3,1.11604256E2,2.6531982E2,5.461364E2,2.9656226E2,9.126788E2,6.352212E1,2.0836311E1,2.0267138E1,1.4522434E1,1.5692033E1,2.4990836E2,9.542438E0,9.709904E1,1.901562E0,5.409922E1,1.3675154E2,5.0456897E2,3.3260593E1,1.1816327E3,2.3023471E2,1.7188924E2,6.077318E1,5.6111896E2,4.1121524E2,2.9624878E2,9.284648E2,6.0925697E1,5.0678555E1,2.4330806E2,2.2011759E1,5.327621E2,1.3374296E1,7.259877E1,2.2396347E2,8.849001E2,2.7778646E1,3.965077E1,2.3871353E1,1.9203869E1,1.632442E0,1.3333974E1,6.933163E0,8.843206E0,5.6792283E0,1.4557685E1,1.1343483E0,2.4409224E2,5.8161116E0,6.2235985E0,3.3188388E0,9.1287544E1,5.811491E0,5.1994015E1,2.1052086E0,4.735047E1,8.940108E1,3.4571213E2,1.5885684E2,3.1513882E1,1.7467123E0,1.128892E3,5.274063E1,1.13194214E2,1.170405E2,8.00354E0,1.638857E2,1.140916E1,4.936402E1,5.48635E2,1.248394E1,3.137976E2,9.741763E1,5.315725E0,2.9093304E2,6.2022972E1,8.6644183E2,5.7501537E1,3.4241598E0,3.32997E1,1.7378857E1,2.2320093E2,2.0107143E1,1.9267168E1,2.744592E0,4.516898E1,4.875931E2,1.1524755E1,1.8495412E0,2.4800362E1,4.7798405E1,1.100154E2,1.1394807E2,1.1727051E2,7.676296E2,8.729467E0,1.904918E1,2.847395E1,1.117682E1,8.805868E0,1.5065485E1],"tree_param":{"num_deleted":"0","num_feature":"94","num_nodes":"125","size_leaf_vector":"1"}},{"base_weights":[-1.2626907E-2,-2.159476E-1,1.4338118E-1,-7.3723644E-1,-1.5464602E-1,1.1158699E-2,1.8721156E-1,-1.9563214E-1,-9.189028E-1,-5.3410006E-1,-1.1024938E-1,4.7756526E-1,-1.4115282E-2,2.053615E-1,-1.4307979E-1,-2.7211422E-1,5.516446E-1,-9.787906E-1,-5.479627E-1,-7.622131E-1,-2.2569229E-1,-2.3540336E-1,-3.6792438E-3,7.2268695E-1,-1.3286182E-1,-6.753354E-2,1.4915349E-1,2.2387524E-1,-1.3244395E-1,-2.4567966E-1,7.376887E-1,-3.2117182E-1,5.468E-1,9.163086E-1,-9.416191E-2,-9.867078E-1,-1.6263177E-1,1.7504906E-2,-7.2824633E-1,-8.4195495E-1,-1.8169945E-3,-2.7918902E-1,9.326698E-1,2.545528E-2,-3.421554E-1,4.366322E-2,-1.623523E-1,8.4244204E-1,-5.5834126E-1,-7.429393E-1,7.9341227E-1,-1.3924614E-1,1.0589108E-1,1.976116E-1,-8.282238E-1,1.0308563E-1,2.6283967E-1,-5.365619E-1,1.04329E-1,-2.9647458E-1,3.0307692E-1,-5.411564E-1,1.0343215E0,-1.5141618E-1,-2.8540606E-2,2.9593453E-1,-8.997722E-2,3.7784114E-1,7.951632E-3,-2.1034628E-1,1.6768079E-1,-2.995261E-1,-1.4440843E-1,-1.8099558E-1,1.1424474E-1,-1.4335905E-1,3.9150843E-1,-2.998235E-1,-1.02461554E-1,-2.6168942E-1,3.3698452E-1,-1.0016229E-1,2.585588E-1,-9.49112E-2,4.378022E-1,3.4821495E-2,4.2183787E-1,2.1235444E-2,-3.145491E-1,-1.1430362E-1,4.6921838E-2,-9.3422085E-2,2.3861295E-2,-1.4039797E-1,1.3004311E-2,-2.3172732E-1,2.819531E-1,-3.956225E-1,1.6414225E-1,-4.634684E-1,8.3724216E-2,3.264107E-1,-8.714906E-2,-1.4109227E-1,-2.3180876E-2,1.0691378E-1,-2.1013698E-2,1.5363441E-1,3.0993858E-2,-3.7112877E-1,1.1357303E-1,8.322643E-2,8.3046686E-4,8.903262E-2,-5.5882926E-3,-2.1552217E-1,9.949076E-2,7.95113E-2,-2.8460786E-1,-1.1375004E-1,1.3987671E-1,1.344729E-1,-4.1153076E-1,3.0690616E-2,3.894805E-1],"categories":[],"categories_nodes":[],"categories_segments":[],"categories_sizes":[],"default_left":[0,0,0,0,0,0,0,0,0,0,0,0,0,0,0,0,0,0,0,0,0,0,0,0,0,0,0,0,0,0,0,0,0,0,0,0,0,0,0,0,0,0,0,0,0,0,0,0,0,0,0,0,0,0,0,0,0,0,0,0,0,0,0,0,0,0,0,0,0,0,0,0,0,0,0,0,0,0,0,0,0,0,0,0,0,0,0,0,0,0,0,0,0,0,0,0,0,0,0,0,0,0,0,0,0,0,0,0,0,0,0,0,0,0,0,0,0,0,0,0,0,0,0,0,0],"id":6,"left_children":[1,3,5,7,9,11,13,15,17,19,21,23,25,27,29,31,33,35,37,39,41,43,45,47,49,51,53,55,57,59,61,63,65,67,69,71,73,75,77,79,81,83,85,87,89,91,93,95,97,99,101,103,105,107,109,111,113,115,117,119,-1,121,123,-1,-1,-1,-1,-1,-1,-1,-1,-1,-1,-1,-1,-1,-1,-1,-1,-1,-1,-1,-1,-1,-1,-1,-1,-1,-1,-1,-1,-1,-1,-1,-1,-1,-1,-1,-1,-1,-1,-1,-1,-1,-1,-1,-1,-1,-1,-1,-1,-1,-1,-1,-1,-1,-1,-1,-1,-1,-1,-1,-1,-1,-1],"loss_changes":[2.2022313E2,9.621028E1,2.2765121E1,3.1001022E1,4.5399483E1,1.1548489E1,1.77164E1,4.77203E0,4.72937E0,1.9694313E1,3.2236355E1,7.6310844E0,8.118967E0,1.7523056E1,1.4122389E1,3.149705E0,1.9322948E0,1.1500702E0,3.6033926E0,9.815491E0,7.788502E0,3.0962715E1,9.8210125E0,6.0062428E0,9.220092E0,8.735855E0,1.103404E1,1.2455338E1,1.4022303E1,9.162395E0,6.760518E0,2.8759418E0,1.9912099E0,1.5247889E0,1.8728089E0,7.0713806E-1,9.8315793E-1,6.67713E0,2.461649E0,9.717827E0,4.9822884E0,8.017596E0,1.9992342E0,1.5833636E1,1.5341408E1,1.2851942E1,1.8908543E1,5.979328E0,3.8203726E0,8.401463E0,2.4072447E0,1.0151473E1,9.090561E0,6.456352E0,5.9130645E0,1.1341086E1,1.915361E1,8.7775E0,1.596864E1,8.647334E0,0E0,3.6836345E0,3.2157335E0,0E0,0E0,0E0,0E0,0E0,0E0,0E0,0E0,0E0,0E0,0E0,0E0,0E0,0E0,0E0,0E0,0E0,0E0,0E0,0E0,0E0,0E0,0E0,0E0,0E0,0E0,0E0,0E0,0E0,0E0,0E0,0E0,0E0,0E0,0E0,0E0,0E0,0E0,0E0,0E0,0E0,0E0,0E0,0E0,0E0,0E0,0E0,0E0,0E0,0E0,0E0,0E0,0E0,0E0,0E0,0E0,0E0,0E0,0E0,0E0,0E0,0E0],"parents":[2147483647,0,0,1,1,2,2,3,3,4,4,5,5,6,6,7,7,8,8,9,9,10,10,11,11,12,12,13,13,14,14,15,15,16,16,17,17,18,18,19,19,20,20,21,21,22,22,23,23,24,24,25,25,26,26,27,27,28,28,29,29,30,30,31,31,32,32,33,33,34,34,35,35,36,36,37,37,38,38,39,39,40,40,41,41,42,42,43,43,44,44,45,45,46,46,47,47,48,48,49,49,50,50,51,51,52,52,53,53,54,54,55,55,56,56,57,57,58,58,59,59,61,61,62,62],"right_children":[2,4,6,8,10,12,14,16,18,20,22,24,26,28,30,32,34,36,38,40,42,44,46,48,50,52,54,56,58,60,62,64,66,68,70,72,74,76,78,80,82,84,86,88,90,92,94,96,98,100,102,104,106,108,110,112,114,116,118,120,-1,122,124,-1,-1,-1,-1,-1,-1,-1,-1,-1,-1,-1,-1,-1,-1,-1,-1,-1,-1,-1,-1,-1,-1,-1,-1,-1,-1,-1,-1,-1,-1,-1,-1,-1,-1,-1,-1,-1,-1,-1,-1,-1,-1,-1,-1,-1,-1,-1,-1,-1,-1,-1,-1,-1,-1,-1,-1,-1,-1,-1,-1,-1,-1],"split_conditions":[-5.267152E-1,-2.9499388E-1,7.6835316E-1,-1.5785223E0,-8.227503E-1,-6.146488E-1,1E0,8.7940164E-2,-2.9506323E-1,-3.123712E-1,-3.7139407E-1,2.2649495E-1,1E0,1E0,2.0471833E0,-3.364146E-2,4.563863E-1,2.2699158E-1,-6.3334084E-1,1E0,1E0,-6.3334084E-1,1E0,2.0837455E0,2.478334E-1,-2.467218E-1,1.4854168E0,-2.777658E-1,2.1361461E-1,1E0,-2.1685474E-2,-4.2414838E-1,3.5402296E0,-5.140814E-1,-2.4187548E-1,1E0,-1.0639682E-1,1.4521111E0,-2.6470762E-1,1E0,9.0396494E-1,1E0,-4.4073477E-1,1E0,7.9855576E-2,-2.8537783E-1,5.324961E-1,-4.8261547E-1,1.2804021E0,7.336184E-1,1.4482727E0,-4.2414838E-1,6.9193685E-1,-5.59802E-1,2.0608075E-1,-4.2897168E-1,1E0,2.1875949E-1,1.1385974E0,1.4521111E0,3.0307692E-1,8.2508355E-1,-4.5481703E-1,-1.5141618E-1,-2.8540606E-2,2.9593453E-1,-8.997722E-2,3.7784114E-1,7.951632E-3,-2.1034628E-1,1.6768079E-1,-2.995261E-1,-1.4440843E-1,-1.8099558E-1,1.1424474E-1,-1.4335905E-1,3.9150843E-1,-2.998235E-1,-1.02461554E-1,-2.6168942E-1,3.3698452E-1,-1.0016229E-1,2.585588E-1,-9.49112E-2,4.378022E-1,3.4821495E-2,4.2183787E-1,2.1235444E-2,-3.145491E-1,-1.1430362E-1,4.6921838E-2,-9.3422085E-2,2.3861295E-2,-1.4039797E-1,1.3004311E-2,-2.3172732E-1,2.819531E-1,-3.956225E-1,1.6414225E-1,-4.634684E-1,8.3724216E-2,3.264107E-1,-8.714906E-2,-1.4109227E-1,-2.3180876E-2,1.0691378E-1,-2.1013698E-2,1.5363441E-1,3.0993858E-2,-3.7112877E-1,1.1357303E-1,8.322643E-2,8.3046686E-4,8.903262E-2,-5.5882926E-3,-2.1552217E-1,9.949076E-2,7.95113E-2,-2.8460786E-1,-1.1375004E-1,1.3987671E-1,1.344729E-1,-4.1153076E-1,3.0690616E-2,3.894805E-1],"split_indices":[20,32,21,7,34,31,64,27,32,27,27,32,48,63,34,14,27,43,44,61,56,44,49,30,45,27,27,32,34,50,37,34,36,14,36,54,8,7,34,92,46,64,31,65,43,33,34,16,44,44,32,34,34,21,20,7,49,31,7,7,0,7,29,0,0,0,0,0,0,0,0,0,0,0,0,0,0,0,0,0,0,0,0,0,0,0,0,0,0,0,0,0,0,0,0,0,0,0,0,0,0,0,0,0,0,0,0,0,0,0,0,0,0,0,0,0,0,0,0,0,0,0,0,0,0],"split_type":[0,0,0,0,0,0,0,0,0,0,0,0,0,0,0,0,0,0,0,0,0,0,0,0,0,0,0,0,0,0,0,0,0,0,0,0,0,0,0,0,0,0,0,0,0,0,0,0,0,0,0,0,0,0,0,0,0,0,0,0,0,0,0,0,0,0,0,0,0,0,0,0,0,0,0,0,0,0,0,0,0,0,0,0,0,0,0,0,0,0,0,0,0,0,0,0,0,0,0,0,0,0,0,0,0,0,0,0,0,0,0,0,0,0,0,0,0,0,0,0,0,0,0,0,0],"sum_hessian":[6.9408174E3,3.0132954E3,3.9275222E3,3.15906E2,2.6973894E3,9.78114E2,2.9494082E3,7.986885E1,2.3603716E2,2.8138528E2,2.4160042E3,4.9358356E1,9.287556E2,2.796135E3,1.5327306E2,7.303023E1,6.838618E0,2.018156E2,3.4221554E1,1.6090259E2,1.2048268E2,1.1105665E3,1.3054375E3,3.508557E1,1.4272785E1,7.0023816E2,2.2851747E2,2.6511724E3,1.449627E2,1.3792712E2,1.5345936E1,6.947603E1,3.5541997E0,4.102962E0,2.7356558E0,1.9966972E2,2.1458695E0,8.491255E0,2.5730299E1,1.4553342E2,1.5369176E1,1.1588953E2,4.593156E0,3.2272333E2,7.8784326E2,1.0060056E3,2.9943192E2,3.2399155E1,2.6864173E0,8.724465E0,5.54832E0,4.9552948E2,2.047087E2,2.1848296E2,1.0034514E1,6.4751685E2,2.0036555E3,5.3087757E1,9.1874954E1,1.332999E2,4.6272225E0,2.7341444E0,1.2611792E1,3.7661106E1,3.1814926E1,2.2308486E0,1.323351E0,2.6611958E0,1.4417664E0,1.3797383E0,1.3559176E0,1.9419316E2,5.4765615E0,1.1241314E0,1.0217379E0,6.586125E0,1.9051294E0,1.4193321E1,1.1536977E1,1.4386824E2,1.665179E0,1.154422E1,3.8249562E0,1.142638E2,1.6257178E0,2.14269E0,2.4504662E0,3.1054968E2,1.2173637E1,7.3109894E2,5.67443E1,9.1609764E1,9.143959E2,1.19941216E2,1.794907E2,1.4487833E0,3.095037E1,1.4773315E0,1.209086E0,4.6018734E0,4.122592E0,4.3595257E0,1.1887943E0,7.709911E1,4.1843036E2,8.403669E1,1.2067201E2,4.937564E1,1.6910732E2,7.4763675E0,2.5581467E0,2.3586148E2,4.1165536E2,1.7880239E3,2.1563155E2,4.4036728E1,9.051027E0,8.035912E1,1.1515832E1,1.207153E2,1.2584596E1,1.4578941E0,1.2762504E0,3.0896285E0,9.522163E0],"tree_param":{"num_deleted":"0","num_feature":"94","num_nodes":"125","size_leaf_vector":"1"}},{"base_weights":[-1.0836101E-2,-2.0447613E-1,9.184853E-2,-8.206729E-1,-1.509519E-1,1.1157459E-1,-2.807153E-1,-1.6291888E-1,-9.2745966E-1,-5.654734E-1,-1.10702716E-1,7.802706E-2,2.32207E-1,-1.0499104E0,-1.2289562E-1,-3.1127736E-1,2.5958347E-1,-9.470996E-1,-3.0452004E-1,-7.2868997E-1,-3.7477675E-1,-4.8530716E-1,-6.904866E-2,1.5934262E-1,-3.4315847E-2,2.0386276E-1,5.6124544E-1,-1.1171046E0,1.2559654E-1,4.907933E-1,-2.7298135E-1,-5.1362497E-1,4.2486316E-1,-9.754954E-1,-6.667787E-1,-2.625162E-1,2.769184E-1,6.607404E-2,-7.96471E-1,1.15750544E-1,-5.778901E-1,-5.408657E-1,7.21712E-1,-2.1077794E-1,1.3944448E-3,1.8969098E-1,-7.265888E-2,-5.996887E-2,3.755839E-1,2.7069685E-1,-3.3519816E-2,6.611389E-1,-3.2533523E-1,-3.8152266E-1,-1.2167811E0,-2.1629632E-2,8.956897E-1,-3.4880504E-1,7.3400843E-1,-1.9417123E-1,2.5259784E-1,2.6146778E-1,-1.9946681E-1,-2.9454663E-1,-7.650257E-2,-2.753361E-1,5.0779417E-2,2.0075935E-1,-2.1704388E-1,-2.4682721E-1,1.646131E-1,-3.2225568E-2,3.1480885E-1,-2.1908163E-1,-1.9309489E-2,4.7667193E-1,-1.686918E-1,-1.8992174E-1,3.1653893E-1,-8.7913856E-2,2.071322E-2,1.8240621E-2,-1.0718859E-1,6.382385E-2,-6.678902E-2,-2.0858155E-1,-2.426794E-3,-1.0859181E-1,-5.915096E-3,-2.3604478E-1,1.3759513E-1,8.809775E-2,-8.151286E-2,-3.2337725E-2,2.1128997E-1,9.236094E-2,2.7104175E-1,-2.9453683E-1,1.8236849E-1,-2.6363164E-1,2.4336284E-1,-2.901013E-1,-5.1916236E-1,-1.7620364E-1,2.3153944E-1,2.910229E-2,3.4076238E-1,-1.20867856E-1,3.5936567E-1,2.6416183E-1,-6.990161E-2],"categories":[],"categories_nodes":[],"categories_segments":[],"categories_sizes":[],"default_left":[0,0,0,0,0,0,0,0,0,0,0,0,0,0,0,0,0,0,0,0,0,0,0,0,0,1,0,0,0,0,0,0,0,0,0,0,0,0,0,0,0,0,0,0,0,0,0,0,0,0,0,0,0,0,0,0,0,0,0,0,0,0,0,0,0,0,0,0,0,0,0,0,0,0,0,0,0,0,0,0,0,0,0,0,0,0,0,0,0,0,0,0,0,0,0,0,0,0,0,0,0,0,0,0,0,0,0,0,0,0,0],"id":7,"left_children":[1,3,5,7,9,11,13,15,17,19,21,23,25,27,29,31,-1,33,35,37,39,41,43,45,47,49,51,53,-1,55,57,59,61,63,65,-1,-1,67,69,71,73,75,77,79,81,83,85,87,89,91,93,95,97,99,101,103,105,107,109,-1,-1,-1,-1,-1,-1,-1,-1,-1,-1,-1,-1,-1,-1,-1,-1,-1,-1,-1,-1,-1,-1,-1,-1,-1,-1,-1,-1,-1,-1,-1,-1,-1,-1,-1,-1,-1,-1,-1,-1,-1,-1,-1,-1,-1,-1,-1,-1,-1,-1,-1,-1],"loss_changes":[1.3395973E2,7.6873856E1,3.2386917E1,1.2938324E1,3.5795357E1,1.6905788E1,2.677993E1,4.424887E0,1.6704712E0,5.639759E0,3.0553833E1,2.9909615E1,8.367203E0,4.178505E0,1.7179203E1,3.8739574E0,0E0,5.813141E-1,5.267457E0,5.509781E0,9.00092E0,1.353363E1,1.762437E1,1.3385521E1,1.44844265E1,1.3317944E1,6.5524063E0,2.1923294E0,0E0,7.6385727E0,1.1658549E1,4.1138105E0,3.421784E0,3.8026428E-1,3.8053932E0,0E0,0E0,4.714704E0,3.754715E0,5.7570987E0,4.9282017E0,9.475296E0,4.75722E0,1.3512247E1,2.5169863E1,1.6015244E1,8.855505E0,1.573755E1,8.195644E0,8.233833E0,1.0223906E1,5.2556458E0,5.4465046E0,4.1412506E0,2.3626022E0,8.167134E0,3.8295097E0,1.215769E1,1.7325978E0,0E0,0E0,0E0,0E0,0E0,0E0,0E0,0E0,0E0,0E0,0E0,0E0,0E0,0E0,0E0,0E0,0E0,0E0,0E0,0E0,0E0,0E0,0E0,0E0,0E0,0E0,0E0,0E0,0E0,0E0,0E0,0E0,0E0,0E0,0E0,0E0,0E0,0E0,0E0,0E0,0E0,0E0,0E0,0E0,0E0,0E0,0E0,0E0,0E0,0E0,0E0,0E0],"parents":[2147483647,0,0,1,1,2,2,3,3,4,4,5,5,6,6,7,7,8,8,9,9,10,10,11,11,12,12,13,13,14,14,15,15,17,17,18,18,19,19,20,20,21,21,22,22,23,23,24,24,25,25,26,26,27,27,29,29,30,30,31,31,32,32,33,33,34,34,37,37,38,38,39,39,40,40,41,41,42,42,43,43,44,44,45,45,46,46,47,47,48,48,49,49,50,50,51,51,52,52,53,53,54,54,55,55,56,56,57,57,58,58],"right_children":[2,4,6,8,10,12,14,16,18,20,22,24,26,28,30,32,-1,34,36,38,40,42,44,46,48,50,52,54,-1,56,58,60,62,64,66,-1,-1,68,70,72,74,76,78,80,82,84,86,88,90,92,94,96,98,100,102,104,106,108,110,-1,-1,-1,-1,-1,-1,-1,-1,-1,-1,-1,-1,-1,-1,-1,-1,-1,-1,-1,-1,-1,-1,-1,-1,-1,-1,-1,-1,-1,-1,-1,-1,-1,-1,-1,-1,-1,-1,-1,-1,-1,-1,-1,-1,-1,-1,-1,-1,-1,-1,-1,-1],"split_conditions":[-5.086884E-1,-2.9503548E-1,1E0,-1.5785223E0,-2.9856446E-1,1.455702E-1,-2.6470762E-1,5.365574E-1,1E0,-4.073897E-1,-8.227503E-1,1.8683471E-1,2.7646666E0,2.0418394E-2,5.0138786E-2,-2.554651E-2,2.5958347E-1,1.5566158E0,-4.2414838E-1,-1.0559993E0,-6.3334084E-1,1E0,-5.334763E-1,1E0,1E0,3.029754E-1,6.431804E0,-9.701987E-1,1.2559654E-1,1.1305773E0,1E0,-6.573819E-2,3.5856357E-1,3.1937697E0,-3.8675353E-1,-2.625162E-1,2.769184E-1,2.6373023E-2,1E0,-6.558244E-1,-1.4989754E-3,-1.0619113E0,-4.0428457E-1,-5.9014964E-1,1E0,1E0,-3.9077225E-1,-3.9659688E-1,-1.2297479E-1,2.6622126E0,1E0,1.3723966E0,1.0753582E0,8.711083E-2,-3.4899318E-1,1.568861E0,1.4860655E-1,5.5548797E0,1.4521111E0,-1.9417123E-1,2.5259784E-1,2.6146778E-1,-1.9946681E-1,-2.9454663E-1,-7.650257E-2,-2.753361E-1,5.0779417E-2,2.0075935E-1,-2.1704388E-1,-2.4682721E-1,1.646131E-1,-3.2225568E-2,3.1480885E-1,-2.1908163E-1,-1.9309489E-2,4.7667193E-1,-1.686918E-1,-1.8992174E-1,3.1653893E-1,-8.7913856E-2,2.071322E-2,1.8240621E-2,-1.0718859E-1,6.382385E-2,-6.678902E-2,-2.0858155E-1,-2.426794E-3,-1.0859181E-1,-5.915096E-3,-2.3604478E-1,1.3759513E-1,8.809775E-2,-8.151286E-2,-3.2337725E-2,2.1128997E-1,9.236094E-2,2.7104175E-1,-2.9453683E-1,1.8236849E-1,-2.6363164E-1,2.4336284E-1,-2.901013E-1,-5.1916236E-1,-1.7620364E-1,2.3153944E-1,2.910229E-2,3.4076238E-1,-1.20867856E-1,3.5936567E-1,2.6416183E-1,-6.990161E-2],"split_indices":[43,32,62,7,33,32,34,20,54,27,34,44,34,27,44,34,0,7,34,7,44,56,7,49,53,36,34,45,0,21,50,27,45,29,27,0,0,45,56,43,31,34,27,19,49,64,27,27,31,30,52,36,44,19,41,34,20,34,7,0,0,0,0,0,0,0,0,0,0,0,0,0,0,0,0,0,0,0,0,0,0,0,0,0,0,0,0,0,0,0,0,0,0,0,0,0,0,0,0,0,0,0,0,0,0,0,0,0,0,0,0],"split_type":[0,0,0,0,0,0,0,0,0,0,0,0,0,0,0,0,0,0,0,0,0,0,0,0,0,0,0,0,0,0,0,0,0,0,0,0,0,0,0,0,0,0,0,0,0,0,0,0,0,0,0,0,0,0,0,0,0,0,0,0,0,0,0,0,0,0,0,0,0,0,0,0,0,0,0,0,0,0,0,0,0,0,0,0,0,0,0,0,0,0,0,0,0,0,0,0,0,0,0,0,0,0,0,0,0,0,0,0,0,0,0],"sum_hessian":[6.7351675E3,2.333577E3,4.4015903E3,1.8535439E2,2.1482224E3,4.1809243E3,2.2066608E2,2.624202E1,1.5911237E2,1.8897214E2,1.9592502E3,3.2724985E3,9.084258E2,3.6604977E1,1.840611E2,2.3542355E1,2.6996658E0,1.5374475E2,5.3676124E0,1.0030245E2,8.866969E1,1.94992E2,1.7642583E3,1.8981613E3,1.3743373E3,8.378691E2,7.055666E1,3.523225E1,1.3727287E0,3.572289E1,1.4833821E2,1.8703484E1,4.8388715E0,1.3735149E2,1.6393276E1,3.8605468E0,1.5070654E0,7.88401E0,9.241844E1,2.6090403E1,6.2579292E1,1.8693916E2,8.052832E0,5.850879E2,1.1791704E3,1.6787452E3,2.1941597E2,1.2941956E3,8.014179E1,6.536861E2,1.84183E2,6.364041E1,6.916255E0,4.7805877E0,3.0451662E1,1.618557E1,1.9537317E1,1.3855872E2,9.779491E0,1.7501091E1,1.2023919E0,3.5740638E0,1.2648076E0,1.3579633E2,1.55516E0,1.2532751E1,3.8605258E0,4.5561194E0,3.3278906E0,9.102802E1,1.3904208E0,2.1771194E1,4.3192067E0,4.793355E1,1.4645739E1,1.1345057E0,1.8580466E2,1.4129244E0,6.6399074E0,4.5211728E2,1.3297064E2,1.01233405E3,1.6683632E2,1.5903064E3,8.843886E1,1.9699123E1,1.9971684E2,1.5126727E2,1.1429282E3,4.7800193E0,7.536177E1,6.275768E2,2.6109304E1,1.6811374E2,1.6069262E1,2.6817223E1,3.682319E1,4.029667E0,2.8865879E0,3.559755E0,1.2208326E0,2.2429317E1,8.022345E0,9.600284E0,6.5852866E0,4.841581E0,1.4695737E1,1.3459157E2,3.9671555E0,8.570268E0,1.209223E0],"tree_param":{"num_deleted":"0","num_feature":"94","num_nodes":"111","size_leaf_vector":"1"}},{"base_weights":[-9.20991E-3,-1.994538E-1,5.218285E-2,-8.015545E-1,-1.454434E-1,-1.4476143E-1,7.6377735E-2,-3.695689E-2,-8.987906E-1,-5.3536856E-1,-1.1029603E-1,-3.1922558E-1,2.2256043E-2,1.2175386E-2,1.4090173E-1,2.0411175E-1,-2.5252277E-1,-9.3313545E-1,-3.9619818E-1,7.847984E-3,-6.2692684E-1,-1.6248682E-1,1.0863538E-1,-1.2093059E-1,-6.13438E-1,8.407679E-1,-2.9355487E-2,5.3073775E-2,-2.1256095E-1,1.1835391E-1,4.6154094E-1,-3.2379594E-1,7.574137E-1,-9.553282E-1,-4.558303E-1,2.4794436E-1,-6.71284E-1,-2.654675E-1,2.4912421E-1,-6.5076816E-1,2.0691748E-1,1.8680833E-2,-2.3075266E-1,-5.1459855E-1,1.4561509E-1,6.190807E-1,-2.0163368E-1,-6.694636E-1,9.7590655E-1,1.406686E0,3.8009405E-1,7.756613E-2,-4.722153E-1,6.511422E-2,-6.3131034E-1,-3.6199093E-1,-4.3286927E-2,4.3367437E-1,9.960128E-2,5.070853E-1,-7.26674E-1,-1.9521834E-1,1.8720011E-1,5.2734524E-1,-4.4558007E-2,-2.8920177E-1,-5.1830348E-2,-2.4696998E-1,7.005859E-2,-5.399051E-2,-2.5775626E-1,3.098891E-1,-4.8406888E-2,-2.0977937E-1,9.991785E-5,4.818871E-2,-8.543647E-2,-1.5880135E-1,-5.1629286E-2,9.2954226E-2,-2.655206E-1,2.5950882E-1,3.4616694E-2,-6.492018E-2,3.1400815E-1,-7.3473684E-2,3.4464344E-1,-2.187034E-1,5.5906232E-2,3.4636E-1,6.4793296E-2,1.0736368E-1,5.303331E-1,-2.8770804E-1,1.9254525E-1,-6.956477E-2,6.1588537E-2,8.416195E-2,-2.1373068E-1,-4.34488E-3,4.522879E-2,1.3187777E-1,-2.8231305E-1,-2.761129E-1,-8.869824E-2,9.204505E-2,-6.0987025E-2,-1.1312979E-2,1.9145693E-1,3.4309417E-2,-6.9793016E-2,1.6918826E-1,-1.363139E-1,-4.256506E-1,2.1403788E-1],"categories":[],"categories_nodes":[],"categories_segments":[],"categories_sizes":[],"default_left":[0,0,0,0,0,0,0,0,0,0,0,0,0,0,0,0,0,0,0,0,1,0,1,0,0,0,0,0,0,1,0,0,0,0,0,0,0,0,0,0,0,0,0,0,0,0,0,0,0,0,0,0,0,0,0,0,0,0,0,0,0,0,0,0,0,0,0,0,0,0,0,0,0,0,0,0,0,0,0,0,0,0,0,0,0,0,0,0,0,0,0,0,0,0,0,0,0,0,0,0,0,0,0,0,0,0,0,0,0,0,0,0,0,0,0],"id":8,"left_children":[1,3,5,7,9,11,13,15,17,19,21,23,25,27,29,31,-1,33,35,37,39,41,43,45,47,49,51,53,55,57,59,61,63,65,67,-1,69,-1,71,73,-1,75,77,79,81,83,85,87,89,91,93,95,97,99,101,103,105,107,109,111,113,-1,-1,-1,-1,-1,-1,-1,-1,-1,-1,-1,-1,-1,-1,-1,-1,-1,-1,-1,-1,-1,-1,-1,-1,-1,-1,-1,-1,-1,-1,-1,-1,-1,-1,-1,-1,-1,-1,-1,-1,-1,-1,-1,-1,-1,-1,-1,-1,-1,-1,-1,-1,-1,-1],"loss_changes":[7.688599E1,5.2111782E1,2.3726616E1,9.779556E0,2.0156492E1,1.5884081E1,1.8362846E1,3.2631948E0,1.650795E0,6.0581436E0,1.5492826E1,1.5477348E1,1.1824253E1,2.0445383E1,1.5929699E1,4.061805E0,0E0,7.1730804E-1,3.657588E0,4.214414E0,3.7186546E0,1.3534996E1,6.0973954E0,9.70914E0,1.0188076E1,3.7933645E0,1.2523816E1,1.5546814E1,8.647543E0,1.2179188E1,8.210808E0,2.6950572E0,6.3144536E0,5.3344727E-1,1.9012811E0,0E0,5.915568E-1,0E0,5.1144166E0,3.2470932E0,0E0,1.2983785E1,1.3826881E1,4.8120794E0,5.281118E0,5.9521885E0,8.78269E0,5.437237E0,3.0081105E-1,2.0484467E0,4.303228E0,8.4778385E0,9.499474E0,1.2614788E1,1.1235534E1,6.460346E0,9.12152E0,1.1181028E1,9.602659E0,7.920456E0,6.7544575E0,0E0,0E0,0E0,0E0,0E0,0E0,0E0,0E0,0E0,0E0,0E0,0E0,0E0,0E0,0E0,0E0,0E0,0E0,0E0,0E0,0E0,0E0,0E0,0E0,0E0,0E0,0E0,0E0,0E0,0E0,0E0,0E0,0E0,0E0,0E0,0E0,0E0,0E0,0E0,0E0,0E0,0E0,0E0,0E0,0E0,0E0,0E0,0E0,0E0,0E0,0E0,0E0,0E0,0E0],"parents":[2147483647,0,0,1,1,2,2,3,3,4,4,5,5,6,6,7,7,8,8,9,9,10,10,11,11,12,12,13,13,14,14,15,15,17,17,18,18,19,19,20,20,21,21,22,22,23,23,24,24,25,25,26,26,27,27,28,28,29,29,30,30,31,31,32,32,33,33,34,34,36,36,38,38,39,39,41,41,42,42,43,43,44,44,45,45,46,46,47,47,48,48,49,49,50,50,51,51,52,52,53,53,54,54,55,55,56,56,57,57,58,58,59,59,60,60],"right_children":[2,4,6,8,10,12,14,16,18,20,22,24,26,28,30,32,-1,34,36,38,40,42,44,46,48,50,52,54,56,58,60,62,64,66,68,-1,70,-1,72,74,-1,76,78,80,82,84,86,88,90,92,94,96,98,100,102,104,106,108,110,112,114,-1,-1,-1,-1,-1,-1,-1,-1,-1,-1,-1,-1,-1,-1,-1,-1,-1,-1,-1,-1,-1,-1,-1,-1,-1,-1,-1,-1,-1,-1,-1,-1,-1,-1,-1,-1,-1,-1,-1,-1,-1,-1,-1,-1,-1,-1,-1,-1,-1,-1,-1,-1,-1,-1],"split_conditions":[-7.539151E-1,-2.9506323E-1,-5.8358914E-1,-1.5785223E0,-2.9856446E-1,4.0706515E-1,-2.757851E-1,6.464621E-1,1E0,-1.3168204E0,-9.220261E-1,2.779653E-1,-1.5238496E0,1.0070102E0,1.2467284E0,-4.2414838E-1,-2.5252277E-1,1E0,-5.955168E-3,-1.2185159E0,-9.238813E-2,-9.898934E-2,-1.5681417E0,-1.4535164E0,2.5542421E0,-3.7139407E-1,3.949565E-1,1.1702591E0,-1.05266884E-1,-1.3168204E0,1.798056E0,-4.9084798E-1,1E0,1E0,-2.9856446E-1,2.4794436E-1,-8.4357165E-2,-2.654675E-1,-6.2426764E-1,1.6611204E0,2.0691748E-1,2.7323508E-1,-6.633095E-1,-3.973983E-1,-4.061091E-1,-2.9354504E-1,3.841352E0,1.3411961E0,7.643713E-1,-4.014281E-1,7.2057897E-1,1E0,8.2508355E-1,-1.823509E-2,-7.7088434E-1,-4.061091E-1,5.417387E-2,-5.051319E-1,1E0,1E0,7.8332044E-2,-1.9521834E-1,1.8720011E-1,5.2734524E-1,-4.4558007E-2,-2.8920177E-1,-5.1830348E-2,-2.4696998E-1,7.005859E-2,-5.399051E-2,-2.5775626E-1,3.098891E-1,-4.8406888E-2,-2.0977937E-1,9.991785E-5,4.818871E-2,-8.543647E-2,-1.5880135E-1,-5.1629286E-2,9.2954226E-2,-2.655206E-1,2.5950882E-1,3.4616694E-2,-6.492018E-2,3.1400815E-1,-7.3473684E-2,3.4464344E-1,-2.187034E-1,5.5906232E-2,3.4636E-1,6.4793296E-2,1.0736368E-1,5.303331E-1,-2.8770804E-1,1.9254525E-1,-6.956477E-2,6.1588537E-2,8.416195E-2,-2.1373068E-1,-4.34488E-3,4.522879E-2,1.3187777E-1,-2.8231305E-1,-2.761129E-1,-8.869824E-2,9.204505E-2,-6.0987025E-2,-1.1312979E-2,1.9145693E-1,3.4309417E-2,-6.9793016E-2,1.6918826E-1,-1.363139E-1,-4.256506E-1,2.1403788E-1],"split_indices":[43,32,34,7,33,7,27,45,83,44,21,44,45,44,26,34,0,89,31,46,41,31,45,44,27,27,19,34,34,44,45,16,73,69,33,0,45,0,8,7,0,27,34,20,27,33,12,20,19,27,7,48,7,43,45,27,34,45,56,66,33,0,0,0,0,0,0,0,0,0,0,0,0,0,0,0,0,0,0,0,0,0,0,0,0,0,0,0,0,0,0,0,0,0,0,0,0,0,0,0,0,0,0,0,0,0,0,0,0,0,0,0,0,0,0],"split_type":[0,0,0,0,0,0,0,0,0,0,0,0,0,0,0,0,0,0,0,0,0,0,0,0,0,0,0,0,0,0,0,0,0,0,0,0,0,0,0,0,0,0,0,0,0,0,0,0,0,0,0,0,0,0,0,0,0,0,0,0,0,0,0,0,0,0,0,0,0,0,0,0,0,0,0,0,0,0,0,0,0,0,0,0,0,0,0,0,0,0,0,0,0,0,0,0,0,0,0,0,0,0,0,0,0,0,0,0,0,0,0,0,0,0,0],"sum_hessian":[6.5810396E3,1.6050529E3,4.975987E3,1.3098698E2,1.4740658E3,5.4387854E2,4.432108E3,1.4934271E1,1.1605271E2,1.2070717E2,1.3533586E3,2.6556335E2,2.783152E2,2.2221873E3,2.209921E3,1.2066271E1,2.8680005E0,1.0782762E2,8.225094E0,1.7542362E1,1.031648E2,1.0930465E3,2.6031213E2,1.5948425E2,1.06079094E2,1.5601368E1,2.627138E2,1.8806948E3,3.414923E2,2.0660056E3,1.4391542E2,6.3871026E0,5.679168E0,1.0207982E2,5.7478013E0,1.1425099E0,7.0825834E0,3.1648057E0,1.4377557E1,1.0182671E2,1.3380889E0,2.9934763E2,7.936989E2,1.3857101E1,2.4645505E2,1.5026536E1,1.4445772E2,1.0302613E2,3.0529675E0,6.079467E0,9.521901E0,2.122856E2,5.0428207E1,1.8490688E3,3.1626015E1,1.8077293E2,1.6071936E2,1.14729706E2,1.9512758E3,1.3915485E2,4.7605834E0,4.9820356E0,1.4050671E0,2.2520125E0,3.4271555E0,1.00730965E2,1.3488506E0,3.6227877E0,2.1250136E0,2.5009804E0,4.581603E0,4.420276E0,9.957281E0,9.46992E1,7.127512E0,2.0427046E2,9.507717E1,1.2899937E2,6.646995E2,4.3469706E0,9.510131E0,8.823661E0,2.3763138E2,5.2543626E0,9.772173E0,1.4076517E2,3.6925507E0,9.646245E1,6.5636816E0,2.051486E0,1.0014815E0,2.0669653E0,4.0125012E0,1.121159E0,8.400743E0,6.178465E1,1.5050095E2,1.2158968E1,3.826924E1,9.588214E2,8.902475E2,7.0009513E0,2.4625063E1,1.7826744E1,1.629462E2,5.012438E1,1.10594986E2,3.4961983E1,7.976772E1,1.8688868E3,8.238902E1,1.3177322E2,7.381616E0,3.2252452E0,1.5353378E0],"tree_param":{"num_deleted":"0","num_feature":"94","num_nodes":"115","size_leaf_vector":"1"}},{"base_weights":[-7.6375115E-3,-1.7662066E-1,3.0834163E-2,-6.3193893E-1,-1.2858851E-1,-1.3902745E-1,5.711571E-2,-1.6866672E-1,-8.508733E-1,-1.022367E-1,-6.7645377E-1,-3.5704172E-1,-4.4454206E-2,8.240647E-2,-7.726271E-2,-6.3005817E-1,1.0818064E-1,-9.4744885E-1,-5.448216E-1,-1.7683475E-1,9.710237E-2,-8.569291E-1,4.5161927E-1,-5.299065E-1,2.773752E-1,-7.4455254E-2,4.5323056E-1,6.6857524E-2,3.960896E-1,-1.1243623E-1,4.9856302E-1,-1.8649401E-1,-1.113658E0,-1.7821899E-1,8.5911334E-1,-2.993448E-1,-5.1315993E-1,-6.9440685E-2,-2.731989E-1,-7.2962046E-1,-1.3672611E-1,4.3084866E-1,-8.255796E-2,-9.149185E-1,6.389722E-2,-4.024012E-1,1.4275388E0,-7.226586E-1,-4.545934E-2,1.5166241E-1,5.460735E-1,2.987581E-1,-1.0918702E-1,-3.598041E-1,6.7249584E-1,1.6355899E-1,2.502875E-2,4.699639E-1,-1.1183287E0,-1.4943926E-1,4.2082793E-1,-7.935076E-2,7.708849E-1,-2.007734E-1,1.5782009E-1,-4.9835333E-1,-4.0217232E-2,-1.08011104E-1,1.3915133E-1,3.615653E-1,-1.5213944E-1,9.66204E-2,-2.4544236E-1,-1.5475476E-1,2.5086576E-1,1.1792476E-1,-2.6226306E-1,-1.7308238E-1,-3.1187167E-2,1.5471232E-1,-1.7598453E-1,8.845706E-2,-8.925081E-2,-2.855698E-1,4.1978214E-2,-2.5307074E-1,6.0751528E-2,2.2884965E-2,5.946834E-1,4.2514277E-1,-2.2730489E-1,3.9964378E-2,-3.2777178E-1,7.4630015E-2,-2.835286E-1,1.5052667E-1,-1.6655207E-1,-8.642943E-3,-8.632192E-2,3.1688267E-1,3.5154626E-2,5.544073E-2,-8.196122E-2,-3.191566E-2,2.381326E-2,1.1770054E-2,1.8340637E-1,-3.6778122E-1,-8.4127195E-2,7.1435873E-3,-6.5020934E-2,1.4787008E-1,-3.5886264E-1,-4.3693906E-1,6.9070265E-2,3.547274E-1,5.950286E-3],"categories":[],"categories_nodes":[],"categories_segments":[],"categories_sizes":[],"default_left":[0,0,0,0,0,0,0,0,0,0,0,0,0,0,0,0,0,0,0,0,0,0,0,0,0,0,0,1,0,0,0,0,0,0,1,0,0,0,0,0,0,0,0,0,0,0,0,0,0,0,0,0,0,0,0,0,0,0,0,0,0,0,0,0,0,0,0,0,0,0,0,0,0,0,0,0,0,0,0,0,0,0,0,0,0,0,0,0,0,0,0,0,0,0,0,0,0,0,0,0,0,0,0,0,0,0,0,0,0,0,0,0,0,0,0,0,0],"id":9,"left_children":[1,3,5,7,9,11,13,15,17,19,21,23,25,27,29,31,33,35,37,39,41,43,45,47,49,51,53,55,57,59,61,63,65,67,69,-1,71,73,-1,75,77,79,81,83,-1,85,87,89,91,93,-1,95,97,-1,99,101,103,105,107,109,111,113,115,-1,-1,-1,-1,-1,-1,-1,-1,-1,-1,-1,-1,-1,-1,-1,-1,-1,-1,-1,-1,-1,-1,-1,-1,-1,-1,-1,-1,-1,-1,-1,-1,-1,-1,-1,-1,-1,-1,-1,-1,-1,-1,-1,-1,-1,-1,-1,-1,-1,-1,-1,-1,-1,-1],"loss_changes":[4.1927994E1,2.6075367E1,2.3461004E1,1.140625E1,1.5568338E1,1.4504039E1,1.5470818E1,4.895478E0,1.7621307E0,1.5402092E1,1.0470568E1,2.3497623E1,7.3843603E0,1.8654453E1,1.4664423E1,2.863802E0,5.4164085E0,7.400093E-1,3.5615315E0,1.6600224E1,1.6967813E1,2.865429E0,6.8136163E0,1.5623962E1,8.694417E0,6.062357E0,1.0999731E1,1.476136E1,2.0739767E1,1.349196E1,6.6246796E0,3.3343499E0,3.3435621E0,2.3318105E0,3.8874698E0,0E0,2.303202E0,4.5336204E0,0E0,8.5777E0,1.0088202E1,8.848461E0,1.5047579E1,1.7333069E0,0E0,1.444412E0,2.632421E0,1.0058117E1,9.274046E0,4.905756E0,0E0,7.190158E0,6.109802E0,0E0,5.3056345E0,1.0275616E1,1.8216375E1,1.051091E1,4.406395E-1,7.433753E0,5.7666717E0,6.416732E0,8.767227E0,0E0,0E0,0E0,0E0,0E0,0E0,0E0,0E0,0E0,0E0,0E0,0E0,0E0,0E0,0E0,0E0,0E0,0E0,0E0,0E0,0E0,0E0,0E0,0E0,0E0,0E0,0E0,0E0,0E0,0E0,0E0,0E0,0E0,0E0,0E0,0E0,0E0,0E0,0E0,0E0,0E0,0E0,0E0,0E0,0E0,0E0,0E0,0E0,0E0,0E0,0E0,0E0,0E0,0E0],"parents":[2147483647,0,0,1,1,2,2,3,3,4,4,5,5,6,6,7,7,8,8,9,9,10,10,11,11,12,12,13,13,14,14,15,15,16,16,17,17,18,18,19,19,20,20,21,21,22,22,23,23,24,24,25,25,26,26,27,27,28,28,29,29,30,30,31,31,32,32,33,33,34,34,36,36,37,37,39,39,40,40,41,41,42,42,43,43,45,45,46,46,47,47,48,48,49,49,51,51,52,52,54,54,55,55,56,56,57,57,58,58,59,59,60,60,61,61,62,62],"right_children":[2,4,6,8,10,12,14,16,18,20,22,24,26,28,30,32,34,36,38,40,42,44,46,48,50,52,54,56,58,60,62,64,66,68,70,-1,72,74,-1,76,78,80,82,84,-1,86,88,90,92,94,-1,96,98,-1,100,102,104,106,108,110,112,114,116,-1,-1,-1,-1,-1,-1,-1,-1,-1,-1,-1,-1,-1,-1,-1,-1,-1,-1,-1,-1,-1,-1,-1,-1,-1,-1,-1,-1,-1,-1,-1,-1,-1,-1,-1,-1,-1,-1,-1,-1,-1,-1,-1,-1,-1,-1,-1,-1,-1,-1,-1,-1,-1,-1],"split_conditions":[-3.9630297E-1,-2.9503548E-1,-5.8358914E-1,-1.5785223E0,1E0,1E0,1E0,-1.7269082E0,-1.8498726E-1,-1.05266884E-1,3.4473988E-3,1.243102E0,1E0,1E0,3.3002703E0,-6.101694E-1,4.5442557E-1,-2.1441641E-1,-4.068046E-1,-4.0849346E-1,-6.3334084E-1,7.716572E-1,-1.1632576E-1,-7.6019056E-2,1E0,-3.9077225E-1,-3.9414468E-1,-3.5994896E-1,1E0,1E0,7.6931775E-1,2.6373023E-2,1.9224695E0,1.4472156E0,-1.8422711E-1,-2.993448E-1,-9.695148E-1,-2.9947194E-1,-2.731989E-1,-8.469901E-1,-8.227503E-1,1E0,-2.554651E-2,4.8882085E-1,6.389722E-2,7.2709155E-1,-2.9735923E-1,-1.0619113E0,1E0,2.9309073E-1,5.460735E-1,1.0893828E0,-4.1675538E-1,-3.598041E-1,2.204493E-1,1E0,-2.7839002E-1,-4.2414838E-1,4.6929377E-1,-6.8789566E-1,1E0,-1.0809288E0,7.1390576E0,-2.007734E-1,1.5782009E-1,-4.9835333E-1,-4.0217232E-2,-1.08011104E-1,1.3915133E-1,3.615653E-1,-1.5213944E-1,9.66204E-2,-2.4544236E-1,-1.5475476E-1,2.5086576E-1,1.1792476E-1,-2.6226306E-1,-1.7308238E-1,-3.1187167E-2,1.5471232E-1,-1.7598453E-1,8.845706E-2,-8.925081E-2,-2.855698E-1,4.1978214E-2,-2.5307074E-1,6.0751528E-2,2.2884965E-2,5.946834E-1,4.2514277E-1,-2.2730489E-1,3.9964378E-2,-3.2777178E-1,7.4630015E-2,-2.835286E-1,1.5052667E-1,-1.6655207E-1,-8.642943E-3,-8.632192E-2,3.1688267E-1,3.5154626E-2,5.544073E-2,-8.196122E-2,-3.191566E-2,2.381326E-2,1.1770054E-2,1.8340637E-1,-3.6778122E-1,-8.4127195E-2,7.1435873E-3,-6.5020934E-2,1.4787008E-1,-3.5886264E-1,-4.3693906E-1,6.9070265E-2,3.547274E-1,5.950286E-3],"split_indices":[27,32,34,7,49,48,49,44,34,34,31,7,53,69,27,14,21,43,27,27,44,34,43,27,67,27,27,44,50,54,32,45,41,8,36,0,8,33,0,7,34,70,34,16,0,46,33,34,49,32,0,45,16,0,20,64,32,34,45,46,77,45,27,0,0,0,0,0,0,0,0,0,0,0,0,0,0,0,0,0,0,0,0,0,0,0,0,0,0,0,0,0,0,0,0,0,0,0,0,0,0,0,0,0,0,0,0,0,0,0,0,0,0,0,0,0,0],"split_type":[0,0,0,0,0,0,0,0,0,0,0,0,0,0,0,0,0,0,0,0,0,0,0,0,0,0,0,0,0,0,0,0,0,0,0,0,0,0,0,0,0,0,0,0,0,0,0,0,0,0,0,0,0,0,0,0,0,0,0,0,0,0,0,0,0,0,0,0,0,0,0,0,0,0,0,0,0,0,0,0,0,0,0,0,0,0,0,0,0,0,0,0,0,0,0,0,0,0,0,0,0,0,0,0,0,0,0,0,0,0,0,0,0,0,0,0,0],"sum_hessian":[6.447566E3,1.1950095E3,5.252556E3,1.12873604E2,1.082136E3,7.0322394E2,4.549332E3,3.6791656E1,7.608195E1,1.033607E3,4.8528927E1,2.119205E2,4.9130344E2,3.8290674E3,7.202649E2,1.3318809E1,2.3472847E1,5.623964E1,1.9842308E1,7.5221924E2,2.8138776E2,4.2043015E1,6.485913E0,1.66671E2,4.5249485E1,4.641729E2,2.7130518E1,3.6493843E3,1.7968303E2,6.7955963E2,4.0705227E1,7.6696963E0,5.6491117E0,1.7544273E1,5.9285736E0,4.9232285E1,7.0073547E0,9.146712E0,1.0695595E1,4.9723812E1,7.024954E2,9.797893E1,1.8340884E2,4.0018875E1,2.0241413E0,3.77239E0,2.7135231E0,1.1887946E2,4.7791542E1,4.2855892E1,2.3935928E0,3.8871693E1,4.253012E2,2.654443E0,2.4476074E1,1.1010415E3,2.5483428E3,1.7198326E2,7.699778E0,6.36138E2,4.3421658E1,1.3264434E1,2.7440792E1,4.6083736E0,3.0613227E0,3.1774151E0,2.4716969E0,1.4014798E1,3.529475E0,4.8243146E0,1.1042591E0,1.8593298E0,5.148025E0,6.415076E0,2.7316368E0,5.4770784E0,4.4246735E1,4.7519215E1,6.549762E2,9.0891495E1,7.0874352E0,6.641718E1,1.1699166E2,3.87577E1,1.2611728E0,1.9532838E0,1.8191061E0,1.1208425E0,1.5926806E0,1.278977E0,1.1760049E2,4.1570885E1,6.2206593E0,4.0080444E1,2.7754467E0,3.1739067E1,7.1326256E0,2.9407974E2,1.3122147E2,1.3939977E1,1.0536098E1,1.0505227E3,5.0518833E1,7.452896E2,1.8030532E3,4.2818638E1,1.2916461E2,6.4130745E0,1.2867033E0,1.7815031E2,4.5798767E2,4.2234425E1,1.187232E0,1.754666E0,1.1509768E1,1.7356115E1,1.0084678E1],"tree_param":{"num_deleted":"0","num_feature":"94","num_nodes":"117","size_leaf_vector":"1"}},{"base_weights":[-6.785991E-3,-1.267697E-1,3.0157138E-2,-6.893782E-1,-8.9542E-2,4.1715126E-2,-2.0835033E-1,-1.19801685E-2,-8.0954903E-1,-3.358329E-1,-5.8919527E-2,5.5958547E-2,-1.2489156E-1,-8.7640554E-1,-7.540376E-2,1.908627E-1,-2.327848E-1,-8.3978945E-1,5.5417452E-2,-4.5893973E-1,-1.05372116E-1,-2.1259388E-1,1.2514404E-2,4.9206786E-2,4.606119E-1,-5.9894454E-1,-5.4718945E-2,-9.4029194E-1,1.6285916E-1,2.4988085E-1,-2.5172663E-1,-2.4380313E-1,3.6480403E-1,-8.8868016E-1,-4.0143043E-1,2.6704878E-1,-1.9067124E-1,-5.826529E-1,-1.2688309E-1,7.095631E-1,-2.0041154E-1,-2.5338092E-1,4.1417447E-1,4.489088E-2,-4.684203E-1,1.05972454E-1,8.588343E-3,6.456773E-1,8.206989E-2,-6.8280697E-1,6.4883953E-1,-5.251444E-1,3.6944705E-3,-1.0050687E0,2.590987E-2,-1.1732823E-1,6.093121E-1,1.2029251E-2,-5.085994E-1,-6.354054E-2,2.0853852E-1,-1.6514587E-1,-2.8443915E-1,-2.5619468E-1,8.3652765E-2,-2.0215447E-1,4.0018193E-2,4.981254E-2,-2.5945E-1,5.25298E-1,-2.2990735E-1,-1.8103345E-1,8.896225E-3,-1.8957564E-1,-5.5082712E-2,-2.781459E-2,3.1561232E-1,3.35906E-2,-3.4909923E-2,-3.068413E-1,-6.778468E-2,2.433564E-2,1.4328368E-1,3.7072934E-2,-1.0183887E-2,2.1986414E-1,-1.9308574E-1,-1.05642356E-1,1.5418811E-1,-2.3862056E-1,9.445814E-2,3.5465536E-1,-7.263877E-2,-2.1038063E-1,4.0959492E-1,3.6217425E-2,-8.0168895E-2,-1.0736259E-1,-3.2718423E-1,-1.771602E-1,1.7111687E-1,-8.848732E-2,3.3667478E-1,2.9640827E-1,8.619685E-2,-3.5662152E-2,2.8146812E-1,-3.1931597E-1,-2.6220284E-2],"categories":[],"categories_nodes":[],"categories_segments":[],"categories_sizes":[],"default_left":[0,0,0,0,0,0,0,0,0,0,0,0,0,0,0,0,0,0,0,0,0,0,0,0,0,1,0,0,0,0,0,0,0,0,0,0,0,0,0,0,0,0,0,0,0,0,0,1,0,0,0,0,0,0,0,0,0,0,0,0,0,0,0,0,0,0,0,0,0,0,0,0,0,0,0,0,0,0,0,0,0,0,0,0,0,0,0,0,0,0,0,0,0,0,0,0,0,0,0,0,0,0,0,0,0,0,0,0,0],"id":10,"left_children":[1,3,5,7,9,11,13,15,17,19,21,23,25,27,29,31,-1,33,35,37,39,41,43,45,47,49,51,53,-1,55,57,-1,59,61,63,-1,-1,65,67,69,71,73,75,77,79,81,83,85,87,89,91,93,95,97,99,101,103,105,107,-1,-1,-1,-1,-1,-1,-1,-1,-1,-1,-1,-1,-1,-1,-1,-1,-1,-1,-1,-1,-1,-1,-1,-1,-1,-1,-1,-1,-1,-1,-1,-1,-1,-1,-1,-1,-1,-1,-1,-1,-1,-1,-1,-1,-1,-1,-1,-1,-1,-1],"loss_changes":[2.8127752E1,3.1226788E1,1.3383931E1,7.525402E0,1.0556433E1,1.0990735E1,1.9866259E1,2.4666803E0,2.1025505E0,4.345251E0,1.3707516E1,1.1628999E1,1.2103974E1,3.879345E0,1.0861095E1,2.500318E0,0E0,1.272274E0,2.63839E0,4.0604515E0,4.418913E0,1.0234068E1,1.3306442E1,9.673538E0,4.841771E0,5.3552094E0,8.765095E0,2.2741985E0,0E0,8.872523E0,8.3116455E0,0E0,2.3281722E0,8.3638763E-1,3.1476045E0,0E0,0E0,4.859804E0,6.3251624E0,1.0544833E1,4.6755114E0,9.725803E0,8.047727E0,8.669846E0,7.0146704E0,1.6125038E1,1.1971699E1,5.7314453E0,4.698271E0,5.246258E0,1.9347045E0,1.2688035E1,9.058109E0,1.4748383E0,1.421543E0,7.778206E0,3.844963E0,7.563122E0,1.44507675E1,0E0,0E0,0E0,0E0,0E0,0E0,0E0,0E0,0E0,0E0,0E0,0E0,0E0,0E0,0E0,0E0,0E0,0E0,0E0,0E0,0E0,0E0,0E0,0E0,0E0,0E0,0E0,0E0,0E0,0E0,0E0,0E0,0E0,0E0,0E0,0E0,0E0,0E0,0E0,0E0,0E0,0E0,0E0,0E0,0E0,0E0,0E0,0E0,0E0,0E0],"parents":[2147483647,0,0,1,1,2,2,3,3,4,4,5,5,6,6,7,7,8,8,9,9,10,10,11,11,12,12,13,13,14,14,15,15,17,17,18,18,19,19,20,20,21,21,22,22,23,23,24,24,25,25,26,26,27,27,29,29,30,30,32,32,33,33,34,34,37,37,38,38,39,39,40,40,41,41,42,42,43,43,44,44,45,45,46,46,47,47,48,48,49,49,50,50,51,51,52,52,53,53,54,54,55,55,56,56,57,57,58,58],"right_children":[2,4,6,8,10,12,14,16,18,20,22,24,26,28,30,32,-1,34,36,38,40,42,44,46,48,50,52,54,-1,56,58,-1,60,62,64,-1,-1,66,68,70,72,74,76,78,80,82,84,86,88,90,92,94,96,98,100,102,104,106,108,-1,-1,-1,-1,-1,-1,-1,-1,-1,-1,-1,-1,-1,-1,-1,-1,-1,-1,-1,-1,-1,-1,-1,-1,-1,-1,-1,-1,-1,-1,-1,-1,-1,-1,-1,-1,-1,-1,-1,-1,-1,-1,-1,-1,-1,-1,-1,-1,-1,-1],"split_conditions":[-7.539151E-1,-2.9506323E-1,1E0,-1.5785223E0,-2.98054E-1,1E0,-2.6470762E-1,6.464621E-1,1E0,-4.051729E-1,-5.334763E-1,3.0225756E0,-5.0386876E-1,2.0485277E-1,2.779653E-1,-1.314762E0,-2.327848E-1,1.5566158E0,-1.9780162E-3,-1.8498726E-1,-2.9921672E-1,-4.0029037E-1,1E0,-7.3854275E-2,4.0706515E-1,6.995339E-1,-3.8928017E-1,1.4472156E0,1.6285916E-1,1.14957176E-1,-1.3876443E-1,-2.4380313E-1,-4.0428457E-1,-8.5946846E-1,-2.9911745E-1,2.6704878E-1,-1.9067124E-1,1.5566158E0,1E0,-2.554651E-2,-2.9862118E-1,-5.8358914E-1,-6.8789566E-1,7.567212E-1,-2.938148E-1,1E0,-6.8789566E-1,1.4437194E0,1.0340928E0,2.1005776E0,2.3885038E-1,1E0,3.5373774E0,-9.701987E-1,-4.1654772E-1,5.0765576E0,6.583525E-2,8.1149215E-1,5.6529444E-1,-6.354054E-2,2.0853852E-1,-1.6514587E-1,-2.8443915E-1,-2.5619468E-1,8.3652765E-2,-2.0215447E-1,4.0018193E-2,4.981254E-2,-2.5945E-1,5.25298E-1,-2.2990735E-1,-1.8103345E-1,8.896225E-3,-1.8957564E-1,-5.5082712E-2,-2.781459E-2,3.1561232E-1,3.35906E-2,-3.4909923E-2,-3.068413E-1,-6.778468E-2,2.433564E-2,1.4328368E-1,3.7072934E-2,-1.0183887E-2,2.1986414E-1,-1.9308574E-1,-1.05642356E-1,1.5418811E-1,-2.3862056E-1,9.445814E-2,3.5465536E-1,-7.263877E-2,-2.1038063E-1,4.0959492E-1,3.6217425E-2,-8.0168895E-2,-1.0736259E-1,-3.2718423E-1,-1.771602E-1,1.7111687E-1,-8.848732E-2,3.3667478E-1,2.9640827E-1,8.619685E-2,-3.5662152E-2,2.8146812E-1,-3.1931597E-1,-2.6220284E-2],"split_indices":[43,32,62,7,33,75,34,45,54,27,7,43,34,33,44,8,0,7,31,34,33,16,65,41,7,41,27,8,0,45,20,0,27,45,33,0,0,7,70,34,33,34,46,8,32,54,46,45,7,44,8,48,42,45,45,34,36,36,20,0,0,0,0,0,0,0,0,0,0,0,0,0,0,0,0,0,0,0,0,0,0,0,0,0,0,0,0,0,0,0,0,0,0,0,0,0,0,0,0,0,0,0,0,0,0,0,0,0,0],"split_type":[0,0,0,0,0,0,0,0,0,0,0,0,0,0,0,0,0,0,0,0,0,0,0,0,0,0,0,0,0,0,0,0,0,0,0,0,0,0,0,0,0,0,0,0,0,0,0,0,0,0,0,0,0,0,0,0,0,0,0,0,0,0,0,0,0,0,0,0,0,0,0,0,0,0,0,0,0,0,0,0,0,0,0,0,0,0,0,0,0,0,0,0,0,0,0,0,0,0,0,0,0,0,0,0,0,0,0,0,0],"sum_hessian":[6.34383E3,1.4928682E3,4.8509614E3,9.156486E1,1.4013033E3,4.627538E3,2.2342378E2,1.3961896E1,7.760296E1,1.53861E2,1.2474424E3,4.2636934E3,3.6384448E2,3.6154686E1,1.8726909E2,1.1625387E1,2.3365088E0,7.500963E1,2.5933294E0,9.964273E1,5.4218258E1,3.9522556E2,8.522168E2,4.194823E3,6.887025E1,4.594261E1,3.1790186E2,3.4920277E1,1.2344056E0,6.5681366E1,1.2158772E2,1.1748805E0,1.0450507E1,6.655894E1,8.45069E0,1.0439477E0,1.5493817E0,7.204609E1,2.7596643E1,4.9873357E0,4.9230923E1,3.7163696E2,2.3588604E1,7.993137E2,5.290306E1,1.7489695E3,2.4458535E3,4.5782127E1,2.3088123E1,4.3473576E1,2.4690342E0,3.4231606E1,2.8367026E2,3.2688526E1,2.2317507E0,3.2822342E1,3.2859024E1,6.0460407E1,6.112732E1,3.936995E0,6.513512E0,1.148485E1,5.507409E1,4.921385E0,3.5293055E0,6.3959213E1,8.08687E0,2.030979E1,7.2868533E0,2.8148003E0,2.1725357E0,1.7300558E1,3.1930365E1,5.6585133E1,3.1505182E2,1.3619959E1,9.968645E0,5.6471594E2,2.3459778E2,1.5118358E1,3.7784702E1,1.6404796E3,1.0848988E2,6.5992017E2,1.7859335E3,4.328599E1,2.4961355E0,1.1605208E1,1.1482914E1,3.9246975E1,4.2266016E0,1.3400255E0,1.1290087E0,3.1889662E1,2.3419445E0,1.9848549E2,8.518478E1,4.4214563E0,2.826707E1,1.0070333E0,1.2247175E0,2.9375002E1,3.4473414E0,1.4148919E1,1.8710104E1,5.373718E1,6.7232285E0,2.5694899E1,3.543242E1],"tree_param":{"num_deleted":"0","num_feature":"94","num_nodes":"109","size_leaf_vector":"1"}},{"base_weights":[-5.8538197E-3,-3.908003E-2,8.821114E-2,-3.8843793E-1,-2.7537579E-2,7.726229E-2,5.134107E-1,-4.5789352E-1,2.3589125E-1,1.24510005E-2,-9.9409506E-2,2.5169902E-2,1.6259845E-1,5.943858E-1,-6.5912217E-1,-6.216685E-1,-1.7426454E-1,9.953251E-1,-5.46453E-1,1.5232527E-3,3.2977587E-1,-8.345194E-2,-4.6824923E-1,-1.0529222E-2,2.404726E-1,3.4397417E-1,9.7347826E-2,2.019449E-1,9.1304314E-1,-4.6592046E-2,-2.5150055E-1,-1.24269806E-1,-7.313739E-1,-2.7209427E-2,-8.1790096E-1,-1.9243741E-2,1.3383076E0,4.574646E-1,-1.070294E0,-1.4387781E-2,2.0750675E-1,4.2209253E-1,-5.9548444E-1,-1.4437759E-1,1.3109414E-2,-1.3186768E-1,-7.73307E-1,-1.1567637E0,-2.1353115E-3,3.2887152E-1,-7.737062E-1,-6.25537E-2,4.204011E-1,1.2820444E-1,-3.7647128E-1,5.6353015E-1,-8.9014316E-1,1.0131298E0,-6.337928E-2,-2.118253E-1,8.367806E-2,-2.3399393E-1,-5.0411588E-3,1.3053264E-1,-6.591954E-2,-2.9935062E-1,7.342145E-2,8.266322E-2,4.6789226E-1,-1.3716298E-1,3.62364E-1,-4.193327E-1,2.8834151E-2,-8.09242E-3,7.371021E-2,9.8640725E-2,-8.12023E-2,-2.3530416E-1,1.4643978E-1,-5.465888E-2,-3.24089E-1,-1.3559276E-1,-2.1809487E-2,-1.2888726E-3,2.3055422E-1,7.2625995E-2,-2.1779369E-1,-3.9530614E-1,-8.25843E-2,-5.3664696E-1,1.5197529E-1,-6.533203E-2,7.911082E-3,5.4170124E-2,1.7521136E-1,-4.8696214E-1,-8.793503E-2,-1.5541492E-1,1.2348876E-1,1.3890812E-1,-1.4942446E-1,-2.4043689E-2,6.870886E-2,-3.8031715E-1,-1.0672703E-2,2.2077335E-1,-2.6399794E-1,-4.7883633E-1,1.9437681E-1,3.2423204E-1,6.544645E-2],"categories":[],"categories_nodes":[],"categories_segments":[],"categories_sizes":[],"default_left":[0,0,0,0,1,1,0,0,0,0,1,0,0,0,0,0,0,0,0,0,0,0,0,1,0,0,0,0,0,0,0,0,0,0,0,0,0,0,0,0,0,0,0,0,0,0,0,0,0,0,0,0,0,0,0,0,0,0,0,0,0,0,0,0,0,0,0,0,0,0,0,0,0,0,0,0,0,0,0,0,0,0,0,0,0,0,0,0,0,0,0,0,0,0,0,0,0,0,0,0,0,0,0,0,0,0,0,0,0,0,0],"id":11,"left_children":[1,3,5,7,9,11,13,15,17,19,21,23,25,27,29,31,33,35,37,39,41,43,45,47,49,51,53,55,57,-1,-1,59,61,63,65,-1,67,69,71,73,75,77,79,81,83,85,87,89,91,93,95,97,99,101,103,105,107,109,-1,-1,-1,-1,-1,-1,-1,-1,-1,-1,-1,-1,-1,-1,-1,-1,-1,-1,-1,-1,-1,-1,-1,-1,-1,-1,-1,-1,-1,-1,-1,-1,-1,-1,-1,-1,-1,-1,-1,-1,-1,-1,-1,-1,-1,-1,-1,-1,-1,-1,-1,-1,-1],"loss_changes":[1.9652544E1,1.872617E1,7.601488E0,6.548769E0,1.2931599E1,7.114316E0,4.2870398E0,6.1161957E0,9.770611E0,1.0026385E1,9.427848E0,7.6541824E0,7.1478577E0,4.680438E0,1.519053E-1,4.523304E0,4.752027E0,3.0781355E0,4.8518887E0,9.167601E0,8.47334E0,9.079189E0,6.7204533E0,8.222711E0,1.2951972E1,5.0020027E0,6.593082E0,7.892502E0,2.5979595E0,0E0,0E0,4.0640564E0,2.3860168E0,3.842304E0,2.031372E0,0E0,1.044282E0,2.9853277E0,2.3307939E0,8.507575E0,1.1722576E1,7.4028587E0,1.6360219E0,2.0827776E1,7.8637066E0,7.468454E0,9.034225E0,7.438119E0,5.228583E0,4.85102E0,4.281877E0,5.8750477E0,5.513418E0,8.862776E0,8.347702E0,4.2988715E0,6.510291E0,8.196049E-1,0E0,0E0,0E0,0E0,0E0,0E0,0E0,0E0,0E0,0E0,0E0,0E0,0E0,0E0,0E0,0E0,0E0,0E0,0E0,0E0,0E0,0E0,0E0,0E0,0E0,0E0,0E0,0E0,0E0,0E0,0E0,0E0,0E0,0E0,0E0,0E0,0E0,0E0,0E0,0E0,0E0,0E0,0E0,0E0,0E0,0E0,0E0,0E0,0E0,0E0,0E0,0E0,0E0],"parents":[2147483647,0,0,1,1,2,2,3,3,4,4,5,5,6,6,7,7,8,8,9,9,10,10,11,11,12,12,13,13,14,14,15,15,16,16,17,17,18,18,19,19,20,20,21,21,22,22,23,23,24,24,25,25,26,26,27,27,28,28,31,31,32,32,33,33,34,34,36,36,37,37,38,38,39,39,40,40,41,41,42,42,43,43,44,44,45,45,46,46,47,47,48,48,49,49,50,50,51,51,52,52,53,53,54,54,55,55,56,56,57,57],"right_children":[2,4,6,8,10,12,14,16,18,20,22,24,26,28,30,32,34,36,38,40,42,44,46,48,50,52,54,56,58,-1,-1,60,62,64,66,-1,68,70,72,74,76,78,80,82,84,86,88,90,92,94,96,98,100,102,104,106,108,110,-1,-1,-1,-1,-1,-1,-1,-1,-1,-1,-1,-1,-1,-1,-1,-1,-1,-1,-1,-1,-1,-1,-1,-1,-1,-1,-1,-1,-1,-1,-1,-1,-1,-1,-1,-1,-1,-1,-1,-1,-1,-1,-1,-1,-1,-1,-1,-1,-1,-1,-1,-1,-1],"split_conditions":[4.934517E-1,-4.0758651E-1,6.913173E0,-1.9623862E-1,4.6022654E-1,-1.87172E-1,1E0,-3.44428E-1,-1.1215247E-1,1E0,2.0548496E0,2.891228E-1,-2.6470762E-1,2.6373023E-2,-2.6766807E-1,-9.514947E-1,-4.0782058E-1,-6.558244E-1,-3.364146E-2,1E0,1E0,1E0,6.2395263E-2,-2.453983E0,3.473413E0,-1.0809288E0,1E0,9.40043E-1,1E0,-4.6592046E-2,-2.5150055E-1,-1.3695132E0,1E0,-6.2426764E-1,1.8683471E-1,-1.9243741E-2,-2.9911745E-1,-3.125071E-1,1E0,1E0,-2.2979909E-1,-4.0668625E-1,-2.554651E-2,-3.44428E-1,1.2499795E0,1.1569669E0,1E0,1.7494774E0,-5.8358914E-1,9.0396494E-1,7.408805E-1,1.0825622E0,3.981415E0,2.1361461E-1,9.2514396E-1,5.3794545E-1,1.4531249E0,1.2804021E0,-6.337928E-2,-2.118253E-1,8.367806E-2,-2.3399393E-1,-5.0411588E-3,1.3053264E-1,-6.591954E-2,-2.9935062E-1,7.342145E-2,8.266322E-2,4.6789226E-1,-1.3716298E-1,3.62364E-1,-4.193327E-1,2.8834151E-2,-8.09242E-3,7.371021E-2,9.8640725E-2,-8.12023E-2,-2.3530416E-1,1.4643978E-1,-5.465888E-2,-3.24089E-1,-1.3559276E-1,-2.1809487E-2,-1.2888726E-3,2.3055422E-1,7.2625995E-2,-2.1779369E-1,-3.9530614E-1,-8.25843E-2,-5.3664696E-1,1.5197529E-1,-6.533203E-2,7.911082E-3,5.4170124E-2,1.7521136E-1,-4.8696214E-1,-8.793503E-2,-1.5541492E-1,1.2348876E-1,1.3890812E-1,-1.4942446E-1,-2.4043689E-2,6.870886E-2,-3.8031715E-1,-1.0672703E-2,2.2077335E-1,-2.6399794E-1,-4.7883633E-1,1.9437681E-1,3.2423204E-1,6.544645E-2],"split_indices":[20,27,26,20,44,37,57,34,16,92,41,31,34,45,33,7,27,43,14,53,70,48,20,45,19,45,78,27,85,0,0,7,66,8,44,0,33,43,58,91,32,27,34,34,34,40,51,19,34,46,31,20,42,34,16,31,43,44,0,0,0,0,0,0,0,0,0,0,0,0,0,0,0,0,0,0,0,0,0,0,0,0,0,0,0,0,0,0,0,0,0,0,0,0,0,0,0,0,0,0,0,0,0,0,0,0,0,0,0,0,0],"split_type":[0,0,0,0,0,0,0,0,0,0,0,0,0,0,0,0,0,0,0,0,0,0,0,0,0,0,0,0,0,0,0,0,0,0,0,0,0,0,0,0,0,0,0,0,0,0,0,0,0,0,0,0,0,0,0,0,0,0,0,0,0,0,0,0,0,0,0,0,0,0,0,0,0,0,0,0,0,0,0,0,0,0,0,0,0,0,0,0,0,0,0,0,0,0,0,0,0,0,0,0,0,0,0,0,0,0,0,0,0,0,0],"sum_hessian":[6.285861E3,4.6455244E3,1.6403365E3,1.4753064E2,4.4979937E3,1.6003104E3,4.0026154E1,1.3300107E2,1.4529562E1,2.8905547E3,1.6074392E3,9.945157E2,6.0579474E2,3.7901733E1,2.1244166E0,8.355964E1,4.944143E1,7.234594E0,7.2949677E0,2.7952976E3,9.525714E1,1.541954E3,6.5485176E1,8.5388495E2,1.406307E2,1.5914665E2,4.466481E2,1.7716637E1,2.0185099E1,1.0471642E0,1.0772525E0,1.5484854E1,6.807479E1,4.1094597E1,8.346831E0,1.9681052E0,5.2664886E0,2.5447605E0,4.7502074E0,2.5957231E3,1.9957445E2,8.7109695E1,8.147447E0,9.451278E2,5.968262E2,3.1824816E1,3.3660362E1,5.212988E0,8.4867194E2,1.2997722E2,1.0653486E1,2.5213457E1,1.3393318E2,4.200242E2,2.6623888E1,1.3673419E1,4.0432167E0,1.8625893E1,1.5592057E0,6.0309505E0,9.453903E0,6.3653477E1,4.4213133E0,1.1711313E1,2.9383284E1,7.190297E0,1.1565336E0,1.2947044E0,3.971784E0,1.3229512E0,1.2218093E0,3.5540185E0,1.1961889E0,2.476757E3,1.1896609E2,1.5944255E2,4.0131897E1,3.9563854E0,8.3153305E1,5.14084E0,3.006607E0,1.7761612E2,7.675117E2,5.84356E2,1.2470127E1,1.9894836E1,1.192998E1,1.5295455E1,1.8364906E1,3.722885E0,1.4901029E0,9.83135E1,7.5035846E2,8.3281235E1,4.669599E1,2.9902747E0,7.663212E0,1.2812943E1,1.2400515E1,1.2846703E2,5.466159E0,1.3704097E2,2.8298325E2,6.6137652E0,2.0010122E1,1.2652675E1,1.0207447E0,2.7453468E0,1.2978698E0,1.6833998E1,1.791896E0],"tree_param":{"num_deleted":"0","num_feature":"94","num_nodes":"111","size_leaf_vector":"1"}},{"base_weights":[-4.537827E-3,-1.09787345E-1,1.5698988E-2,-8.981678E-2,-7.269546E-1,-9.5247865E-2,3.141712E-2,-1.1350182E-1,3.8107327E-1,-7.85182E-1,9.1256365E-2,-2.292297E-1,4.745583E-2,5.049597E-2,-7.387952E-2,-1.4299871E-1,3.183778E-1,9.0438133E-1,8.096621E-2,-8.328533E-2,-8.8035923E-1,-5.6050926E-1,-1.1914508E-1,1.522273E-1,-2.4010374E-1,3.9621644E-2,2.8545913E-1,-3.126736E-1,1.2663032E-3,-1.1577867E-1,-5.3831154E-1,4.1542688E-1,-8.595836E-1,1.1189792E0,-1.7482567E-1,4.0285456E-1,-7.976104E-1,-2.3257999E-1,3.5288042E-1,-9.427646E-1,8.7180406E-2,-7.272076E-1,5.4178447E-1,-2.1347573E-3,-4.846375E-1,2.0587245E-1,-3.7900174E-1,-3.314409E-1,6.816151E-1,2.8379165E-2,2.4724579E-1,3.37539E-1,-9.7225964E-1,-4.970909E-1,3.1502306E-2,-3.4658663E-2,5.2252316E-1,-5.955341E-2,3.1307407E-3,-1.12487584E-1,-3.4636402E-1,1.5742671E-1,-2.2217734E-1,-4.704357E-1,1.0678464E-2,4.1280925E-1,-1.13580875E-1,3.704092E-1,3.0166415E-2,1.7315222E-1,-3.502262E-1,-2.9845044E-1,-3.0227158E-2,-6.7982174E-2,-2.5268218E-1,4.3554258E-1,-3.0763099E-2,-1.6199358E-2,1.7384738E-1,-1.633733E-1,8.842379E-2,4.701706E-2,4.0083438E-1,3.4636152E-1,-1.6802749E-1,2.818512E-2,-1.6673903E-1,-1.2276714E-1,2.8650442E-1,6.6654664E-3,1.1642162E-1,9.561101E-2,-1.1212575E-1,-5.029456E-2,1.3583034E-1,-3.818444E-2,-3.27762E-1,-1.274815E-1,-3.3330342E-1,-5.9287097E-2,1.5354925E-1,1.632143E-2,-7.6360695E-2,-1.329399E-1,2.284792E-1],"categories":[],"categories_nodes":[],"categories_segments":[],"categories_sizes":[],"default_left":[0,0,0,0,0,0,0,0,0,0,0,0,0,0,0,0,1,0,0,0,0,0,0,0,0,0,0,0,0,0,0,0,0,1,0,0,0,0,0,0,0,0,0,0,0,0,0,0,0,0,0,0,0,0,0,0,0,0,0,0,0,0,0,0,0,0,0,0,0,0,0,0,0,0,0,0,0,0,0,0,0,0,0,0,0,0,0,0,0,0,0,0,0,0,0,0,0,0,0,0,0,0,0,0,0],"id":12,"left_children":[1,3,5,7,9,11,13,15,17,19,-1,21,23,25,27,29,31,33,35,37,39,41,43,45,47,49,51,53,55,57,59,61,63,65,-1,67,69,-1,-1,71,-1,73,75,77,79,81,83,85,87,89,91,93,95,97,99,101,103,-1,-1,-1,-1,-1,-1,-1,-1,-1,-1,-1,-1,-1,-1,-1,-1,-1,-1,-1,-1,-1,-1,-1,-1,-1,-1,-1,-1,-1,-1,-1,-1,-1,-1,-1,-1,-1,-1,-1,-1,-1,-1,-1,-1,-1,-1,-1,-1],"loss_changes":[1.3289339E1,1.2336306E1,9.129339E0,1.092643E1,2.1239777E0,1.2432331E1,9.214108E0,1.1890887E1,7.301829E0,1.9307232E0,0E0,1.2159193E1,9.5396185E0,9.907486E0,1.2627599E1,9.31093E0,7.188515E0,6.0828648E0,9.072176E0,4.996675E0,2.1966972E0,1.5708958E1,1.0814518E1,6.683874E0,7.349936E0,8.656303E0,1.1565337E1,1.0706938E1,1.0059905E1,8.525335E0,5.188389E0,7.4514236E0,3.1474185E0,6.3775425E0,0E0,5.7376766E0,5.062692E0,0E0,0E0,1.005331E0,0E0,4.0040092E0,6.904665E0,5.840248E0,3.025404E0,1.1522157E1,6.64877E0,7.46445E0,2.763756E0,7.796168E0,8.573273E0,9.708618E0,5.804119E-1,4.38867E0,6.6722026E0,9.856413E0,8.3339615E0,0E0,0E0,0E0,0E0,0E0,0E0,0E0,0E0,0E0,0E0,0E0,0E0,0E0,0E0,0E0,0E0,0E0,0E0,0E0,0E0,0E0,0E0,0E0,0E0,0E0,0E0,0E0,0E0,0E0,0E0,0E0,0E0,0E0,0E0,0E0,0E0,0E0,0E0,0E0,0E0,0E0,0E0,0E0,0E0,0E0,0E0,0E0,0E0],"parents":[2147483647,0,0,1,1,2,2,3,3,4,4,5,5,6,6,7,7,8,8,9,9,11,11,12,12,13,13,14,14,15,15,16,16,17,17,18,18,19,19,20,20,21,21,22,22,23,23,24,24,25,25,26,26,27,27,28,28,29,29,30,30,31,31,32,32,33,33,35,35,36,36,39,39,41,41,42,42,43,43,44,44,45,45,46,46,47,47,48,48,49,49,50,50,51,51,52,52,53,53,54,54,55,55,56,56],"right_children":[2,4,6,8,10,12,14,16,18,20,-1,22,24,26,28,30,32,34,36,38,40,42,44,46,48,50,52,54,56,58,60,62,64,66,-1,68,70,-1,-1,72,-1,74,76,78,80,82,84,86,88,90,92,94,96,98,100,102,104,-1,-1,-1,-1,-1,-1,-1,-1,-1,-1,-1,-1,-1,-1,-1,-1,-1,-1,-1,-1,-1,-1,-1,-1,-1,-1,-1,-1,-1,-1,-1,-1,-1,-1,-1,-1,-1,-1,-1,-1,-1,-1,-1,-1,-1,-1,-1,-1],"split_conditions":[-2.9537416E-1,1E0,-5.8358914E-1,-2.8753114E-1,-2.955443E-1,4.0706515E-1,1E0,-1.757877E-1,-4.049947E-1,-4.0831393E-1,9.1256365E-2,1E0,5.428865E-1,1E0,2.93335E-1,1E0,3.0684228E0,1E0,2.300436E0,-2.988906E-1,2.1523926E0,5.7744944E-1,7.336184E-1,2.7323508E-1,1E0,1E0,1E0,3.7475082E-1,1E0,-4.1799343E-1,3.949565E-1,1E0,1E0,-9.067313E-2,-1.7482567E-1,-2.8560305E-1,-3.125071E-1,-2.3257999E-1,3.5288042E-1,5.958435E-1,8.7180406E-2,-9.0247065E-1,-1.5212909E-2,1E0,1E0,6.662905E-2,-1.924569E0,9.2958814E-1,-6.633095E-1,4.359074E0,9.991193E-1,-1.0416424E0,-1.1421384E0,7.200566E-1,-1.3489033E-1,1.1547256E0,-9.7957574E-2,-5.955341E-2,3.1307407E-3,-1.12487584E-1,-3.4636402E-1,1.5742671E-1,-2.2217734E-1,-4.704357E-1,1.0678464E-2,4.1280925E-1,-1.13580875E-1,3.704092E-1,3.0166415E-2,1.7315222E-1,-3.502262E-1,-2.9845044E-1,-3.0227158E-2,-6.7982174E-2,-2.5268218E-1,4.3554258E-1,-3.0763099E-2,-1.6199358E-2,1.7384738E-1,-1.633733E-1,8.842379E-2,4.701706E-2,4.0083438E-1,3.4636152E-1,-1.6802749E-1,2.818512E-2,-1.6673903E-1,-1.2276714E-1,2.8650442E-1,6.6654664E-3,1.1642162E-1,9.561101E-2,-1.1212575E-1,-5.029456E-2,1.3583034E-1,-3.818444E-2,-3.27762E-1,-1.274815E-1,-3.3330342E-1,-5.9287097E-2,1.5354925E-1,1.632143E-2,-7.6360695E-2,-1.329399E-1,2.284792E-1],"split_indices":[33,77,34,32,33,7,49,27,27,27,0,48,14,69,34,86,37,70,37,33,45,27,44,27,53,58,50,17,52,14,19,61,51,36,0,32,43,0,0,16,0,34,31,59,59,32,31,7,34,34,30,46,8,21,27,21,33,0,0,0,0,0,0,0,0,0,0,0,0,0,0,0,0,0,0,0,0,0,0,0,0,0,0,0,0,0,0,0,0,0,0,0,0,0,0,0,0,0,0,0,0,0,0,0,0],"split_type":[0,0,0,0,0,0,0,0,0,0,0,0,0,0,0,0,0,0,0,0,0,0,0,0,0,0,0,0,0,0,0,0,0,0,0,0,0,0,0,0,0,0,0,0,0,0,0,0,0,0,0,0,0,0,0,0,0,0,0,0,0,0,0,0,0,0,0,0,0,0,0,0,0,0,0,0,0,0,0,0,0,0,0,0,0,0,0,0,0,0,0,0,0,0,0,0,0,0,0,0,0,0,0,0,0],"sum_hessian":[6.237566E3,1.0052005E3,5.2323657E3,9.748029E2,3.0397562E1,6.4866766E2,4.5836978E3,9.288425E2,4.5960365E1,2.8998577E1,1.398984E0,3.3424496E2,3.144227E2,3.8810122E3,7.026858E2,8.700856E2,5.8756966E1,1.601714E1,2.9943228E1,3.6865692E0,2.5312008E1,8.234652E1,2.5189844E2,2.308015E2,8.362121E1,3.7104573E3,1.7055498E2,1.6744087E2,5.3524493E2,8.152433E2,5.4842278E1,5.4882664E1,3.8743014E0,1.421363E1,1.8035103E0,2.231064E1,7.6325874E0,2.6275308E0,1.0590384E0,2.4216301E1,1.0957074E0,7.182483E1,1.0521691E1,1.9157321E2,6.0325233E1,2.1018846E2,2.0613024E1,7.666459E1,6.9566197E0,3.5209412E3,1.8951605E2,1.6447595E2,6.0790253E0,1.08734276E2,5.87066E1,5.016077E2,3.3637238E1,4.9210147E2,3.231418E2,4.4622196E1,1.022008E1,5.063956E1,4.243103E0,1.7429862E0,