{"learner":{"attributes":{"scikit_learn":"{\"_estimator_type\": \"regressor\"}"},"feature_names":["GW","assists","bonus","bps","clean_sheets","creativity","goals_conceded","goals_scored","ict_index","influence","minutes","opponent_1_team","own_goals","penalties_missed","penalties_saved","red_cards","saves","selected","team_a_score","team_h_score","threat","total_points","transfers_balance","transfers_in","transfers_out","value","yellow_cards","points","team_goals_scored","team_goals_conceded","team_goals_diff","xG","xA","key_passes","npg","npxG","xGChain","xGBuildup","xP","aggregate_xG","aggregate_xA","aggregate_key_passes","aggregate_npg","aggregate_npxG","aggregate_xGChain","aggregate_xGBuildup","aggregate_xP","aggregate_goals_scored","aggregate_saves","aggregate_penalties_saved","aggregate_assists","aggregate_total_points","aggregate_minutes","aggregate_own_goals","aggregate_penalties_missed","aggregate_clean_sheets","aggregate_threat","aggregate_ict_index","aggregate_influence","aggregate_creativity","per_90_xG","per_90_xA","per_90_key_passes","per_90_npg","per_90_npxG","per_90_xGChain","per_90_xGBuildup","per_90_xP","per_90_goals_scored","per_90_saves","per_90_penalties_saved","per_90_assists","per_90_total_points","per_90_own_goals","per_90_penalties_missed","per_90_clean_sheets","per_90_threat","per_90_ict_index","per_90_influence","per_90_creativity","form_3_xP","form_3_goals_scored","form_3_saves","form_3_penalties_saved","form_3_assists","form_3_xG","form_3_xA","form_3_total_points","form_3_minutes","form_3_key_passes","form_3_npg","form_3_npxG","form_3_xGChain","form_3_xGBuildup","form_3_own_goals","form_3_penalties_missed","form_3_clean_sheets","form_3_bps","form_3_threat","form_3_ict_index","form_3_influence","form_3_creativity","form_5_xP","form_5_goals_scored","form_5_saves","form_5_penalties_saved","form_5_assists","form_5_xG","form_5_xA","form_5_total_points","form_5_minutes","form_5_key_passes","form_5_npg","form_5_npxG","form_5_xGChain","form_5_xGBuildup","form_5_own_goals","form_5_penalties_missed","form_5_clean_sheets","form_5_bps","form_5_threat","form_5_ict_index","form_5_influence","form_5_creativity","team_form","opp_team_strength_1","upcoming_strength","opp_team_strength_2","position_DEF","position_FWD","position_GK","position_GKP","position_MID","team_2.0","team_3.0","team_4.0","team_5.0","team_6.0","team_7.0","team_8.0","team_9.0","team_10.0","team_11.0","team_12.0","team_13.0","team_14.0","team_15.0","team_16.0","team_17.0","team_18.0","team_19.0","team_20.0","opponent_2_team_2.0","opponent_2_team_3.0","opponent_2_team_4.0","opponent_2_team_5.0","opponent_2_team_6.0","opponent_2_team_7.0","opponent_2_team_8.0","opponent_2_team_9.0","opponent_2_team_10.0","opponent_2_team_11.0","opponent_2_team_12.0","opponent_2_team_13.0","opponent_2_team_14.0","opponent_2_team_15.0","opponent_2_team_16.0","opponent_2_team_17.0","opponent_2_team_18.0","opponent_2_team_19.0","opponent_2_team_20.0","was_home_True","team_strength_2.0","team_strength_3.0","team_strength_4.0","team_strength_5.0","team_strength_6.0","team_strength_7.0","team_strength_8.0","team_strength_9.0","team_strength_10.0","team_strength_11.0","team_strength_12.0","team_strength_13.0","team_strength_14.0","team_strength_15.0","team_strength_16.0","team_strength_17.0","team_strength_18.0","team_strength_19.0","team_strength_20.0","is_dgw_in_gw+1_1","is_dgw_in_gw+2_1","is_dgw_in_gw+3_1","is_dgw_in_gw+4_1","is_dgw_in_gw+5_1","is_dgw_in_gw+6_1","is_dgw_1.0","minutes_gw+1"],"feature_types":["float","float","float","float","float","float","float","float","float","float","float","float","float","float","float","float","float","float","float","float","float","float","float","float","float","float","float","float","float","float","float","float","float","float","float","float","float","float","float","float","float","float","float","float","float","float","float","float","float","float","float","float","float","float","float","float","float","float","float","float","float","float","float","float","float","float","float","float","float","float","float","float","float","float","float","float","float","float","float","float","float","float","float","float","float","float","float","float","float","float","float","float","float","float","float","float","float","float","float","float","float","float","float","float","float","float","float","float","float","float","float","float","float","float","float","float","float","float","float","float","float","float","float","float","float","float","float","float","i","i","i","i","i","i","i","i","i","i","i","i","i","i","i","i","i","i","i","i","i","i","i","i","i","i","i","i","i","i","i","i","i","i","i","i","i","i","i","i","i","i","i","i","i","i","i","i","i","i","i","i","i","i","i","i","i","i","i","i","i","i","i","i","i","i","i","i","i","i","float"],"gradient_booster":{"model":{"gbtree_model_param":{"num_parallel_tree":"1","num_trees":"200"},"iteration_indptr":[0,1,2,3,4,5,6,7,8,9,10,11,12,13,14,15,16,17,18,19,20,21,22,23,24,25,26,27,28,29,30,31,32,33,34,35,36,37,38,39,40,41,42,43,44,45,46,47,48,49,50,51,52,53,54,55,56,57,58,59,60,61,62,63,64,65,66,67,68,69,70,71,72,73,74,75,76,77,78,79,80,81,82,83,84,85,86,87,88,89,90,91,92,93,94,95,96,97,98,99,100,101,102,103,104,105,106,107,108,109,110,111,112,113,114,115,116,117,118,119,120,121,122,123,124,125,126,127,128,129,130,131,132,133,134,135,136,137,138,139,140,141,142,143,144,145,146,147,148,149,150,151,152,153,154,155,156,157,158,159,160,161,162,163,164,165,166,167,168,169,170,171,172,173,174,175,176,177,178,179,180,181,182,183,184,185,186,187,188,189,190,191,192,193,194,195,196,197,198,199,200],"tree_info":[0,0,0,0,0,0,0,0,0,0,0,0,0,0,0,0,0,0,0,0,0,0,0,0,0,0,0,0,0,0,0,0,0,0,0,0,0,0,0,0,0,0,0,0,0,0,0,0,0,0,0,0,0,0,0,0,0,0,0,0,0,0,0,0,0,0,0,0,0,0,0,0,0,0,0,0,0,0,0,0,0,0,0,0,0,0,0,0,0,0,0,0,0,0,0,0,0,0,0,0,0,0,0,0,0,0,0,0,0,0,0,0,0,0,0,0,0,0,0,0,0,0,0,0,0,0,0,0,0,0,0,0,0,0,0,0,0,0,0,0,0,0,0,0,0,0,0,0,0,0,0,0,0,0,0,0,0,0,0,0,0,0,0,0,0,0,0,0,0,0,0,0,0,0,0,0,0,0,0,0,0,0,0,0,0,0,0,0,0,0,0,0,0,0,0,0,0,0,0,0],"trees":[{"base_weights":[2.577673E-8,-1.4787519E0,2.0412254E0,-8.882028E-2,-4.706719E-1,1.8507704E0,6.0399437E0,-3.3182245E-2,-8.85501E-3,7.337857E-2,1.4009467E-1,2.7347508E-1,5.0013393E-1],"categories":[],"categories_nodes":[],"categories_segments":[],"categories_sizes":[],"default_left":[0,0,0,0,0,0,0,0,0,0,0,0,0],"id":0,"left_children":[1,3,5,-1,7,9,11,-1,-1,-1,-1,-1,-1],"loss_changes":[1.3345544E5,7.692375E3,1.4134336E4,0E0,3.3106653E2,6.458297E3,1.8531602E3,0E0,0E0,0E0,0E0,0E0,0E0],"parents":[2147483647,0,0,1,1,2,2,4,4,5,5,6,6],"right_children":[2,4,6,-1,8,10,12,-1,-1,-1,-1,-1,-1],"split_conditions":[4.1878375E-1,-8.883021E-1,2.1689496E0,-8.882028E-2,2.9206723E-1,3.4185418E-1,1.7967718E0,-3.3182245E-2,-8.85501E-3,7.337857E-2,1.4009467E-1,2.7347508E-1,5.0013393E-1],"split_indices":[198,198,198,0,77,77,30,0,0,0,0,0,0],"split_type":[0,0,0,0,0,0,0,0,0,0,0,0,0],"sum_hessian":[4.4211E4,2.5638E4,1.8573E4,1.9793E4,5.845E3,1.773E4,8.43E2,3.526E3,2.319E3,1.264E4,5.09E3,7.39E2,1.04E2],"tree_param":{"num_deleted":"0","num_feature":"199","num_nodes":"13","size_leaf_vector":"1"}},{"base_weights":[1.9386056E-5,-1.4048195E0,1.9392173E0,-8.437949E-2,-4.471455E-1,1.7582439E0,5.738863E0,-3.1243507E-2,-2.978063E-3,7.382709E-2,1.4842202E-1,2.3995052E-1,4.0558854E-1],"categories":[],"categories_nodes":[],"categories_segments":[],"categories_sizes":[],"default_left":[0,0,0,0,0,0,0,0,0,0,0,0,0],"id":1,"left_children":[1,3,5,-1,7,9,11,-1,-1,-1,-1,-1,-1],"loss_changes":[1.20447734E5,6.942332E3,1.2762047E4,0E0,4.026543E2,6.040379E3,1.8433477E3,0E0,0E0,0E0,0E0,0E0,0E0],"parents":[2147483647,0,0,1,1,2,2,4,4,5,5,6,6],"right_children":[2,4,6,-1,8,10,12,-1,-1,-1,-1,-1,-1],"split_conditions":[4.1878375E-1,-8.883021E-1,2.1689496E0,-8.437949E-2,2.9886135E-1,8.560981E-1,6.1728233E-1,-3.1243507E-2,-2.978063E-3,7.382709E-2,1.4842202E-1,2.3995052E-1,4.0558854E-1],"split_indices":[198,198,198,0,25,25,25,0,0,0,0,0,0],"split_type":[0,0,0,0,0,0,0,0,0,0,0,0,0],"sum_hessian":[4.4211E4,2.5638E4,1.8573E4,1.9793E4,5.845E3,1.773E4,8.43E2,4.007E3,1.838E3,1.4384E4,3.346E3,6.06E2,2.37E2],"tree_param":{"num_deleted":"0","num_feature":"199","num_nodes":"13","size_leaf_vector":"1"}},{"base_weights":[3.5334382E-5,-1.3345832E0,1.8423032E0,-8.016073E-2,-4.2479402E-1,1.6703442E0,5.452685E0,-3.3493444E-2,-8.881878E-3,6.591851E-2,1.2758617E-1,2.4595828E-1,4.5803976E-1],"categories":[],"categories_nodes":[],"categories_segments":[],"categories_sizes":[],"default_left":[0,0,0,0,0,0,0,0,0,0,0,0,0],"id":2,"left_children":[1,3,5,-1,7,9,11,-1,-1,-1,-1,-1,-1],"loss_changes":[1.0870759E5,6.2654414E3,1.1522324E4,0E0,3.53984E2,5.4971914E3,1.6246641E3,0E0,0E0,0E0,0E0,0E0,0E0],"parents":[2147483647,0,0,1,1,2,2,4,4,5,5,6,6],"right_children":[2,4,6,-1,8,10,12,-1,-1,-1,-1,-1,-1],"split_conditions":[4.1878375E-1,-8.883021E-1,2.1689496E0,-8.016073E-2,5.2774753E-2,3.4324145E-1,1.7967718E0,-3.3493444E-2,-8.881878E-3,6.591851E-2,1.2758617E-1,2.4595828E-1,4.5803976E-1],"split_indices":[198,198,198,0,76,77,30,0,0,0,0,0,0],"split_type":[0,0,0,0,0,0,0,0,0,0,0,0,0],"sum_hessian":[4.4211E4,2.5638E4,1.8573E4,1.9793E4,5.845E3,1.773E4,8.43E2,2.934E3,2.911E3,1.2672E4,5.058E3,7.39E2,1.04E2],"tree_param":{"num_deleted":"0","num_feature":"199","num_nodes":"13","size_leaf_vector":"1"}},{"base_weights":[5.1094186E-5,-1.2678587E0,1.7502363E0,-7.61529E-2,-4.0356156E-1,1.5818225E0,5.082982E0,-2.4162194E-2,1.7771805E-2,6.617506E-2,1.3453308E-1,2.1102002E-1,3.7612027E-1],"categories":[],"categories_nodes":[],"categories_segments":[],"categories_sizes":[],"default_left":[0,0,0,0,0,0,0,0,0,0,0,0,0],"id":3,"left_children":[1,3,5,-1,7,9,11,-1,-1,-1,-1,-1,-1],"loss_changes":[9.8112055E4,5.6545273E3,1.0417176E4,0E0,3.537301E2,5.061215E3,1.8473047E3,0E0,0E0,0E0,0E0,0E0,0E0],"parents":[2147483647,0,0,1,1,2,2,4,4,5,5,6,6],"right_children":[2,4,6,-1,8,10,12,-1,-1,-1,-1,-1,-1],"split_conditions":[4.1878375E-1,-8.883021E-1,1.9031016E0,-7.61529E-2,1.4133348E0,8.560981E-1,6.968876E-1,-2.4162194E-2,1.7771805E-2,6.617506E-2,1.3453308E-1,2.1102002E-1,3.7612027E-1],"split_indices":[198,198,198,0,25,25,25,0,0,0,0,0,0],"split_type":[0,0,0,0,0,0,0,0,0,0,0,0,0],"sum_hessian":[4.4211E4,2.5638E4,1.8573E4,1.9793E4,5.845E3,1.7681E4,8.92E2,5.29E3,5.55E2,1.4342E4,3.339E3,6.61E2,2.31E2],"tree_param":{"num_deleted":"0","num_feature":"199","num_nodes":"13","size_leaf_vector":"1"}},{"base_weights":[6.448891E-5,-1.204469E0,1.6627669E0,-7.234544E-2,-3.8338462E-1,1.5073283E0,4.9262967E0,-2.7247308E-2,-1.5530814E-3,5.8909047E-2,1.1610307E-1,2.1025026E-1,3.6934632E-1],"categories":[],"categories_nodes":[],"categories_segments":[],"categories_sizes":[],"default_left":[0,0,0,0,0,0,0,0,0,0,0,0,0],"id":4,"left_children":[1,3,5,-1,7,9,11,-1,-1,-1,-1,-1,-1],"loss_changes":[8.8548945E4,5.1032344E3,9.41477E3,0E0,3.3274805E2,4.7521406E3,1.4668945E3,0E0,0E0,0E0,0E0,0E0,0E0],"parents":[2147483647,0,0,1,1,2,2,4,4,5,5,6,6],"right_children":[2,4,6,-1,8,10,12,-1,-1,-1,-1,-1,-1],"split_conditions":[4.1878375E-1,-8.883021E-1,2.1689496E0,-7.234544E-2,2.9886135E-1,3.784666E-1,3.8629327E-2,-2.7247308E-2,-1.5530814E-3,5.8909047E-2,1.1610307E-1,2.1025026E-1,3.6934632E-1],"split_indices":[198,198,198,0,25,25,72,0,0,0,0,0,0],"split_type":[0,0,0,0,0,0,0,0,0,0,0,0,0],"sum_hessian":[4.4211E4,2.5638E4,1.8573E4,1.9793E4,5.845E3,1.773E4,8.43E2,4.007E3,1.838E3,1.263E4,5.1E3,6.54E2,1.89E2],"tree_param":{"num_deleted":"0","num_feature":"199","num_nodes":"13","size_leaf_vector":"1"}},{"base_weights":[7.6091994E-5,-9.905883E-1,9.674896E-1,-1.2222111E0,-5.013007E-1,6.723079E-1,1.7947572E0,-6.427675E-2,-5.038284E-2,-3.1607598E-2,1.7653298E-2,1.6373433E-2,4.9416456E-2,8.457814E-2,2.03264E-1],"categories":[],"categories_nodes":[],"categories_segments":[],"categories_sizes":[],"default_left":[0,0,0,0,0,0,0,0,0,0,0,0,0,0,0],"id":5,"left_children":[1,3,5,7,9,11,13,-1,-1,-1,-1,-1,-1,-1,-1],"loss_changes":[4.2372953E4,2.4749707E3,5.461174E3,2.0012305E2,7.850242E2,1.7964814E3,1.3713066E3,0E0,0E0,0E0,0E0,0E0,0E0,0E0,0E0],"parents":[2147483647,0,0,1,1,2,2,3,3,4,4,5,5,6,6],"right_children":[2,4,6,8,10,12,14,-1,-1,-1,-1,-1,-1,-1,-1],"split_conditions":[-6.005821E-1,-1.0339705E0,1.0120062E0,-6.6511905E-1,6.968876E-1,-2.5242814E-1,5.234387E0,-6.427675E-2,-5.038284E-2,-3.1607598E-2,1.7653298E-2,1.6373433E-2,4.9416456E-2,8.457814E-2,2.03264E-1],"split_indices":[10,88,121,45,25,23,25,0,0,0,0,0,0,0,0],"split_type":[0,0,0,0,0,0,0,0,0,0,0,0,0,0,0],"sum_hessian":[4.4211E4,2.1843E4,2.2368E4,1.4824E4,7.019E3,1.6487E4,5.881E3,1.1442E4,3.382E3,6.087E3,9.32E2,7.885E3,8.602E3,5.627E3,2.54E2],"tree_param":{"num_deleted":"0","num_feature":"199","num_nodes":"15","size_leaf_vector":"1"}},{"base_weights":[7.736319E-5,-1.1135617E0,1.5373118E0,-1.3334367E0,-3.6889562E-1,1.3785018E0,4.4274774E0,-6.602187E-2,-7.07519E-2,-2.194031E-2,1.4852493E-2,5.751424E-2,1.180339E-1,1.8164413E-1,3.1968388E-1],"categories":[],"categories_nodes":[],"categories_segments":[],"categories_sizes":[],"default_left":[0,0,0,0,0,0,0,0,0,0,0,0,0,0,0],"id":6,"left_children":[1,3,5,7,9,11,13,-1,-1,-1,-1,-1,-1,-1,-1],"loss_changes":[7.568931E4,4.1974727E3,8.519125E3,1.9128906E1,2.7230035E2,3.9441094E3,1.4875469E3,0E0,0E0,0E0,0E0,0E0,0E0,0E0,0E0],"parents":[2147483647,0,0,1,1,2,2,3,3,4,4,5,5,6,6],"right_children":[2,4,6,8,10,12,14,-1,-1,-1,-1,-1,-1,-1,-1],"split_conditions":[4.1878375E-1,-8.883021E-1,1.5043296E0,-6.005821E-1,1.4133348E0,8.560981E-1,6.1728233E-1,-6.602187E-2,-7.07519E-2,-2.194031E-2,1.4852493E-2,5.751424E-2,1.180339E-1,1.8164413E-1,3.1968388E-1],"split_indices":[198,198,198,10,25,25,25,0,0,0,0,0,0,0,0],"split_type":[0,0,0,0,0,0,0,0,0,0,0,0,0,0,0],"sum_hessian":[4.4211E4,2.5638E4,1.8573E4,1.9793E4,5.845E3,1.7607E4,9.66E2,1.7088E4,2.705E3,5.29E3,5.55E2,1.4289E4,3.318E3,6.9E2,2.76E2],"tree_param":{"num_deleted":"0","num_feature":"199","num_nodes":"15","size_leaf_vector":"1"}},{"base_weights":[8.559608E-5,-1.0578892E0,1.4604827E0,-1.2667717E0,-3.50452E-1,1.3198816E0,4.412544E0,-6.272096E-2,-6.7215614E-2,-2.7242366E-2,-6.030058E-3,5.143077E-2,1.0204253E-1,2.0405816E-1,4.6906257E-1],"categories":[],"categories_nodes":[],"categories_segments":[],"categories_sizes":[],"default_left":[0,0,0,0,0,0,0,0,0,0,0,0,0,0,0],"id":7,"left_children":[1,3,5,7,9,11,13,-1,-1,-1,-1,-1,-1,-1,-1],"loss_changes":[6.831189E4,3.7882637E3,7.7035586E3,1.7271484E1,2.6114478E2,3.7213047E3,1.3513906E3,0E0,0E0,0E0,0E0,0E0,0E0,0E0,0E0],"parents":[2147483647,0,0,1,1,2,2,3,3,4,4,5,5,6,6],"right_children":[2,4,6,8,10,12,14,-1,-1,-1,-1,-1,-1,-1,-1],"split_conditions":[4.1878375E-1,-8.883021E-1,2.1689496E0,-6.005821E-1,1.1468071E-1,3.784666E-1,2.3806362E0,-6.272096E-2,-6.7215614E-2,-2.7242366E-2,-6.030058E-3,5.143077E-2,1.0204253E-1,2.0405816E-1,4.6906257E-1],"split_indices":[198,198,198,10,76,25,30,0,0,0,0,0,0,0,0],"split_type":[0,0,0,0,0,0,0,0,0,0,0,0,0,0,0],"sum_hessian":[4.4211E4,2.5638E4,1.8573E4,1.9793E4,5.845E3,1.773E4,8.43E2,1.7088E4,2.705E3,3.166E3,2.679E3,1.263E4,5.1E3,7.92E2,5.1E1],"tree_param":{"num_deleted":"0","num_feature":"199","num_nodes":"15","size_leaf_vector":"1"}},{"base_weights":[9.63719E-5,-8.6606956E-1,8.1327593E-1,-1.0320024E0,-4.1021955E-1,6.909765E-1,2.7826684E0,-5.4773487E-2,-4.1849505E-2,-2.468017E-2,4.385895E-2,2.2207377E-2,6.88905E-2,1.0203358E-1,2.0703797E-1],"categories":[],"categories_nodes":[],"categories_segments":[],"categories_sizes":[],"default_left":[0,0,0,0,0,0,0,0,0,0,0,0,0,0,0],"id":8,"left_children":[1,3,5,7,9,11,13,-1,-1,-1,-1,-1,-1,-1,-1],"loss_changes":[3.1141357E4,1.6189639E3,5.49055E3,1.9333984E2,6.1392816E2,3.639544E3,1.3348135E3,0E0,0E0,0E0,0E0,0E0,0E0,0E0,0E0],"parents":[2147483647,0,0,1,1,2,2,3,3,4,4,5,5,6,6],"right_children":[2,4,6,8,10,12,14,-1,-1,-1,-1,-1,-1,-1,-1],"split_conditions":[-6.6702515E-1,-7.685601E-1,1E0,-6.6511905E-1,1E0,9.8798484E-1,8.287531E-1,-5.4773487E-2,-4.1849505E-2,-2.468017E-2,4.385895E-2,2.2207377E-2,6.88905E-2,1.0203358E-1,2.0703797E-1],"split_indices":[10,99,191,45,191,121,109,0,0,0,0,0,0,0,0],"split_type":[0,0,0,0,0,0,0,0,0,0,0,0,0,0,0],"sum_hessian":[4.4211E4,2.1408E4,2.2803E4,1.5694E4,5.714E3,2.1471E4,1.332E3,1.1837E4,3.857E3,5.367E3,3.47E2,1.5796E4,5.675E3,8.63E2,4.69E2],"tree_param":{"num_deleted":"0","num_feature":"199","num_nodes":"15","size_leaf_vector":"1"}},{"base_weights":[9.8863115E-5,-9.788168E-1,1.3513651E0,-1.168013E0,-3.3804914E-1,1.2127919E0,3.8732312E0,-5.7238985E-2,-6.535819E-2,-2.0077398E-2,1.3341251E-2,5.0461393E-2,1.0444373E-1,1.5686409E-1,2.8475684E-1],"categories":[],"categories_nodes":[],"categories_segments":[],"categories_sizes":[],"default_left":[0,0,0,0,0,0,0,0,0,0,0,0,0,0,0],"id":9,"left_children":[1,3,5,7,9,11,13,-1,-1,-1,-1,-1,-1,-1,-1],"loss_changes":[5.8483883E4,3.1078418E3,6.4862266E3,6.2496094E1,2.2464484E2,3.138086E3,1.2787158E3,0E0,0E0,0E0,0E0,0E0,0E0,0E0,0E0],"parents":[2147483647,0,0,1,1,2,2,3,3,4,4,5,5,6,6],"right_children":[2,4,6,8,10,12,14,-1,-1,-1,-1,-1,-1,-1,-1],"split_conditions":[4.1878375E-1,-8.883021E-1,1.5043296E0,-6.6702515E-1,1.4133348E0,8.560981E-1,6.1728233E-1,-5.7238985E-2,-6.535819E-2,-2.0077398E-2,1.3341251E-2,5.0461393E-2,1.0444373E-1,1.5686409E-1,2.8475684E-1],"split_indices":[198,198,198,10,25,25,25,0,0,0,0,0,0,0,0],"split_type":[0,0,0,0,0,0,0,0,0,0,0,0,0,0,0],"sum_hessian":[4.4211E4,2.5638E4,1.8573E4,1.9793E4,5.845E3,1.7607E4,9.66E2,1.6969E4,2.824E3,5.29E3,5.55E2,1.4289E4,3.318E3,6.9E2,2.76E2],"tree_param":{"num_deleted":"0","num_feature":"199","num_nodes":"15","size_leaf_vector":"1"}},{"base_weights":[1.04477804E-4,-7.6577294E-1,7.4800676E-1,-9.2974555E-1,-3.4547493E-1,6.3737583E-1,2.544905E0,-4.6590462E-2,2.3139969E-1,-2.1270758E-2,4.261188E-2,2.2878742E-2,7.187628E-2,1.13889575E-1,2.9695782E-1],"categories":[],"categories_nodes":[],"categories_segments":[],"categories_sizes":[],"default_left":[0,0,0,0,0,0,0,0,0,0,0,0,0,0,0],"id":10,"left_children":[1,3,5,7,9,11,13,-1,-1,-1,-1,-1,-1,-1,-1],"loss_changes":[2.532527E4,1.5051094E3,4.445167E3,1.8453418E2,5.874731E2,3.0310674E3,1.1623965E3,0E0,0E0,0E0,0E0,0E0,0E0,0E0,0E0],"parents":[2147483647,0,0,1,1,2,2,3,3,4,4,5,5,6,6],"right_children":[2,4,6,8,10,12,14,-1,-1,-1,-1,-1,-1,-1,-1],"split_conditions":[-6.005821E-1,-7.685601E-1,1E0,1.5823808E0,1E0,1.3643191E0,2.790224E0,-4.6590462E-2,2.3139969E-1,-2.1270758E-2,4.261188E-2,2.2878742E-2,7.187628E-2,1.13889575E-1,2.9695782E-1],"split_indices":[10,99,191,114,191,121,51,0,0,0,0,0,0,0,0],"split_type":[0,0,0,0,0,0,0,0,0,0,0,0,0,0,0],"sum_hessian":[4.4211E4,2.1843E4,2.2368E4,1.5712E4,6.131E3,2.1072E4,1.296E3,1.5707E4,5E0,5.748E3,3.83E2,1.7207E4,3.865E3,1.203E3,9.3E1],"tree_param":{"num_deleted":"0","num_feature":"199","num_nodes":"15","size_leaf_vector":"1"}},{"base_weights":[1.1537196E-4,-7.422375E-1,6.9705594E-1,-9.211375E-1,-4.3161657E-1,5.922263E-1,2.3851318E0,-4.6137746E-2,1.4464155E-1,-2.8080717E-2,6.1007547E-3,2.0963565E-2,6.77302E-2,6.8532005E-2,1.6043316E-1],"categories":[],"categories_nodes":[],"categories_segments":[],"categories_sizes":[],"default_left":[0,0,0,0,0,0,0,0,0,0,0,0,0,0,0],"id":11,"left_children":[1,3,5,7,9,11,13,-1,-1,-1,-1,-1,-1,-1,-1],"loss_changes":[2.287474E4,1.1893027E3,4.0339922E3,8.646484E1,5.633125E2,2.8306665E3,1.1092773E3,0E0,0E0,0E0,0E0,0E0,0E0,0E0,0E0],"parents":[2147483647,0,0,1,1,2,2,3,3,4,4,5,5,6,6],"right_children":[2,4,6,8,10,12,14,-1,-1,-1,-1,-1,-1,-1,-1],"split_conditions":[-6.6702515E-1,-8.296297E-1,1E0,4.119913E0,2.1721283E-1,1.3402978E0,-2.0183405E-1,-4.6137746E-2,1.4464155E-1,-2.8080717E-2,6.1007547E-3,2.0963565E-2,6.77302E-2,6.8532005E-2,1.6043316E-1],"split_indices":[10,121,191,25,80,121,23,0,0,0,0,0,0,0,0],"split_type":[0,0,0,0,0,0,0,0,0,0,0,0,0,0,0],"sum_hessian":[4.4211E4,2.1408E4,2.2803E4,1.3583E4,7.825E3,2.1471E4,1.332E3,1.3578E4,5E0,6.337E3,1.488E3,1.7502E4,3.969E3,5.98E2,7.34E2],"tree_param":{"num_deleted":"0","num_feature":"199","num_nodes":"15","size_leaf_vector":"1"}},{"base_weights":[1.1848908E-4,-6.7617685E-1,6.681133E-1,-8.3817995E-1,-2.5437447E-1,3.1409654E-1,1.1067361E0,-4.4276223E-2,-3.203037E-2,-1.9570382E-2,1.8088166E-2,3.189568E-3,2.9949972E-2,5.116972E-2,1.4960942E-1],"categories":[],"categories_nodes":[],"categories_segments":[],"categories_sizes":[],"default_left":[0,0,0,0,0,0,0,0,0,0,0,0,0,0,0],"id":12,"left_children":[1,3,5,7,9,11,13,-1,-1,-1,-1,-1,-1,-1,-1],"loss_changes":[1.9973744E4,1.5010684E3,3.45354E3,1.4790918E2,5.150038E2,8.778209E2,1.5579365E3,0E0,0E0,0E0,0E0,0E0,0E0,0E0,0E0],"parents":[2147483647,0,0,1,1,2,2,3,3,4,4,5,5,6,6],"right_children":[2,4,6,8,10,12,14,-1,-1,-1,-1,-1,-1,-1,-1],"split_conditions":[-5.234476E-1,-9.62417E-1,-1.7635454E-1,-1.0829929E0,1.0352399E-1,1.9799855E-1,3.6422818E0,-4.4276223E-2,-3.203037E-2,-1.9570382E-2,1.8088166E-2,3.189568E-3,2.9949972E-2,5.116972E-2,1.4960942E-1],"split_indices":[8,88,23,110,38,99,25,0,0,0,0,0,0,0,0],"split_type":[0,0,0,0,0,0,0,0,0,0,0,0,0,0,0],"sum_hessian":[4.4211E4,2.1969E4,2.2242E4,1.5872E4,6.097E3,1.2309E4,9.933E3,1.2801E4,3.071E3,4.988E3,1.109E3,6.553E3,5.756E3,9.514E3,4.19E2],"tree_param":{"num_deleted":"0","num_feature":"199","num_nodes":"15","size_leaf_vector":"1"}},{"base_weights":[1.1611889E-4,-8.5759246E-1,1.1972365E0,-1.0189077E0,-3.2214722E-1,1.0823646E0,3.5928848E0,-4.842276E-2,-6.608095E-2,-1.7316159E-2,5.3544518E-2,4.288658E-2,8.961838E-2,1.5556689E-1,3.131115E-1],"categories":[],"categories_nodes":[],"categories_segments":[],"categories_sizes":[],"default_left":[0,0,0,0,0,0,0,0,0,0,0,0,0,0,0],"id":13,"left_children":[1,3,5,7,9,11,13,-1,-1,-1,-1,-1,-1,-1,-1],"loss_changes":[4.5397043E4,2.2245312E3,5.074793E3,3.0102344E2,2.0126007E2,2.8074023E3,1.0654072E3,0E0,0E0,0E0,0E0,0E0,0E0,0E0,0E0],"parents":[2147483647,0,0,1,1,2,2,3,3,4,4,5,5,6,6],"right_children":[2,4,6,8,10,12,14,-1,-1,-1,-1,-1,-1,-1,-1],"split_conditions":[4.4093776E-1,-8.883021E-1,2.1689496E0,-6.6702515E-1,3.4235291E0,2.754781E-1,1.1728531E0,-4.842276E-2,-6.608095E-2,-1.7316159E-2,5.3544518E-2,4.288658E-2,8.961838E-2,1.5556689E-1,3.131115E-1],"split_indices":[198,198,198,10,47,76,75,0,0,0,0,0,0,0,0],"split_type":[0,0,0,0,0,0,0,0,0,0,0,0,0,0,0],"sum_hessian":[4.4211E4,2.5757E4,1.8454E4,1.9793E4,5.964E3,1.7611E4,8.43E2,1.6969E4,2.824E3,5.863E3,1.01E2,1.338E4,4.231E3,7.16E2,1.27E2],"tree_param":{"num_deleted":"0","num_feature":"199","num_nodes":"15","size_leaf_vector":"1"}},{"base_weights":[1.22153E-4,-6.194771E-1,6.135025E-1,-7.180537E-1,-1.4441963E-1,5.188397E-1,2.1590106E0,-3.9636444E-2,-2.6397139E-2,-1.208654E-2,6.038892E-2,8.590723E-3,4.0682137E-2,9.569143E-2,2.6186675E-1],"categories":[],"categories_nodes":[],"categories_segments":[],"categories_sizes":[],"default_left":[0,0,0,0,0,0,0,0,0,0,0,0,0,0,0],"id":14,"left_children":[1,3,5,7,9,11,13,-1,-1,-1,-1,-1,-1,-1,-1],"loss_changes":[1.6803152E4,1.0299121E3,3.249419E3,2.5817188E2,4.9781097E2,2.1418013E3,9.575659E2,0E0,0E0,0E0,0E0,0E0,0E0,0E0,0E0],"parents":[2147483647,0,0,1,1,2,2,3,3,4,4,5,5,6,6],"right_children":[2,4,6,8,10,12,14,-1,-1,-1,-1,-1,-1,-1,-1],"split_conditions":[-5.7843447E-1,-5.3902316E-1,1E0,-7.825582E-1,1E0,-2.3729269E-1,2.790224E0,-3.9636444E-2,-2.6397139E-2,-1.208654E-2,6.038892E-2,8.590723E-3,4.0682137E-2,9.569143E-2,2.6186675E-1],"split_indices":[10,101,191,109,191,17,51,0,0,0,0,0,0,0,0],"split_type":[0,0,0,0,0,0,0,0,0,0,0,0,0,0,0],"sum_hessian":[4.4211E4,2.1994E4,2.2217E4,1.8214E4,3.78E3,2.0936E4,1.281E3,1.3075E4,5.139E3,3.527E3,2.53E2,9.617E3,1.1319E4,1.188E3,9.3E1],"tree_param":{"num_deleted":"0","num_feature":"199","num_nodes":"15","size_leaf_vector":"1"}},{"base_weights":[1.2486693E-4,-5.691112E-1,5.821987E-1,-6.9732845E-1,-1.3927183E-1,4.9135822E-1,2.046003E0,-3.7860733E-2,-2.6178015E-2,-1.1159811E-2,5.8187913E-2,1.2824917E-2,4.710931E-2,8.222036E-2,1.9144978E-1],"categories":[],"categories_nodes":[],"categories_segments":[],"categories_sizes":[],"default_left":[0,0,0,0,0,0,0,0,0,0,0,0,0,0,0],"id":15,"left_children":[1,3,5,7,9,11,13,-1,-1,-1,-1,-1,-1,-1,-1],"loss_changes":[1.4649421E4,1.2318398E3,2.9057783E3,1.7876953E2,5.620216E2,2.1792212E3,9.0808984E2,0E0,0E0,0E0,0E0,0E0,0E0,0E0,0E0],"parents":[2147483647,0,0,1,1,2,2,3,3,4,4,5,5,6,6],"right_children":[2,4,6,8,10,12,14,-1,-1,-1,-1,-1,-1,-1,-1],"split_conditions":[-4.9494994E-1,-5.360187E-1,1E0,-1.0829929E0,1E0,2.9886135E-1,2.172984E0,-3.7860733E-2,-2.6178015E-2,-1.1159811E-2,5.8187913E-2,1.2824917E-2,4.710931E-2,8.222036E-2,1.9144978E-1],"split_indices":[8,109,191,110,191,25,50,0,0,0,0,0,0,0,0],"split_type":[0,0,0,0,0,0,0,0,0,0,0,0,0,0,0],"sum_hessian":[4.4211E4,2.2352E4,2.1859E4,1.7216E4,5.136E3,2.0583E4,1.276E3,1.2801E4,4.415E3,4.826E3,3.1E2,1.3534E4,7.049E3,1.043E3,2.33E2],"tree_param":{"num_deleted":"0","num_feature":"199","num_nodes":"15","size_leaf_vector":"1"}},{"base_weights":[1.2576005E-4,-7.6975995E-1,1.0991775E0,-9.1764444E-1,-2.9803523E-1,9.962348E-1,3.2164938E0,-4.270998E-2,-6.4921886E-2,-1.5493928E-2,1.1178422E-1,3.5655364E-2,7.515739E-2,1.460626E-1,3.8285407E-1],"categories":[],"categories_nodes":[],"categories_segments":[],"categories_sizes":[],"default_left":[0,0,0,0,0,0,0,0,0,0,0,0,0,0,0],"id":16,"left_children":[1,3,5,7,9,11,13,-1,-1,-1,-1,-1,-1,-1,-1],"loss_changes":[3.741057E4,1.8135078E3,3.966543E3,4.770996E2,1.8695026E2,2.4918867E3,1.0841572E3,0E0,0E0,0E0,0E0,0E0,0E0,0E0,0E0],"parents":[2147483647,0,0,1,1,2,2,3,3,4,4,5,5,6,6],"right_children":[2,4,6,8,10,12,14,-1,-1,-1,-1,-1,-1,-1,-1],"split_conditions":[4.8524573E-1,-8.883021E-1,2.1689496E0,-6.6702515E-1,5.234387E0,1.9860843E-1,2.3806362E0,-4.270998E-2,-6.4921886E-2,-1.5493928E-2,1.1178422E-1,3.5655364E-2,7.515739E-2,1.460626E-1,3.8285407E-1],"split_indices":[198,198,198,10,25,77,30,0,0,0,0,0,0,0,0],"split_type":[0,0,0,0,0,0,0,0,0,0,0,0,0,0,0],"sum_hessian":[4.4211E4,2.5999E4,1.8212E4,1.9793E4,6.206E3,1.7369E4,8.43E2,1.6969E4,2.824E3,6.178E3,2.8E1,1.1146E4,6.223E3,7.92E2,5.1E1],"tree_param":{"num_deleted":"0","num_feature":"199","num_nodes":"15","size_leaf_vector":"1"}},{"base_weights":[1.3371016E-4,-7.312724E-1,1.0442537E0,-8.7176764E-1,-2.83118E-1,9.4346005E-1,2.9981213E0,-4.0574607E-2,-6.1676946E-2,-1.4699981E-2,1.0643587E-1,3.716675E-2,7.914378E-2,9.47249E-2,2.0377603E-1],"categories":[],"categories_nodes":[],"categories_segments":[],"categories_sizes":[],"default_left":[0,0,0,0,0,0,0,0,0,0,0,0,0,0,0],"id":17,"left_children":[1,3,5,7,9,11,13,-1,-1,-1,-1,-1,-1,-1,-1],"loss_changes":[3.3764395E4,1.6368057E3,3.583996E3,4.3062695E2,1.6352618E2,2.2152725E3,1.0540947E3,0E0,0E0,0E0,0E0,0E0,0E0,0E0,0E0],"parents":[2147483647,0,0,1,1,2,2,3,3,4,4,5,5,6,6],"right_children":[2,4,6,8,10,12,14,-1,-1,-1,-1,-1,-1,-1,-1],"split_conditions":[4.8524573E-1,-8.883021E-1,1.9031016E0,-6.6702515E-1,5.1487813E0,2.754781E-1,1.10052615E-1,-4.0574607E-2,-6.1676946E-2,-1.4699981E-2,1.0643587E-1,3.716675E-2,7.914378E-2,9.47249E-2,2.0377603E-1],"split_indices":[198,198,198,10,47,76,30,0,0,0,0,0,0,0,0],"split_type":[0,0,0,0,0,0,0,0,0,0,0,0,0,0,0],"sum_hessian":[4.4211E4,2.5999E4,1.8212E4,1.9793E4,6.206E3,1.732E4,8.92E2,1.6969E4,2.824E3,6.179E3,2.7E1,1.3193E4,4.127E3,4.42E2,4.5E2],"tree_param":{"num_deleted":"0","num_feature":"199","num_nodes":"15","size_leaf_vector":"1"}},{"base_weights":[1.3613963E-4,-5.151578E-1,4.8390776E-1,-5.662699E-1,8.1172414E-2,2.143911E-1,8.593531E-1,-3.227532E-2,-2.1192575E-2,-2.323361E-3,8.543481E-2,4.7971117E-3,2.931272E-2,3.729282E-2,1.2212517E-1],"categories":[],"categories_nodes":[],"categories_segments":[],"categories_sizes":[],"default_left":[0,0,0,0,1,0,0,0,0,0,0,0,0,0,0],"id":18,"left_children":[1,3,5,7,9,11,13,-1,-1,-1,-1,-1,-1,-1,-1],"loss_changes":[1.1021618E4,6.5258545E2,2.3073247E3,2.2225E2,3.5136185E2,5.847089E2,1.7103716E3,0E0,0E0,0E0,0E0,0E0,0E0,0E0,0E0],"parents":[2147483647,0,0,1,1,2,2,3,3,4,4,5,5,6,6],"right_children":[2,4,6,8,10,12,14,-1,-1,-1,-1,-1,-1,-1,-1],"split_conditions":[-6.6702515E-1,1.8505609E-1,5.227017E-1,-1.0829929E0,2.0792894E0,2.9886135E-1,1E0,-3.227532E-2,-2.1192575E-2,-2.323361E-3,8.543481E-2,4.7971117E-3,2.931272E-2,3.729282E-2,1.2212517E-1],"split_indices":[10,80,80,110,40,25,191,0,0,0,0,0,0,0,0],"split_type":[0,0,0,0,0,0,0,0,0,0,0,0,0,0,0],"sum_hessian":[4.4211E4,2.1408E4,2.2803E4,1.9718E4,1.69E3,1.3275E4,9.528E3,1.2667E4,7.051E3,1.568E3,1.22E2,1.0069E4,3.206E3,8.892E3,6.36E2],"tree_param":{"num_deleted":"0","num_feature":"199","num_nodes":"15","size_leaf_vector":"1"}},{"base_weights":[1.3438542E-4,-6.792971E-1,9.7005796E-1,-8.06936E-1,-2.7214947E-1,8.813944E-1,2.898829E0,-3.7155896E-2,-5.9500556E-2,-7.129457E-3,-2.4654267E-2,3.4904342E-2,7.6254696E-2,1.2440608E-1,2.9423824E-1],"categories":[],"categories_nodes":[],"categories_segments":[],"categories_sizes":[],"default_left":[0,0,0,0,0,0,0,0,0,0,0,0,0,0,0],"id":19,"left_children":[1,3,5,7,9,11,13,-1,-1,-1,-1,-1,-1,-1,-1],"loss_changes":[2.9136217E4,1.3509473E3,3.1120781E3,4.8302246E2,1.7760211E2,2.0537012E3,9.664346E2,0E0,0E0,0E0,0E0,0E0,0E0,0E0,0E0],"parents":[2147483647,0,0,1,1,2,2,3,3,4,4,5,5,6,6],"right_children":[2,4,6,8,10,12,14,-1,-1,-1,-1,-1,-1,-1,-1],"split_conditions":[4.8524573E-1,-8.883021E-1,2.4126434E0,-6.6702515E-1,-2.8299648E-1,3.2715032E-1,1.7967718E0,-3.7155896E-2,-5.9500556E-2,-7.129457E-3,-2.4654267E-2,3.4904342E-2,7.6254696E-2,1.2440608E-1,2.9423824E-1],"split_indices":[198,198,198,10,9,76,30,0,0,0,0,0,0,0,0],"split_type":[0,0,0,0,0,0,0,0,0,0,0,0,0,0,0],"sum_hessian":[4.4211E4,2.5999E4,1.8212E4,1.9793E4,6.206E3,1.7413E4,7.99E2,1.6969E4,2.824E3,3.913E3,2.293E3,1.3555E4,3.858E3,7.04E2,9.5E1],"tree_param":{"num_deleted":"0","num_feature":"199","num_nodes":"15","size_leaf_vector":"1"}},{"base_weights":[1.3678902E-4,-6.5635544E-1,9.0633917E-1,-7.665941E-1,-2.8298536E-1,8.2311195E-1,2.754411E0,-3.3597067E-2,-4.9863227E-2,-7.74106E-3,-2.5739446E-2,3.3584863E-2,7.68163E-2,5.0604246E-3,1.5908515E-1],"categories":[],"categories_nodes":[],"categories_segments":[],"categories_sizes":[],"default_left":[0,0,0,0,0,0,0,0,0,0,0,0,0,0,0],"id":20,"left_children":[1,3,5,7,9,11,13,-1,-1,-1,-1,-1,-1,-1,-1],"loss_changes":[2.6302969E4,1.0550801E3,2.8545967E3,4.315039E2,1.7359854E2,1.9185098E3,9.066323E2,0E0,0E0,0E0,0E0,0E0,0E0,0E0,0E0],"parents":[2147483647,0,0,1,1,2,2,3,3,4,4,5,5,6,6],"right_children":[2,4,6,8,10,12,14,-1,-1,-1,-1,-1,-1,-1,-1],"split_conditions":[4.1878375E-1,-8.883021E-1,2.4126434E0,-7.685601E-1,-2.8299648E-1,-5.0728768E-2,-1.1041733E0,-3.3597067E-2,-4.9863227E-2,-7.74106E-3,-2.5739446E-2,3.3584863E-2,7.68163E-2,5.0604246E-3,1.5908515E-1],"split_indices":[198,198,198,99,9,67,126,0,0,0,0,0,0,0,0],"split_type":[0,0,0,0,0,0,0,0,0,0,0,0,0,0,0],"sum_hessian":[4.4211E4,2.5638E4,1.8573E4,1.9793E4,5.845E3,1.7774E4,7.99E2,1.4037E4,5.756E3,3.765E3,2.08E3,1.4663E4,3.111E3,1.11E2,6.88E2],"tree_param":{"num_deleted":"0","num_feature":"199","num_nodes":"15","size_leaf_vector":"1"}},{"base_weights":[1.3351857E-4,-6.135706E-1,8.7622786E-1,-7.282686E-1,-2.4770184E-1,7.875391E-1,2.4571362E0,-3.3475682E-2,-5.4047834E-2,-7.98786E-3,-2.6574804E-2,3.2539155E-2,7.612475E-2,9.594052E-2,2.0723712E-1],"categories":[],"categories_nodes":[],"categories_segments":[],"categories_sizes":[],"default_left":[0,0,0,0,0,0,0,0,0,0,0,0,0,0,0],"id":21,"left_children":[1,3,5,7,9,11,13,-1,-1,-1,-1,-1,-1,-1,-1],"loss_changes":[2.377168E4,1.0908945E3,2.5516875E3,4.0945117E2,1.548305E2,1.7325E3,8.705488E2,0E0,0E0,0E0,0E0,0E0,0E0,0E0,0E0],"parents":[2147483647,0,0,1,1,2,2,3,3,4,4,5,5,6,6],"right_children":[2,4,6,8,10,12,14,-1,-1,-1,-1,-1,-1,-1,-1],"split_conditions":[4.8524573E-1,-8.883021E-1,1.5043296E0,-6.6702515E-1,1E0,6.5028554E-1,3.4430828E-2,-3.3475682E-2,-5.4047834E-2,-7.98786E-3,-2.6574804E-2,3.2539155E-2,7.612475E-2,9.594052E-2,2.0723712E-1],"split_indices":[198,198,198,10,128,77,72,0,0,0,0,0,0,0,0],"split_type":[0,0,0,0,0,0,0,0,0,0,0,0,0,0,0],"sum_hessian":[4.4211E4,2.5999E4,1.8212E4,1.9793E4,6.206E3,1.7246E4,9.66E2,1.6969E4,2.824E3,4.739E3,1.467E3,1.4542E4,2.704E3,7.34E2,2.32E2],"tree_param":{"num_deleted":"0","num_feature":"199","num_nodes":"15","size_leaf_vector":"1"}},{"base_weights":[1.3341475E-4,-5.828967E-1,8.324391E-1,-6.918596E-1,-2.353223E-1,7.5594014E-1,2.4965897E0,-3.186965E-2,-5.177865E-2,-1.2310713E-2,1.046765E-1,2.390389E-2,5.6266546E-2,1.02940656E-1,2.4800833E-1],"categories":[],"categories_nodes":[],"categories_segments":[],"categories_sizes":[],"default_left":[0,0,0,0,0,0,0,0,0,0,0,0,0,0,0],"id":22,"left_children":[1,3,5,7,9,11,13,-1,-1,-1,-1,-1,-1,-1,-1],"loss_changes":[2.145477E4,9.845283E2,2.3167344E3,3.6990137E2,1.5796072E2,1.7868301E3,8.525845E2,0E0,0E0,0E0,0E0,0E0,0E0,0E0,0E0],"parents":[2147483647,0,0,1,1,2,2,3,3,4,4,5,5,6,6],"right_children":[2,4,6,8,10,12,14,-1,-1,-1,-1,-1,-1,-1,-1],"split_conditions":[4.8524573E-1,-8.883021E-1,2.4126434E0,-6.005821E-1,5.234387E0,6.0045596E-2,1.1728531E0,-3.186965E-2,-5.177865E-2,-1.2310713E-2,1.046765E-1,2.390389E-2,5.6266546E-2,1.02940656E-1,2.4800833E-1],"split_indices":[198,198,198,10,25,25,75,0,0,0,0,0,0,0,0],"split_type":[0,0,0,0,0,0,0,0,0,0,0,0,0,0,0],"sum_hessian":[4.4211E4,2.5999E4,1.8212E4,1.9793E4,6.206E3,1.7413E4,7.99E2,1.7088E4,2.705E3,6.178E3,2.8E1,9.939E3,7.474E3,6.8E2,1.19E2],"tree_param":{"num_deleted":"0","num_feature":"199","num_nodes":"15","size_leaf_vector":"1"}},{"base_weights":[1.3670891E-4,-5.632067E-1,7.7775925E-1,-6.5727085E-1,-2.4461798E-1,6.9826025E-1,2.224544E0,-2.8738553E-2,-4.3381777E-2,-8.363711E-3,-3.0219827E-2,2.9964088E-2,7.991289E-2,9.976444E-2,2.9592037E-1],"categories":[],"categories_nodes":[],"categories_segments":[],"categories_sizes":[],"default_left":[0,0,0,0,0,0,0,0,0,0,0,0,0,0,0],"id":23,"left_children":[1,3,5,7,9,11,13,-1,-1,-1,-1,-1,-1,-1,-1],"loss_changes":[1.9368324E4,7.681826E2,2.13479E3,3.4302734E2,1.625734E2,1.5675703E3,8.070835E2,0E0,0E0,0E0,0E0,0E0,0E0,0E0,0E0],"parents":[2147483647,0,0,1,1,2,2,3,3,4,4,5,5,6,6],"right_children":[2,4,6,8,10,12,14,-1,-1,-1,-1,-1,-1,-1,-1],"split_conditions":[4.1878375E-1,-8.883021E-1,1.5043296E0,-7.5600743E-1,1.0604935E0,8.417798E-1,2.44551E0,-2.8738553E-2,-4.3381777E-2,-8.363711E-3,-3.0219827E-2,2.9964088E-2,7.991289E-2,9.976444E-2,2.9592037E-1],"split_indices":[198,198,198,99,10,77,30,0,0,0,0,0,0,0,0],"split_type":[0,0,0,0,0,0,0,0,0,0,0,0,0,0,0],"sum_hessian":[4.4211E4,2.5638E4,1.8573E4,1.9793E4,5.845E3,1.7607E4,9.66E2,1.422E4,5.573E3,4.812E3,1.033E3,1.5864E4,1.743E3,9.11E2,5.5E1],"tree_param":{"num_deleted":"0","num_feature":"199","num_nodes":"15","size_leaf_vector":"1"}},{"base_weights":[1.3885244E-4,-5.264736E-1,7.519053E-1,-6.24411E-1,-2.1406838E-1,6.011579E-1,1.457353E0,-2.8650273E-2,-4.664936E-2,8.7381306E-4,-1.5676338E-2,2.7362067E-2,9.14376E-2,6.631292E-2,1.9889633E-1],"categories":[],"categories_nodes":[],"categories_segments":[],"categories_sizes":[],"default_left":[0,0,0,0,0,0,0,0,0,0,0,0,0,0,0],"id":24,"left_children":[1,3,5,7,9,11,13,-1,-1,-1,-1,-1,-1,-1,-1],"loss_changes":[1.7503467E4,7.953667E2,1.9359746E3,3.1344775E2,1.4294681E2,9.923447E2,1.0540952E3,0E0,0E0,0E0,0E0,0E0,0E0,0E0,0E0],"parents":[2147483647,0,0,1,1,2,2,3,3,4,4,5,5,6,6],"right_children":[2,4,6,8,10,12,14,-1,-1,-1,-1,-1,-1,-1,-1],"split_conditions":[4.8524573E-1,-8.883021E-1,-5.0728768E-2,-6.6702515E-1,-6.83538E-1,2.4126434E0,2.5898755E0,-2.8650273E-2,-4.664936E-2,8.7381306E-4,-1.5676338E-2,2.7362067E-2,9.14376E-2,6.631292E-2,1.9889633E-1],"split_indices":[198,198,67,10,97,198,198,0,0,0,0,0,0,0,0],"split_type":[0,0,0,0,0,0,0,0,0,0,0,0,0,0,0],"sum_hessian":[4.4211E4,2.5999E4,1.8212E4,1.9793E4,6.206E3,1.5007E4,3.205E3,1.6969E4,2.824E3,1.865E3,4.341E3,1.4377E4,6.3E2,3.048E3,1.57E2],"tree_param":{"num_deleted":"0","num_feature":"199","num_nodes":"15","size_leaf_vector":"1"}},{"base_weights":[1.3853988E-4,-5.0015336E-1,7.143311E-1,-5.931942E-1,-2.0336734E-1,5.6124085E-1,1.3652995E0,-2.577198E-2,-3.913449E-2,-1.06854355E-2,1.0035346E-1,2.0847728E-2,5.292513E-2,6.088977E-2,1.8654965E-1],"categories":[],"categories_nodes":[],"categories_segments":[],"categories_sizes":[],"default_left":[0,0,0,0,0,0,0,0,0,0,0,0,0,0,0],"id":25,"left_children":[1,3,5,7,9,11,13,-1,-1,-1,-1,-1,-1,-1,-1],"loss_changes":[1.5797515E4,7.178237E2,1.8142842E3,2.9124414E2,1.423143E2,1.0576274E3,1.2052651E3,0E0,0E0,0E0,0E0,0E0,0E0,0E0,0E0],"parents":[2147483647,0,0,1,1,2,2,3,3,4,4,5,5,6,6],"right_children":[2,4,6,8,10,12,14,-1,-1,-1,-1,-1,-1,-1,-1],"split_conditions":[4.8524573E-1,-8.883021E-1,8.560981E-1,-7.685601E-1,5.234387E0,7.356701E-1,1.8587935E0,-2.577198E-2,-3.913449E-2,-1.06854355E-2,1.0035346E-1,2.0847728E-2,5.292513E-2,6.088977E-2,1.8654965E-1],"split_indices":[198,198,25,99,25,126,198,0,0,0,0,0,0,0,0],"split_type":[0,0,0,0,0,0,0,0,0,0,0,0,0,0,0],"sum_hessian":[4.4211E4,2.5999E4,1.8212E4,1.9793E4,6.206E3,1.4746E4,3.466E3,1.4037E4,5.756E3,6.178E3,2.8E1,1.1431E4,3.315E3,3.264E3,2.02E2],"tree_param":{"num_deleted":"0","num_feature":"199","num_nodes":"15","size_leaf_vector":"1"}},{"base_weights":[1.3942576E-4,-4.8332438E-1,6.674985E-1,-5.635378E-1,-2.116467E-1,5.9687084E-1,1.9528601E0,-2.5866318E-2,-4.2758256E-2,-6.114452E-3,-2.4846973E-2,1.788236E-2,4.5735106E-2,9.547319E-2,1.0968446E0],"categories":[],"categories_nodes":[],"categories_segments":[],"categories_sizes":[],"default_left":[0,0,0,0,0,0,0,0,0,0,0,0,0,0,0],"id":26,"left_children":[1,3,5,7,9,11,13,-1,-1,-1,-1,-1,-1,-1,-1],"loss_changes":[1.4265058E4,5.5861084E2,1.6850215E3,2.66312E2,1.4897186E2,1.338457E3,7.9672876E2,0E0,0E0,0E0,0E0,0E0,0E0,0E0,0E0],"parents":[2147483647,0,0,1,1,2,2,3,3,4,4,5,5,6,6],"right_children":[2,4,6,8,10,12,14,-1,-1,-1,-1,-1,-1,-1,-1],"split_conditions":[4.1878375E-1,-8.883021E-1,1.5043296E0,-6.005821E-1,1E0,6.0045596E-2,7.064983E0,-2.5866318E-2,-4.2758256E-2,-6.114452E-3,-2.4846973E-2,1.788236E-2,4.5735106E-2,9.547319E-2,1.0968446E0],"split_indices":[198,198,198,10,128,25,198,0,0,0,0,0,0,0,0],"split_type":[0,0,0,0,0,0,0,0,0,0,0,0,0,0,0],"sum_hessian":[4.4211E4,2.5638E4,1.8573E4,1.9793E4,5.845E3,1.7607E4,9.66E2,1.7088E4,2.705E3,4.452E3,1.393E3,1.0047E4,7.56E3,9.65E2,1E0],"tree_param":{"num_deleted":"0","num_feature":"199","num_nodes":"15","size_leaf_vector":"1"}},{"base_weights":[1.5862043E-4,-4.517547E-1,6.452883E-1,-5.3536433E-1,-1.8505241E-1,4.3644658E-1,1.0767155E0,-2.3229236E-2,-3.5614695E-2,-4.793243E-3,-2.1823743E-2,1.5112034E-2,4.005813E-2,4.851935E-2,1.4044659E-1],"categories":[],"categories_nodes":[],"categories_segments":[],"categories_sizes":[],"default_left":[0,0,0,0,0,0,0,0,0,0,0,0,0,0,0],"id":27,"left_children":[1,3,5,7,9,11,13,-1,-1,-1,-1,-1,-1,-1,-1],"loss_changes":[1.2889976E4,5.796719E2,1.640521E3,2.475498E2,1.391424E2,6.0053394E2,1.0913271E3,0E0,0E0,0E0,0E0,0E0,0E0,0E0,0E0],"parents":[2147483647,0,0,1,1,2,2,3,3,4,4,5,5,6,6],"right_children":[2,4,6,8,10,12,14,-1,-1,-1,-1,-1,-1,-1,-1],"split_conditions":[4.8524573E-1,-8.883021E-1,-7.5484954E-2,-9.62417E-1,5.2231705E-1,5.671863E-1,1.9031016E0,-2.3229236E-2,-3.5614695E-2,-4.793243E-3,-2.1823743E-2,1.5112034E-2,4.005813E-2,4.851935E-2,1.4044659E-1],"split_indices":[198,198,67,88,88,126,198,0,0,0,0,0,0,0,0],"split_type":[0,0,0,0,0,0,0,0,0,0,0,0,0,0,0],"sum_hessian":[4.4211E4,2.5999E4,1.8212E4,1.9793E4,6.206E3,1.2273E4,5.939E3,1.414E4,5.653E3,4.582E3,1.624E3,8.973E3,3.3E3,5.597E3,3.42E2],"tree_param":{"num_deleted":"0","num_feature":"199","num_nodes":"15","size_leaf_vector":"1"}},{"base_weights":[1.5430333E-4,-4.1684964E-1,6.3171977E-1,-5.0464016E-1,-1.3909921E-1,4.5779756E-1,1.2024677E0,-2.307598E-2,-3.8407203E-2,3.0137028E-3,-1.3658861E-2,1.6940948E-2,5.477142E-2,5.4277558E-2,1.5323918E-1],"categories":[],"categories_nodes":[],"categories_segments":[],"categories_sizes":[],"default_left":[0,0,0,0,0,0,0,0,0,0,0,0,0,0,0],"id":28,"left_children":[1,3,5,7,9,11,13,-1,-1,-1,-1,-1,-1,-1,-1],"loss_changes":[1.1644169E4,6.492715E2,1.7448389E3,2.2955322E2,1.7101831E2,1.02212964E3,8.906958E2,0E0,0E0,0E0,0E0,0E0,0E0,0E0,0E0],"parents":[2147483647,0,0,1,1,2,2,3,3,4,4,5,5,6,6],"right_children":[2,4,6,8,10,12,14,-1,-1,-1,-1,-1,-1,-1,-1],"split_conditions":[5.9601575E-1,-8.6614805E-1,2.754781E-1,-6.005821E-1,-6.2272984E-1,9.715475E-1,1.9031016E0,-2.307598E-2,-3.8407203E-2,3.0137028E-3,-1.3658861E-2,1.6940948E-2,5.477142E-2,5.4277558E-2,1.5323918E-1],"split_indices":[198,198,76,10,10,126,198,0,0,0,0,0,0,0,0],"split_type":[0,0,0,0,0,0,0,0,0,0,0,0,0,0,0],"sum_hessian":[4.4211E4,2.6629E4,1.7582E4,2.0233E4,6.396E3,1.3477E4,4.105E3,1.739E4,2.843E3,2.572E3,3.824E3,1.1359E4,2.118E3,3.864E3,2.41E2],"tree_param":{"num_deleted":"0","num_feature":"199","num_nodes":"15","size_leaf_vector":"1"}},{"base_weights":[1.5128932E-4,-4.151997E-1,5.734895E-1,-4.8342916E-1,-1.8411018E-1,4.7517785E-1,1.3888743E0,-2.0861378E-2,-3.2238636E-2,-4.977887E-3,-2.2703638E-2,2.0963583E-2,7.500894E-2,6.841481E-2,1.0620813E0],"categories":[],"categories_nodes":[],"categories_segments":[],"categories_sizes":[],"default_left":[0,0,0,0,0,0,0,0,0,0,0,0,0,0,0],"id":29,"left_children":[1,3,5,7,9,11,13,-1,-1,-1,-1,-1,-1,-1,-1],"loss_changes":[1.0528732E4,4.0416406E2,1.4882661E3,2.1115479E2,1.3339555E2,9.4929736E2,7.871802E2,0E0,0E0,0E0,0E0,0E0,0E0,0E0,0E0],"parents":[2147483647,0,0,1,1,2,2,3,3,4,4,5,5,6,6],"right_children":[2,4,6,8,10,12,14,-1,-1,-1,-1,-1,-1,-1,-1],"split_conditions":[4.1878375E-1,-8.883021E-1,-2.9707124E-2,-7.685601E-1,1E0,1.2827896E0,3.6089592E0,-2.0861378E-2,-3.2238636E-2,-4.977887E-3,-2.2703638E-2,2.0963583E-2,7.500894E-2,6.841481E-2,1.0620813E0],"split_indices":[198,198,67,99,128,198,198,0,0,0,0,0,0,0,0],"split_type":[0,0,0,0,0,0,0,0,0,0,0,0,0,0,0],"sum_hessian":[4.4211E4,2.5638E4,1.8573E4,1.9793E4,5.845E3,1.6576E4,1.997E3,1.4037E4,5.756E3,4.452E3,1.393E3,1.572E4,8.56E2,1.996E3,1E0],"tree_param":{"num_deleted":"0","num_feature":"199","num_nodes":"15","size_leaf_vector":"1"}},{"base_weights":[1.6962324E-4,-3.7707645E-1,5.715205E-1,-4.5926037E-1,-1.3908817E-1,3.5474455E-1,9.722457E-1,-1.9945137E-2,-3.0960819E-2,-6.2157476E-4,-1.6429154E-2,1.543562E-2,6.889899E-2,4.460477E-2,1.3309857E-1],"categories":[],"categories_nodes":[],"categories_segments":[],"categories_sizes":[],"default_left":[0,0,0,0,0,0,0,0,0,0,0,0,0,0,0],"id":30,"left_children":[1,3,5,7,9,11,13,-1,-1,-1,-1,-1,-1,-1,-1],"loss_changes":[9.529665E3,5.2078735E2,1.5270479E3,1.9085498E2,1.6408934E2,5.370995E2,8.335112E2,0E0,0E0,0E0,0E0,0E0,0E0,0E0,0E0],"parents":[2147483647,0,0,1,1,2,2,3,3,4,4,5,5,6,6],"right_children":[2,4,6,8,10,12,14,-1,-1,-1,-1,-1,-1,-1,-1],"split_conditions":[5.9601575E-1,-8.883021E-1,1.9860843E-1,-7.434547E-1,-2.9644892E-1,2.6784914E0,2.4126434E0,-1.9945137E-2,-3.0960819E-2,-6.2157476E-4,-1.6429154E-2,1.543562E-2,6.889899E-2,4.460477E-2,1.3309857E-1],"split_indices":[198,198,77,99,9,198,198,0,0,0,0,0,0,0,0],"split_type":[0,0,0,0,0,0,0,0,0,0,0,0,0,0,0],"sum_hessian":[4.4211E4,2.6629E4,1.7582E4,1.9793E4,6.836E3,1.1411E4,6.171E3,1.4373E4,5.42E3,4.098E3,2.738E3,1.0921E4,4.9E2,5.893E3,2.78E2],"tree_param":{"num_deleted":"0","num_feature":"199","num_nodes":"15","size_leaf_vector":"1"}},{"base_weights":[1.6551456E-4,-3.7525934E-1,5.183909E-1,-4.3629992E-1,-1.6851756E-1,4.2640594E-1,1.2813119E0,-1.9918358E-2,-3.3784628E-2,2.3960473E-3,-1.3295265E-2,1.4144209E-2,4.008616E-2,6.306392E-2,1.0322018E0],"categories":[],"categories_nodes":[],"categories_segments":[],"categories_sizes":[],"default_left":[0,0,0,0,0,0,0,0,0,0,0,0,0,0,0],"id":31,"left_children":[1,3,5,7,9,11,13,-1,-1,-1,-1,-1,-1,-1,-1],"loss_changes":[8.601847E3,3.2348145E2,1.3029263E3,1.7947656E2,1.2323741E2,8.927134E2,7.4898975E2,0E0,0E0,0E0,0E0,0E0,0E0,0E0,0E0],"parents":[2147483647,0,0,1,1,2,2,3,3,4,4,5,5,6,6],"right_children":[2,4,6,8,10,12,14,-1,-1,-1,-1,-1,-1,-1,-1],"split_conditions":[4.1878375E-1,-8.883021E-1,-2.9707124E-2,-6.005821E-1,-6.83538E-1,5.671863E-1,3.6089592E0,-1.9918358E-2,-3.3784628E-2,2.3960473E-3,-1.3295265E-2,1.4144209E-2,4.008616E-2,6.306392E-2,1.0322018E0],"split_indices":[198,198,67,10,97,126,198,0,0,0,0,0,0,0,0],"split_type":[0,0,0,0,0,0,0,0,0,0,0,0,0,0,0],"sum_hessian":[4.4211E4,2.5638E4,1.8573E4,1.9793E4,5.845E3,1.6576E4,1.997E3,1.7088E4,2.705E3,1.814E3,4.031E3,1.1992E4,4.584E3,1.996E3,1E0],"tree_param":{"num_deleted":"0","num_feature":"199","num_nodes":"15","size_leaf_vector":"1"}},{"base_weights":[1.8176278E-4,-1.5203851E-1,4.1011608E-1,-2.4274844E-1,3.6791027E-2,3.5889018E-1,1.9304738E0,-1.5194029E-2,-7.8030825E-3,-3.1720747E-3,1.4805237E-2,1.566597E-2,5.91918E-2,2.379241E-1,8.7013796E-2],"categories":[],"categories_nodes":[],"categories_segments":[],"categories_sizes":[],"default_left":[0,0,0,0,0,1,0,0,0,0,0,0,0,0,0],"id":32,"left_children":[1,3,5,7,9,11,13,-1,-1,-1,-1,-1,-1,-1,-1],"loss_changes":[2.758905E3,5.522557E2,9.317069E2,1.1536719E2,2.7196957E2,4.350736E2,2.014928E2,0E0,0E0,0E0,0E0,0E0,0E0,0E0,0E0],"parents":[2147483647,0,0,1,1,2,2,3,3,4,4,5,5,6,6],"right_children":[2,4,6,8,10,12,14,-1,-1,-1,-1,-1,-1,-1,-1],"split_conditions":[2.3876716E-1,-2.8013796E-1,4.040308E0,-3.3798066E-1,2.9886135E-1,2.5498192E0,4.0782112E-1,-1.5194029E-2,-7.8030825E-3,-3.1720747E-3,1.4805237E-2,1.566597E-2,5.91918E-2,2.379241E-1,8.7013796E-2],"split_indices":[38,23,25,25,25,39,38,0,0,0,0,0,0,0,0],"split_type":[0,0,0,0,0,0,0,0,0,0,0,0,0,0,0],"sum_hessian":[4.4211E4,3.224E4,1.1971E4,2.1778E4,1.0462E4,1.1582E4,3.89E2,1.277E4,9.008E3,7.546E3,2.916E3,1.0977E4,6.05E2,2.3E1,3.66E2],"tree_param":{"num_deleted":"0","num_feature":"199","num_nodes":"15","size_leaf_vector":"1"}},{"base_weights":[1.8145533E-4,-3.353897E-1,5.084144E-1,-4.033086E-1,-1.2050676E-1,3.1062207E-1,8.740491E-1,-1.7216155E-2,-2.7878964E-2,6.514831E-4,-1.5466358E-2,1.3349282E-2,6.40328E-2,4.3383848E-2,1.004917E0],"categories":[],"categories_nodes":[],"categories_segments":[],"categories_sizes":[],"default_left":[0,0,0,0,0,0,0,0,0,0,0,0,0,0,0],"id":33,"left_children":[1,3,5,7,9,11,13,-1,-1,-1,-1,-1,-1,-1,-1],"loss_changes":[7.5404526E3,3.886057E2,1.2713267E3,1.8393213E2,1.6130054E2,4.8271472E2,7.386338E2,0E0,0E0,0E0,0E0,0E0,0E0,0E0,0E0],"parents":[2147483647,0,0,1,1,2,2,3,3,4,4,5,5,6,6],"right_children":[2,4,6,8,10,12,14,-1,-1,-1,-1,-1,-1,-1,-1],"split_conditions":[5.9601575E-1,-8.6614805E-1,1.9860843E-1,-9.0875196E-1,-2.9644892E-1,2.6784914E0,7.064983E0,-1.7216155E-2,-2.7878964E-2,6.514831E-4,-1.5466358E-2,1.3349282E-2,6.40328E-2,4.3383848E-2,1.004917E0],"split_indices":[198,198,77,88,9,198,198,0,0,0,0,0,0,0,0],"split_type":[0,0,0,0,0,0,0,0,0,0,0,0,0,0,0],"sum_hessian":[4.4211E4,2.6629E4,1.7582E4,2.0233E4,6.396E3,1.1411E4,6.171E3,1.4639E4,5.594E3,3.747E3,2.649E3,1.0921E4,4.9E2,6.17E3,1E0],"tree_param":{"num_deleted":"0","num_feature":"199","num_nodes":"15","size_leaf_vector":"1"}},{"base_weights":[1.9647027E-4,-3.1862247E-1,4.8305768E-1,-3.861314E-1,-1.23128794E-1,2.519129E-1,7.9370284E-1,-1.7463798E-2,-3.0936966E-2,2.5896053E-3,-1.2458029E-2,6.8055815E-3,4.4417955E-2,3.6185455E-2,1.0982304E-1],"categories":[],"categories_nodes":[],"categories_segments":[],"categories_sizes":[],"default_left":[0,0,0,0,0,0,0,0,0,0,0,0,0,0,0],"id":34,"left_children":[1,3,5,7,9,11,13,-1,-1,-1,-1,-1,-1,-1,-1],"loss_changes":[6.8063833E3,3.514038E2,1.2623301E3,1.6947534E2,1.5073862E2,7.43009E2,7.348911E2,0E0,0E0,0E0,0E0,0E0,0E0,0E0,0E0],"parents":[2147483647,0,0,1,1,2,2,3,3,4,4,5,5,6,6],"right_children":[2,4,6,8,10,12,14,-1,-1,-1,-1,-1,-1,-1,-1],"split_conditions":[5.9601575E-1,-8.883021E-1,6.0045596E-2,-6.005821E-1,-6.2272984E-1,9.715475E-1,2.5898755E0,-1.7463798E-2,-3.0936966E-2,2.5896053E-3,-1.2458029E-2,6.8055815E-3,4.4417955E-2,3.6185455E-2,1.0982304E-1],"split_indices":[198,198,25,10,10,126,198,0,0,0,0,0,0,0,0],"split_type":[0,0,0,0,0,0,0,0,0,0,0,0,0,0,0],"sum_hessian":[4.4211E4,2.6629E4,1.7582E4,1.9793E4,6.836E3,1.0082E4,7.5E3,1.7088E4,2.705E3,2.863E3,3.973E3,8.531E3,1.551E3,7.145E3,3.55E2],"tree_param":{"num_deleted":"0","num_feature":"199","num_nodes":"15","size_leaf_vector":"1"}},{"base_weights":[1.897891E-4,-3.0640867E-1,4.533939E-1,-3.6360687E-1,-1.1330917E-1,3.4201476E-1,1.026401E0,-1.6368492E-2,-2.9171059E-2,-6.1966134E-3,1.0442402E-1,1.1468731E-2,3.6907222E-2,5.0664373E-2,9.770485E-1],"categories":[],"categories_nodes":[],"categories_segments":[],"categories_sizes":[],"default_left":[0,0,0,0,0,0,0,0,0,0,0,0,0,0,0],"id":35,"left_children":[1,3,5,7,9,11,13,-1,-1,-1,-1,-1,-1,-1,-1],"loss_changes":[6.143471E3,2.9123608E2,1.13828E3,1.6186548E2,1.4125272E2,6.664105E2,6.850239E2,0E0,0E0,0E0,0E0,0E0,0E0,0E0,0E0],"parents":[2147483647,0,0,1,1,2,2,3,3,4,4,5,5,6,6],"right_children":[2,4,6,8,10,12,14,-1,-1,-1,-1,-1,-1,-1,-1],"split_conditions":[5.5170774E-1,-8.439941E-1,-4.794974E-2,-6.005821E-1,5.1487813E0,7.5588816E-1,7.064983E0,-1.6368492E-2,-2.9171059E-2,-6.1966134E-3,1.0442402E-1,1.1468731E-2,3.6907222E-2,5.0664373E-2,9.770485E-1],"split_indices":[198,198,67,10,47,126,198,0,0,0,0,0,0,0,0],"split_type":[0,0,0,0,0,0,0,0,0,0,0,0,0,0,0],"sum_hessian":[4.4211E4,2.6371E4,1.784E4,2.0344E4,6.027E3,1.4938E4,2.902E3,1.7467E4,2.877E3,5.999E3,2.8E1,1.1632E4,3.306E3,2.901E3,1E0],"tree_param":{"num_deleted":"0","num_feature":"199","num_nodes":"15","size_leaf_vector":"1"}},{"base_weights":[2.0583946E-4,-2.8776118E-1,4.363408E-1,-3.454288E-1,-1.0107083E-1,2.975586E-1,8.91789E-1,-1.5500407E-2,-2.7434189E-2,1.1907887E-3,-1.3774157E-2,9.793237E-3,4.213005E-2,4.4136185E-2,9.5262223E-1],"categories":[],"categories_nodes":[],"categories_segments":[],"categories_sizes":[],"default_left":[0,0,0,0,0,0,0,0,0,0,0,0,0,0,0],"id":36,"left_children":[1,3,5,7,9,11,13,-1,-1,-1,-1,-1,-1,-1,-1],"loss_changes":[5.5528203E3,2.8666333E2,1.1111228E3,1.46302E2,1.3692671E2,7.4688635E2,6.5916064E2,0E0,0E0,0E0,0E0,0E0,0E0,0E0,0E0],"parents":[2147483647,0,0,1,1,2,2,3,3,4,4,5,5,6,6],"right_children":[2,4,6,8,10,12,14,-1,-1,-1,-1,-1,-1,-1,-1],"split_conditions":[5.9601575E-1,-8.439941E-1,2.754781E-1,-6.6702515E-1,-2.9644892E-1,9.715475E-1,7.064983E0,-1.5500407E-2,-2.7434189E-2,1.1907887E-3,-1.3774157E-2,9.793237E-3,4.213005E-2,4.4136185E-2,9.5262223E-1],"split_indices":[198,198,76,10,9,126,198,0,0,0,0,0,0,0,0],"split_type":[0,0,0,0,0,0,0,0,0,0,0,0,0,0,0],"sum_hessian":[4.4211E4,2.6629E4,1.7582E4,2.0344E4,6.285E3,1.3477E4,4.105E3,1.7327E4,3.017E3,3.663E3,2.622E3,1.1359E4,2.118E3,4.104E3,1E0],"tree_param":{"num_deleted":"0","num_feature":"199","num_nodes":"15","size_leaf_vector":"1"}},{"base_weights":[2.1800083E-4,-2.8674692E-1,3.9633587E-1,-3.3150786E-1,-1.351416E-1,3.4654143E-1,1.5022107E0,-1.377694E-2,-2.2796286E-2,-2.8669583E-3,-1.9178858E-2,1.4377537E-2,5.5615615E-2,-4.1904904E-2,9.40229E-2],"categories":[],"categories_nodes":[],"categories_segments":[],"categories_sizes":[],"default_left":[0,0,0,0,0,0,0,0,0,0,0,0,0,0,0],"id":37,"left_children":[1,3,5,7,9,11,13,-1,-1,-1,-1,-1,-1,-1,-1],"loss_changes":[5.0257773E3,1.739414E2,1.0222832E3,1.377107E2,1.1297471E2,8.026365E2,7.097483E2,0E0,0E0,0E0,0E0,0E0,0E0,0E0,0E0],"parents":[2147483647,0,0,1,1,2,2,3,3,4,4,5,5,6,6],"right_children":[2,4,6,8,10,12,14,-1,-1,-1,-1,-1,-1,-1,-1],"split_conditions":[4.1878375E-1,-8.883021E-1,2.4126434E0,-1.0250263E0,1E0,-1.2171571E-2,-1.1041733E0,-1.377694E-2,-2.2796286E-2,-2.8669583E-3,-1.9178858E-2,1.4377537E-2,5.5615615E-2,-4.1904904E-2,9.40229E-2],"split_indices":[198,198,198,88,128,67,126,0,0,0,0,0,0,0,0],"split_type":[0,0,0,0,0,0,0,0,0,0,0,0,0,0,0],"sum_hessian":[4.4211E4,2.5638E4,1.8573E4,1.9793E4,5.845E3,1.7774E4,7.99E2,1.3654E4,6.139E3,4.452E3,1.393E3,1.6504E4,1.27E3,1.11E2,6.88E2],"tree_param":{"num_deleted":"0","num_feature":"199","num_nodes":"15","size_leaf_vector":"1"}},{"base_weights":[2.0852023E-4,-2.5174725E-1,4.0885407E-1,-3.118024E-1,-7.73148E-2,1.9479051E-1,7.028929E-1,-1.3208549E-2,-2.210149E-2,-4.3751854E-3,2.0583363E-1,3.044194E-2,5.462211E-3,3.488873E-2,9.264561E-1],"categories":[],"categories_nodes":[],"categories_segments":[],"categories_sizes":[],"default_left":[0,0,0,0,1,0,0,0,0,0,0,0,0,0,0],"id":38,"left_children":[1,3,5,7,9,11,13,-1,-1,-1,-1,-1,-1,-1,-1],"loss_changes":[4.5521973E3,2.8648267E2,1.0612708E3,1.2608154E2,2.997417E2,3.456356E2,6.3524097E2,0E0,0E0,0E0,0E0,0E0,0E0,0E0,0E0],"parents":[2147483647,0,0,1,1,2,2,3,3,4,4,5,5,6,6],"right_children":[2,4,6,8,10,12,14,-1,-1,-1,-1,-1,-1,-1,-1],"split_conditions":[7.0678574E-1,-8.439941E-1,6.0045596E-2,-8.64031E-1,7.0792446E0,-6.1241674E-1,7.064983E0,-1.3208549E-2,-2.210149E-2,-4.3751854E-3,2.0583363E-1,3.044194E-2,5.462211E-3,3.488873E-2,9.264561E-1],"split_indices":[198,198,25,88,17,101,198,0,0,0,0,0,0,0,0],"split_type":[0,0,0,0,0,0,0,0,0,0,0,0,0,0,0],"sum_hessian":[4.4211E4,2.7349E4,1.6862E4,2.0344E4,7.005E3,9.759E3,7.103E3,1.4898E4,5.446E3,6.989E3,1.6E1,1.67E3,8.089E3,7.102E3,1E0],"tree_param":{"num_deleted":"0","num_feature":"199","num_nodes":"15","size_leaf_vector":"1"}},{"base_weights":[2.2441467E-4,-2.391538E-1,3.8847053E-1,-2.994086E-1,-8.129711E-2,1.8505469E-1,6.678835E-1,-1.203846E-2,-1.9976E-2,-4.5156637E-3,1.9614735E-1,2.8385574E-3,3.1580307E-2,3.3144537E-2,9.0329474E-1],"categories":[],"categories_nodes":[],"categories_segments":[],"categories_sizes":[],"default_left":[0,0,0,0,1,0,0,0,0,0,0,0,0,0,0],"id":39,"left_children":[1,3,5,7,9,11,13,-1,-1,-1,-1,-1,-1,-1,-1],"loss_changes":[4.1090527E3,2.6011877E2,9.583191E2,1.16104004E2,2.7318393E2,5.590676E2,6.051128E2,0E0,0E0,0E0,0E0,0E0,0E0,0E0,0E0],"parents":[2147483647,0,0,1,1,2,2,3,3,4,4,5,5,6,6],"right_children":[2,4,6,8,10,12,14,-1,-1,-1,-1,-1,-1,-1,-1],"split_conditions":[7.0678574E-1,-8.883021E-1,6.0045596E-2,-8.296297E-1,7.0792446E0,7.356701E-1,7.064983E0,-1.203846E-2,-1.9976E-2,-4.5156637E-3,1.9614735E-1,2.8385574E-3,3.1580307E-2,3.3144537E-2,9.0329474E-1],"split_indices":[198,198,25,121,17,126,198,0,0,0,0,0,0,0,0],"split_type":[0,0,0,0,0,0,0,0,0,0,0,0,0,0,0],"sum_hessian":[4.4211E4,2.7349E4,1.6862E4,1.9793E4,7.556E3,9.759E3,7.103E3,1.2484E4,7.309E3,7.54E3,1.6E1,7.582E3,2.177E3,7.102E3,1E0],"tree_param":{"num_deleted":"0","num_feature":"199","num_nodes":"15","size_leaf_vector":"1"}},{"base_weights":[2.3876365E-4,-2.4666521E-1,3.410577E-1,-2.844398E-1,-1.1872175E-1,2.941209E-1,1.3835075E0,-1.2765745E-2,-2.3444833E-2,-1.4546841E-3,-1.649305E-2,1.3299132E-2,8.5329734E-2,-2.8199786E-2,8.951672E-2],"categories":[],"categories_nodes":[],"categories_segments":[],"categories_sizes":[],"default_left":[0,0,0,0,0,0,0,0,0,0,0,0,0,0,0],"id":40,"left_children":[1,3,5,7,9,11,13,-1,-1,-1,-1,-1,-1,-1,-1],"loss_changes":[3.720504E3,1.2387988E2,9.084043E2,1.0621948E2,1.1062012E2,7.060067E2,6.3484717E2,0E0,0E0,0E0,0E0,0E0,0E0,0E0,0E0],"parents":[2147483647,0,0,1,1,2,2,3,3,4,4,5,5,6,6],"right_children":[2,4,6,8,10,12,14,-1,-1,-1,-1,-1,-1,-1,-1],"split_conditions":[4.1878375E-1,-8.883021E-1,2.4126434E0,-5.234476E-1,1.2209019E-1,3.960703E0,-9.828649E-1,-1.2765745E-2,-2.3444833E-2,-1.4546841E-3,-1.649305E-2,1.3299132E-2,8.5329734E-2,-2.8199786E-2,8.951672E-2],"split_indices":[198,198,198,8,97,25,126,0,0,0,0,0,0,0,0],"split_type":[0,0,0,0,0,0,0,0,0,0,0,0,0,0,0],"sum_hessian":[4.4211E4,2.5638E4,1.8573E4,1.9793E4,5.845E3,1.7774E4,7.99E2,1.7096E4,2.697E3,4.104E3,1.741E3,1.7428E4,3.46E2,1.38E2,6.61E2],"tree_param":{"num_deleted":"0","num_feature":"199","num_nodes":"15","size_leaf_vector":"1"}},{"base_weights":[2.2920151E-4,-9.8925985E-2,2.9221857E-1,-1.3599749E-1,9.690716E-2,2.4948378E-1,1.4523029E0,-7.52661E-3,1.7048163E-2,4.4644894E-3,1.859755E-1,1.0018748E-2,4.7079857E-2,-1.167811E-2,9.222404E-2],"categories":[],"categories_nodes":[],"categories_segments":[],"categories_sizes":[],"default_left":[0,0,0,0,0,0,0,0,0,0,0,0,0,0,0],"id":41,"left_children":[1,3,5,7,9,11,13,-1,-1,-1,-1,-1,-1,-1,-1],"loss_changes":[1.2800663E3,2.3962387E2,5.552849E2,1.9244171E2,1.4465067E2,3.6726495E2,2.6357214E2,0E0,0E0,0E0,0E0,0E0,0E0,0E0,0E0],"parents":[2147483647,0,0,1,1,2,2,3,3,4,4,5,5,6,6],"right_children":[2,4,6,8,10,12,14,-1,-1,-1,-1,-1,-1,-1,-1],"split_conditions":[4.5838827E-1,2.9886135E-1,4.119913E0,3.426422E-1,5.803652E0,1E0,3.8367307E-1,-7.52661E-3,1.7048163E-2,4.4644894E-3,1.859755E-1,1.0018748E-2,4.7079857E-2,-1.167811E-2,9.222404E-2],"split_indices":[80,25,25,82,22,191,118,0,0,0,0,0,0,0,0],"split_type":[0,0,0,0,0,0,0,0,0,0,0,0,0,0,0],"sum_hessian":[4.4211E4,3.3004E4,1.1207E4,2.7751E4,5.253E3,1.081E4,3.97E2,2.6931E4,8.2E2,5.243E3,1E1,1.0095E4,7.15E2,7.5E1,3.22E2],"tree_param":{"num_deleted":"0","num_feature":"199","num_nodes":"15","size_leaf_vector":"1"}},{"base_weights":[2.2536633E-4,-2.1309628E-1,3.4621048E-1,-2.6286027E-1,-6.855428E-2,1.9329725E-1,6.752379E-1,-1.16513735E-2,-2.2191947E-2,-3.883437E-3,1.8415652E-1,1.8174723E-2,9.966859E-4,3.3440184E-2,8.772974E-1],"categories":[],"categories_nodes":[],"categories_segments":[],"categories_sizes":[],"default_left":[0,0,0,0,1,0,0,0,0,0,0,0,0,0,0],"id":42,"left_children":[1,3,5,7,9,11,13,-1,-1,-1,-1,-1,-1,-1,-1],"loss_changes":[3.2631897E3,1.967102E2,8.482915E2,1.0974121E2,2.3985333E2,3.3972473E2,5.690071E2,0E0,0E0,0E0,0E0,0E0,0E0,0E0,0E0],"parents":[2147483647,0,0,1,1,2,2,3,3,4,4,5,5,6,6],"right_children":[2,4,6,8,10,12,14,-1,-1,-1,-1,-1,-1,-1,-1],"split_conditions":[7.0678574E-1,-8.439941E-1,-7.5484954E-2,-6.005821E-1,7.0792446E0,1E0,7.064983E0,-1.16513735E-2,-2.2191947E-2,-3.883437E-3,1.8415652E-1,1.8174723E-2,9.966859E-4,3.3440184E-2,8.772974E-1],"split_indices":[198,198,67,10,17,171,198,0,0,0,0,0,0,0,0],"split_type":[0,0,0,0,0,0,0,0,0,0,0,0,0,0,0],"sum_hessian":[4.4211E4,2.7349E4,1.6862E4,2.0344E4,7.005E3,1.1513E4,5.349E3,1.7467E4,2.877E3,6.989E3,1.6E1,5.809E3,5.704E3,5.348E3,1E0],"tree_param":{"num_deleted":"0","num_feature":"199","num_nodes":"15","size_leaf_vector":"1"}},{"base_weights":[2.3847232E-4,-8.9714736E-2,2.651301E-1,-1.2402605E-1,9.153715E-2,2.2500867E-1,1.3542953E0,-6.877221E-3,1.597901E-2,4.2142686E-3,1.7701678E-1,-5.5522757E-4,1.8225167E-2,-1.2021316E-2,8.626655E-2],"categories":[],"categories_nodes":[],"categories_segments":[],"categories_sizes":[],"default_left":[0,0,0,0,0,0,0,0,0,0,0,0,0,0,0],"id":43,"left_children":[1,3,5,7,9,11,13,-1,-1,-1,-1,-1,-1,-1,-1],"loss_changes":[1.0535007E3,2.0526917E2,4.894723E2,1.6646802E2,1.3110368E2,3.5608093E2,2.3591089E2,0E0,0E0,0E0,0E0,0E0,0E0,0E0,0E0],"parents":[2147483647,0,0,1,1,2,2,3,3,4,4,5,5,6,6],"right_children":[2,4,6,8,10,12,14,-1,-1,-1,-1,-1,-1,-1,-1],"split_conditions":[4.5838827E-1,2.9886135E-1,4.119913E0,3.426422E-1,5.803652E0,-2.9545093E-1,3.8367307E-1,-6.877221E-3,1.597901E-2,4.2142686E-3,1.7701678E-1,-5.5522757E-4,1.8225167E-2,-1.2021316E-2,8.626655E-2],"split_indices":[80,25,25,82,22,126,118,0,0,0,0,0,0,0,0],"split_type":[0,0,0,0,0,0,0,0,0,0,0,0,0,0,0],"sum_hessian":[4.4211E4,3.3004E4,1.1207E4,2.7751E4,5.253E3,1.081E4,3.97E2,2.6931E4,8.2E2,5.243E3,1E1,4.015E3,6.795E3,7.5E1,3.22E2],"tree_param":{"num_deleted":"0","num_feature":"199","num_nodes":"15","size_leaf_vector":"1"}},{"base_weights":[2.3291894E-4,-1.9947454E-1,3.2413724E-1,-2.4817637E-1,-7.1883775E-2,1.8146285E-1,6.481432E-1,-1.115552E-2,-2.3535267E-2,-3.992879E-3,1.7347138E-1,3.4594692E-3,2.8178176E-2,3.20817E-2,8.5490936E-1],"categories":[],"categories_nodes":[],"categories_segments":[],"categories_sizes":[],"default_left":[0,0,0,0,1,0,0,0,0,0,0,0,0,0,0],"id":44,"left_children":[1,3,5,7,9,11,13,-1,-1,-1,-1,-1,-1,-1,-1],"loss_changes":[2.8599668E3,1.6993237E2,7.794144E2,1.10303955E2,2.1366936E2,5.0227432E2,5.410061E2,0E0,0E0,0E0,0E0,0E0,0E0,0E0,0E0],"parents":[2147483647,0,0,1,1,2,2,3,3,4,4,5,5,6,6],"right_children":[2,4,6,8,10,12,14,-1,-1,-1,-1,-1,-1,-1,-1],"split_conditions":[7.0678574E-1,-8.883021E-1,7.658855E-2,1.8505609E-1,7.0792446E0,7.356701E-1,7.064983E0,-1.115552E-2,-2.3535267E-2,-3.992879E-3,1.7347138E-1,3.4594692E-3,2.8178176E-2,3.20817E-2,8.5490936E-1],"split_indices":[198,198,76,80,17,126,198,0,0,0,0,0,0,0,0],"split_type":[0,0,0,0,0,0,0,0,0,0,0,0,0,0,0],"sum_hessian":[4.4211E4,2.7349E4,1.6862E4,1.9793E4,7.556E3,1.1708E4,5.154E3,1.7791E4,2.002E3,7.54E3,1.6E1,9.05E3,2.658E3,5.153E3,1E0],"tree_param":{"num_deleted":"0","num_feature":"199","num_nodes":"15","size_leaf_vector":"1"}},{"base_weights":[2.451112E-4,-2.0550552E-1,2.842572E-1,-1.7869304E-1,-3.9226258E-1,2.4091446E-1,1.246923E0,-1.0702429E-2,-5.415359E-4,-1.9807914E-2,3.035051E-1,9.1319475E-3,3.8437683E-2,5.1303722E-2,2.3816831E-1],"categories":[],"categories_nodes":[],"categories_segments":[],"categories_sizes":[],"default_left":[0,0,0,0,0,0,0,0,0,0,0,0,0,0,0],"id":45,"left_children":[1,3,5,7,9,11,13,-1,-1,-1,-1,-1,-1,-1,-1],"loss_changes":[2.583616E3,1.2831506E2,7.746914E2,1.3306921E2,8.341925E1,5.4662036E2,6.1639343E2,0E0,0E0,0E0,0E0,0E0,0E0,0E0,0E0],"parents":[2147483647,0,0,1,1,2,2,3,3,4,4,5,5,6,6],"right_children":[2,4,6,8,10,12,14,-1,-1,-1,-1,-1,-1,-1,-1],"split_conditions":[4.1878375E-1,5.2231705E-1,2.4126434E0,-8.439941E-1,9.77341E0,8.417798E-1,2.5103838E0,-1.0702429E-2,-5.415359E-4,-1.9807914E-2,3.035051E-1,9.1319475E-3,3.8437683E-2,5.1303722E-2,2.3816831E-1],"split_indices":[198,88,198,198,38,77,30,0,0,0,0,0,0,0,0],"split_type":[0,0,0,0,0,0,0,0,0,0,0,0,0,0,0],"sum_hessian":[4.4211E4,2.5638E4,1.8573E4,2.2421E4,3.217E3,1.7774E4,7.99E2,1.852E4,3.901E3,3.216E3,1E0,1.6008E4,1.766E3,7.53E2,4.6E1],"tree_param":{"num_deleted":"0","num_feature":"199","num_nodes":"15","size_leaf_vector":"1"}},{"base_weights":[2.4665173E-4,-1.8066584E-1,2.9366753E-1,-2.1462849E-1,-3.162803E-2,2.4291836E-1,1.1267412E0,-9.479373E-3,-2.1542868E-2,-4.6414877E-3,3.510455E-2,3.5333063E-3,2.3951283E-2,4.9518563E-2,2.0186238E-1],"categories":[],"categories_nodes":[],"categories_segments":[],"categories_sizes":[],"default_left":[0,0,0,0,0,0,0,0,0,0,0,0,0,0,0],"id":46,"left_children":[1,3,5,7,9,11,13,-1,-1,-1,-1,-1,-1,-1,-1],"loss_changes":[2.3469807E3,1.3843134E2,7.1265686E2,1.2052295E2,2.280472E2,6.464566E2,3.8020618E2,0E0,0E0,0E0,0E0,0E0,0E0,0E0,0E0],"parents":[2147483647,0,0,1,1,2,2,3,3,4,4,5,5,6,6],"right_children":[2,4,6,8,10,12,14,-1,-1,-1,-1,-1,-1,-1,-1],"split_conditions":[7.0678574E-1,-5.338381E-1,1.5646105E0,2.4936955E-1,1.4075289E0,6.0045596E-2,2.3461814E0,-9.479373E-3,-2.1542868E-2,-4.6414877E-3,3.510455E-2,3.5333063E-3,2.3951283E-2,4.9518563E-2,2.0186238E-1],"split_indices":[198,198,126,80,30,25,198,0,0,0,0,0,0,0,0],"split_type":[0,0,0,0,0,0,0,0,0,0,0,0,0,0,0],"sum_hessian":[4.4211E4,2.7349E4,1.6862E4,2.2273E4,5.076E3,1.5895E4,9.67E2,1.9963E4,2.31E3,4.686E3,3.9E2,9.191E3,6.704E3,9.25E2,4.2E1],"tree_param":{"num_deleted":"0","num_feature":"199","num_nodes":"15","size_leaf_vector":"1"}},{"base_weights":[2.406226E-4,-1.7163256E-1,2.790007E-1,-2.1366467E-1,-6.151539E-2,6.9857635E-2,4.7180766E-1,-7.999815E-3,-1.5264875E-2,-3.4519024E-3,1.6395324E-1,1.9930588E-2,-7.699525E-4,1.9994399E-2,7.915235E-2],"categories":[],"categories_nodes":[],"categories_segments":[],"categories_sizes":[],"default_left":[0,0,0,0,1,0,0,0,0,0,0,0,0,0,0],"id":47,"left_children":[1,3,5,7,9,11,13,-1,-1,-1,-1,-1,-1,-1,-1],"loss_changes":[2.118306E3,1.26575134E2,6.799547E2,9.729382E1,1.9013406E2,2.2675659E2,7.005852E2,0E0,0E0,0E0,0E0,0E0,0E0,0E0,0E0],"parents":[2147483647,0,0,1,1,2,2,3,3,4,4,5,5,6,6],"right_children":[2,4,6,8,10,12,14,-1,-1,-1,-1,-1,-1,-1,-1],"split_conditions":[7.0678574E-1,-8.883021E-1,-9.852209E-2,-8.296297E-1,7.0792446E0,-4.784116E-1,1.9031016E0,-7.999815E-3,-1.5264875E-2,-3.4519024E-3,1.6395324E-1,1.9930588E-2,-7.699525E-4,1.9994399E-2,7.915235E-2],"split_indices":[198,198,67,121,17,5,198,0,0,0,0,0,0,0,0],"split_type":[0,0,0,0,0,0,0,0,0,0,0,0,0,0,0],"sum_hessian":[4.4211E4,2.7349E4,1.6862E4,1.9793E4,7.556E3,8.089E3,8.773E3,1.2484E4,7.309E3,7.54E3,1.6E1,1.665E3,6.424E3,8.241E3,5.32E2],"tree_param":{"num_deleted":"0","num_feature":"199","num_nodes":"15","size_leaf_vector":"1"}},{"base_weights":[2.3435315E-4,-1.6304591E-1,2.6505762E-1,-1.9775964E-1,-4.1726384E-2,2.1688682E-1,1.0558202E0,-8.387554E-3,-1.8232683E-2,-3.208028E-3,6.1838895E-2,8.063746E-3,4.390501E-2,4.639527E-2,1.8929504E-1],"categories":[],"categories_nodes":[],"categories_segments":[],"categories_sizes":[],"default_left":[0,0,0,0,0,0,0,0,0,0,0,0,0,0,0],"id":48,"left_children":[1,3,5,7,9,11,13,-1,-1,-1,-1,-1,-1,-1,-1],"loss_changes":[1.9117885E3,1.1517493E2,6.4211096E2,1.0643927E2,1.7463913E2,5.843755E2,3.3453027E2,0E0,0E0,0E0,0E0,0E0,0E0,0E0,0E0],"parents":[2147483647,0,0,1,1,2,2,3,3,4,4,5,5,6,6],"right_children":[2,4,6,8,10,12,14,-1,-1,-1,-1,-1,-1,-1,-1],"split_conditions":[7.0678574E-1,-6.889161E-1,1.5646105E0,-6.005821E-1,2.7736726E0,2.0274932E0,2.3461814E0,-8.387554E-3,-1.8232683E-2,-3.208028E-3,6.1838895E-2,8.063746E-3,4.390501E-2,4.639527E-2,1.8929504E-1],"split_indices":[198,198,126,10,80,56,198,0,0,0,0,0,0,0,0],"split_type":[0,0,0,0,0,0,0,0,0,0,0,0,0,0,0],"sum_hessian":[4.4211E4,2.7349E4,1.6862E4,2.1264E4,6.085E3,1.5895E4,9.67E2,1.8025E4,3.239E3,5.981E3,1.04E2,1.4663E4,1.232E3,9.25E2,4.2E1],"tree_param":{"num_deleted":"0","num_feature":"199","num_nodes":"15","size_leaf_vector":"1"}},{"base_weights":[2.2985153E-4,-1.6809034E-1,2.3257405E-1,-1.4327438E-1,-3.409478E-1,1.0768927E-1,5.498361E-1,-8.824863E-3,-3.3466725E-4,-1.7235825E-2,2.9457384E-1,3.652133E-3,5.1549602E-2,2.3608906E-2,1.20035805E-1],"categories":[],"categories_nodes":[],"categories_segments":[],"categories_sizes":[],"default_left":[0,0,0,0,0,0,0,0,0,0,0,0,0,0,0],"id":49,"left_children":[1,3,5,7,9,11,13,-1,-1,-1,-1,-1,-1,-1,-1],"loss_changes":[1.7290917E3,1.0993286E2,7.358651E2,1.0174118E2,7.761569E1,4.2631024E2,7.529032E2,0E0,0E0,0E0,0E0,0E0,0E0,0E0,0E0],"parents":[2147483647,0,0,1,1,2,2,3,3,4,4,5,5,6,6],"right_children":[2,4,6,8,10,12,14,-1,-1,-1,-1,-1,-1,-1,-1],"split_conditions":[4.1878375E-1,5.2231705E-1,5.671863E-1,-8.883021E-1,9.77341E0,1E0,2.4569514E0,-8.824863E-3,-3.3466725E-4,-1.7235825E-2,2.9457384E-1,3.652133E-3,5.1549602E-2,2.3608906E-2,1.20035805E-1],"split_indices":[198,88,126,198,38,143,198,0,0,0,0,0,0,0,0],"split_type":[0,0,0,0,0,0,0,0,0,0,0,0,0,0,0],"sum_hessian":[4.4211E4,2.5638E4,1.8573E4,2.2421E4,3.217E3,1.3328E4,5.245E3,1.8034E4,4.387E3,3.216E3,1E0,1.2847E4,4.81E2,5.035E3,2.1E2],"tree_param":{"num_deleted":"0","num_feature":"199","num_nodes":"15","size_leaf_vector":"1"}},{"base_weights":[2.2893587E-4,-1.4764962E-1,2.4007227E-1,-1.3537884E-1,-4.3571046E-1,1.14691675E-1,5.2087384E-1,-8.504956E-3,1.5084754E-3,-2.3484884E-2,1.3665442E-1,-7.3673413E-3,1.2909099E-2,2.5731413E-2,8.255779E-1],"categories":[],"categories_nodes":[],"categories_segments":[],"categories_sizes":[],"default_left":[0,0,0,0,0,0,0,0,0,0,0,0,0,0,0],"id":50,"left_children":[1,3,5,7,9,11,13,-1,-1,-1,-1,-1,-1,-1,-1],"loss_changes":[1.5681327E3,9.661597E1,5.9363715E2,1.5079514E2,1.21583176E2,4.3841632E2,5.1133557E2,0E0,0E0,0E0,0E0,0E0,0E0,0E0,0E0],"parents":[2147483647,0,0,1,1,2,2,3,3,4,4,5,5,6,6],"right_children":[2,4,6,8,10,12,14,-1,-1,-1,-1,-1,-1,-1,-1],"split_conditions":[7.0678574E-1,1.3362375E0,7.0942804E-2,-5.338381E-1,4.104716E0,-3.7632316E-1,7.064983E0,-8.504956E-3,1.5084754E-3,-2.3484884E-2,1.3665442E-1,-7.3673413E-3,1.2909099E-2,2.5731413E-2,8.255779E-1],"split_indices":[198,88,76,198,102,126,198,0,0,0,0,0,0,0,0],"split_type":[0,0,0,0,0,0,0,0,0,0,0,0,0,0,0],"sum_hessian":[4.4211E4,2.7349E4,1.6862E4,2.6233E4,1.116E3,1.1658E4,5.204E3,2.1685E4,4.548E3,1.105E3,1.1E1,4.125E3,7.533E3,5.203E3,1E0],"tree_param":{"num_deleted":"0","num_feature":"199","num_nodes":"15","size_leaf_vector":"1"}},{"base_weights":[2.3925821E-4,-1.4026324E-1,2.2811943E-1,-1.2075065E-1,-3.1164467E-1,-5.5832822E-2,3.4709066E-1,-7.917082E-3,2.3411678E-3,-1.641107E-2,6.999658E-2,-9.667255E-3,8.599532E-3,1.5528214E-2,7.5941734E-2],"categories":[],"categories_nodes":[],"categories_segments":[],"categories_sizes":[],"default_left":[0,0,0,0,0,0,0,0,0,0,0,0,0,0,0],"id":51,"left_children":[1,3,5,7,9,11,13,-1,-1,-1,-1,-1,-1,-1,-1],"loss_changes":[1.4156002E3,9.142346E1,5.696878E2,1.5469232E2,7.976007E1,1.5604929E2,5.0815845E2,0E0,0E0,0E0,0E0,0E0,0E0,0E0,0E0],"parents":[2147483647,0,0,1,1,2,2,3,3,4,4,5,5,6,6],"right_children":[2,4,6,8,10,12,14,-1,-1,-1,-1,-1,-1,-1,-1],"split_conditions":[7.0678574E-1,1.0604935E0,-1.16885565E-1,-6.667621E-1,4.104716E0,2.7065474E-1,1.8880994E0,-7.917082E-3,2.3411678E-3,-1.641107E-2,6.999658E-2,-9.667255E-3,8.599532E-3,1.5528214E-2,7.5941734E-2],"split_indices":[198,10,67,198,102,126,126,0,0,0,0,0,0,0,0],"split_type":[0,0,0,0,0,0,0,0,0,0,0,0,0,0,0],"sum_hessian":[4.4211E4,2.7349E4,1.6862E4,2.4555E4,2.794E3,4.979E3,1.1883E4,2.0056E4,4.499E3,2.768E3,2.6E1,3.105E3,1.874E3,1.1525E4,3.58E2],"tree_param":{"num_deleted":"0","num_feature":"199","num_nodes":"15","size_leaf_vector":"1"}},{"base_weights":[2.3041846E-4,-9.2134E-3,1.3290536E0,-8.49608E-2,1.1553791E-1,7.031482E0,1.1942625E0,-4.460312E-3,5.356856E-2,-4.322345E-3,1.1655367E-2,4.4969732E-1,7.084405E-2,4.9553137E-2,2.0252338E-1],"categories":[],"categories_nodes":[],"categories_segments":[],"categories_sizes":[],"default_left":[0,0,0,1,0,0,0,0,0,0,0,0,0,0,0],"id":52,"left_children":[1,3,5,7,9,11,13,-1,-1,-1,-1,-1,-1,-1,-1],"loss_changes":[5.5483594E2,4.1485614E2,2.3141705E2,1.3419371E2,3.9389175E2,6.438583E1,1.7358212E2,0E0,0E0,0E0,0E0,0E0,0E0,0E0,0E0],"parents":[2147483647,0,0,1,1,2,2,3,3,4,4,5,5,6,6],"right_children":[2,4,6,8,10,12,14,-1,-1,-1,-1,-1,-1,-1,-1],"split_conditions":[5.234387E0,-2.3729269E-1,-6.995946E-2,2.3718138E0,-2.9545093E-1,8.616041E-1,3.419013E0,-4.460312E-3,5.356856E-2,-4.322345E-3,1.1655367E-2,4.4969732E-1,7.084405E-2,4.9553137E-2,2.0252338E-1],"split_indices":[25,17,79,39,126,72,115,0,0,0,0,0,0,0,0],"split_type":[0,0,0,0,0,0,0,0,0,0,0,0,0,0,0],"sum_hessian":[4.4211E4,4.39E4,3.11E2,2.7315E4,1.6585E4,6E0,3.05E2,2.7216E4,9.9E1,6.102E3,1.0483E4,4E0,2E0,2.86E2,1.9E1],"tree_param":{"num_deleted":"0","num_feature":"199","num_nodes":"15","size_leaf_vector":"1"}},{"base_weights":[2.3766178E-4,-4.2335182E-2,2.71691E-1,-4.4596877E-2,2.57614E0,2.1794969E-1,1.432695E0,-4.410074E-3,3.7647765E-3,6.861007E-1,7.0720285E-2,9.291397E-3,7.183283E-2,1.553808E-1,4.7938094E-2],"categories":[],"categories_nodes":[],"categories_segments":[],"categories_sizes":[],"default_left":[1,0,0,0,0,0,0,0,0,0,0,0,0,0,0],"id":53,"left_children":[1,3,5,7,9,11,13,-1,-1,-1,-1,-1,-1,-1,-1],"loss_changes":[5.109493E2,2.2645514E2,3.7367676E2,1.9964296E2,4.078935E2,2.2404526E2,2.0737769E2,0E0,0E0,0E0,0E0,0E0,0E0,0E0,0E0],"parents":[2147483647,0,0,1,1,2,2,3,3,4,4,5,5,6,6],"right_children":[2,4,6,8,10,12,14,-1,-1,-1,-1,-1,-1,-1,-1],"split_conditions":[3.4133446E-1,4.449541E0,5.234387E0,6.0045596E-2,5.10537E-1,4.940813E0,6.3472974E-1,-4.410074E-3,3.7647765E-3,6.861007E-1,7.0720285E-2,9.291397E-3,7.183283E-2,1.553808E-1,4.7938094E-2],"split_indices":[17,51,25,25,0,86,123,0,0,0,0,0,0,0,0],"split_type":[0,0,0,0,0,0,0,0,0,0,0,0,0,0,0],"sum_hessian":[4.4211E4,3.8218E4,5.993E3,3.8186E4,3.2E1,5.729E3,2.64E2,2.8002E4,1.0184E4,2E0,3E1,5.583E3,1.46E2,5.7E1,2.07E2],"tree_param":{"num_deleted":"0","num_feature":"199","num_nodes":"15","size_leaf_vector":"1"}},{"base_weights":[2.4931418E-4,-1.2830688E-1,2.1550238E-1,-9.656775E-2,-2.4753429E-1,1.7450014E-1,1.0215935E0,-6.550851E-3,6.983019E-3,-1.3243812E-2,2.9628113E-2,2.300958E-3,1.9064479E-2,4.086632E-2,2.1384111E-1],"categories":[],"categories_nodes":[],"categories_segments":[],"categories_sizes":[],"default_left":[0,0,0,0,0,0,0,0,0,0,0,0,0,0,0],"id":54,"left_children":[1,3,5,7,9,11,13,-1,-1,-1,-1,-1,-1,-1,-1],"loss_changes":[1.2234672E3,1.0472583E2,5.4622986E2,1.7793686E2,8.493353E1,4.1798477E2,5.2845325E2,0E0,0E0,0E0,0E0,0E0,0E0,0E0,0E0],"parents":[2147483647,0,0,1,1,2,2,3,3,4,4,5,5,6,6],"right_children":[2,4,6,8,10,12,14,-1,-1,-1,-1,-1,-1,-1,-1],"split_conditions":[7.510937E-1,-1.3085613E-1,2.4126434E0,-5.559921E-1,4.7875204E0,1.2060741E-1,2.5103838E0,-6.550851E-3,6.983019E-3,-1.3243812E-2,2.9628113E-2,2.300958E-3,1.9064479E-2,4.086632E-2,2.1384111E-1],"split_indices":[198,100,198,198,103,77,30,0,0,0,0,0,0,0,0],"split_type":[0,0,0,0,0,0,0,0,0,0,0,0,0,0,0],"sum_hessian":[4.4211E4,2.768E4,1.6531E4,2.1862E4,5.818E3,1.5732E4,7.99E2,1.908E4,2.782E3,5.701E3,1.17E2,9.704E3,6.028E3,7.53E2,4.6E1],"tree_param":{"num_deleted":"0","num_feature":"199","num_nodes":"15","size_leaf_vector":"1"}},{"base_weights":[2.4347722E-4,-1.4031318E-2,7.267331E-1,-6.1900876E-2,1.2396354E-1,6.099416E0,6.8141925E-1,-3.8928413E-3,8.989895E-3,1.8555418E-3,2.08664E-2,9.454321E-2,4.3915567E-1,2.4244322E-2,9.892085E-2],"categories":[],"categories_nodes":[],"categories_segments":[],"categories_sizes":[],"default_left":[0,0,0,0,0,0,0,0,0,0,0,0,0,0,0],"id":55,"left_children":[1,3,5,7,9,11,13,-1,-1,-1,-1,-1,-1,-1,-1],"loss_changes":[4.5851038E2,2.8643973E2,2.0326901E2,1.2417119E2,2.8453955E2,6.2453705E1,2.1468835E2,0E0,0E0,0E0,0E0,0E0,0E0,0E0,0E0],"parents":[2147483647,0,0,1,1,2,2,3,3,4,4,5,5,6,6],"right_children":[2,4,6,8,10,12,14,-1,-1,-1,-1,-1,-1,-1,-1],"split_conditions":[3.4235291E0,2.7257794E-1,1.1106343E0,1.5646105E0,7.5588816E-1,1.0028015E0,1E0,-3.8928413E-3,8.989895E-3,1.8555418E-3,2.08664E-2,9.454321E-2,4.3915567E-1,2.4244322E-2,9.892085E-2],"split_indices":[47,38,57,126,126,57,191,0,0,0,0,0,0,0,0],"split_type":[0,0,0,0,0,0,0,0,0,0,0,0,0,0,0],"sum_hessian":[4.4211E4,4.336E4,8.51E2,3.2193E4,1.1167E4,6E0,8.45E2,3.02E4,1.993E3,8.617E3,2.55E3,3E0,3E0,7.35E2,1.1E2],"tree_param":{"num_deleted":"0","num_feature":"199","num_nodes":"15","size_leaf_vector":"1"}},{"base_weights":[2.468067E-4,-1.5085648E-2,6.3610893E-1,-6.616621E-2,1.0897007E-1,3.7691677E-1,1.4811878E0,-4.108568E-3,1.4821659E-2,5.2796546E-3,2.7038774E-1,9.242705E-3,7.9463415E-2,1.2922862E-1,2.7044255E-2],"categories":[],"categories_nodes":[],"categories_segments":[],"categories_sizes":[],"default_left":[0,0,0,0,0,1,0,0,0,0,0,0,0,0,0],"id":56,"left_children":[1,3,5,7,9,11,13,-1,-1,-1,-1,-1,-1,-1,-1],"loss_changes":[4.3104684E2,2.7358105E2,2.2746011E2,1.7749991E2,2.247486E2,1.8551846E2,2.517558E2,0E0,0E0,0E0,0E0,0E0,0E0,0E0,0E0],"parents":[2147483647,0,0,1,1,2,2,3,3,4,4,5,5,6,6],"right_children":[2,4,6,8,10,12,14,-1,-1,-1,-1,-1,-1,-1,-1],"split_conditions":[2.6128888E0,1.3965085E-1,2.790224E0,1.156717E0,1.6355057E1,4.855081E-1,3.7939641E0,-4.108568E-3,1.4821659E-2,5.2796546E-3,2.7038774E-1,9.242705E-3,7.9463415E-2,1.2922862E-1,2.7044255E-2],"split_indices":[80,25,51,16,117,66,46,0,0,0,0,0,0,0,0],"split_type":[0,0,0,0,0,0,0,0,0,0,0,0,0,0,0],"sum_hessian":[4.4211E4,4.3171E4,1.04E3,3.058E4,1.2591E4,7.97E2,2.43E2,2.9288E4,1.292E3,1.2584E4,7E0,6.89E2,1.08E2,1.11E2,1.32E2],"tree_param":{"num_deleted":"0","num_feature":"199","num_nodes":"15","size_leaf_vector":"1"}},{"base_weights":[2.4651835E-4,-1.3107526E-1,1.8151921E-1,-1.02588385E-1,-2.92714E-1,1.4282364E-1,8.859349E-1,-5.1811575E-3,1.836551E-1,-1.2049362E-2,-2.057348E-2,1.4392863E-2,-2.3843833E-4,3.5816114E-2,1.8426979E-1],"categories":[],"categories_nodes":[],"categories_segments":[],"categories_sizes":[],"default_left":[0,0,0,0,0,0,0,0,0,0,0,0,0,0,0],"id":57,"left_children":[1,3,5,7,9,11,13,-1,-1,-1,-1,-1,-1,-1,-1],"loss_changes":[1.0524927E3,1.18026855E2,5.0615912E2,8.554782E1,2.3495514E1,3.7691583E2,4.5651465E2,0E0,0E0,0E0,0E0,0E0,0E0,0E0,0E0],"parents":[2147483647,0,0,1,1,2,2,3,3,4,4,5,5,6,6],"right_children":[2,4,6,8,10,12,14,-1,-1,-1,-1,-1,-1,-1,-1],"split_conditions":[4.1878375E-1,1.2209019E-1,1.5043296E0,3.9633527E0,1.0707829E0,1E0,2.5103838E0,-5.1811575E-3,1.836551E-1,-1.2049362E-2,-2.057348E-2,1.4392863E-2,-2.3843833E-4,3.5816114E-2,1.8426979E-1],"split_indices":[198,97,198,55,110,171,30,0,0,0,0,0,0,0,0],"split_type":[0,0,0,0,0,0,0,0,0,0,0,0,0,0,0],"sum_hessian":[4.4211E4,2.5638E4,1.8573E4,2.1798E4,3.84E3,1.7607E4,9.66E2,2.1793E4,5E0,2.677E3,1.163E3,8.88E3,8.727E3,9.12E2,5.4E1],"tree_param":{"num_deleted":"0","num_feature":"199","num_nodes":"15","size_leaf_vector":"1"}},{"base_weights":[2.4278823E-4,-1.1327028E-1,1.9030781E-1,-8.700697E-2,-2.5531158E-1,1.884257E-1,7.825843E-1,-6.1434703E-3,4.1739E-3,-1.3782198E-2,3.5707243E-2,9.158595E-4,1.7312627E-2],"categories":[],"categories_nodes":[],"categories_segments":[],"categories_sizes":[],"default_left":[0,0,0,0,0,0,0,0,0,0,0,0,0],"id":58,"left_children":[1,3,5,7,9,11,-1,-1,-1,-1,-1,-1,-1],"loss_changes":[9.538894E2,1.0324103E2,4.7813074E2,1.4285176E2,8.533023E1,4.438128E2,0E0,0E0,0E0,0E0,0E0,0E0,0E0],"parents":[2147483647,0,0,1,1,2,2,3,3,4,4,5,5],"right_children":[2,4,6,8,10,12,-1,-1,-1,-1,-1,-1,-1],"split_conditions":[7.510937E-1,5.2231705E-1,7.064983E0,-6.889161E-1,4.357303E0,-9.852209E-2,7.825843E-1,-6.1434703E-3,4.1739E-3,-1.3782198E-2,3.5707243E-2,9.158595E-4,1.7312627E-2],"split_indices":[198,88,198,198,20,67,0,0,0,0,0,0,0],"split_type":[0,0,0,0,0,0,0,0,0,0,0,0,0],"sum_hessian":[4.4211E4,2.768E4,1.6531E4,2.3362E4,4.318E3,1.653E4,1E0,1.9302E4,4.06E3,4.23E3,8.8E1,7.956E3,8.574E3],"tree_param":{"num_deleted":"0","num_feature":"199","num_nodes":"13","size_leaf_vector":"1"}},{"base_weights":[2.4924305E-4,-1.1878119E-1,1.6455531E-1,-9.108126E-2,-2.5184813E-1,1.2013529E-1,8.748814E-1,-4.591521E-3,2.6192638E-1,-1.2722708E-2,2.8140905E-1,5.9198113E-3,7.630197E-1,3.9569806E-2,1.854697E-1],"categories":[],"categories_nodes":[],"categories_segments":[],"categories_sizes":[],"default_left":[0,0,0,0,0,0,0,0,0,0,0,0,0,0,0],"id":59,"left_children":[1,3,5,7,9,11,13,-1,-1,-1,-1,-1,-1,-1,-1],"loss_changes":[8.646923E2,9.448099E1,5.859548E2,8.521782E1,6.911606E1,4.5849326E2,2.5571179E2,0E0,0E0,0E0,0E0,0E0,0E0,0E0,0E0],"parents":[2147483647,0,0,1,1,2,2,3,3,4,4,5,5,6,6],"right_children":[2,4,6,8,10,12,14,-1,-1,-1,-1,-1,-1,-1,-1],"split_conditions":[4.1878375E-1,-9.992865E-2,1.5646105E0,3.152744E0,9.77341E0,7.064983E0,1.8240197E0,-4.591521E-3,2.6192638E-1,-1.2722708E-2,2.8140905E-1,5.9198113E-3,7.630197E-1,3.9569806E-2,1.854697E-1],"split_indices":[198,100,126,8,38,198,75,0,0,0,0,0,0,0,0],"split_type":[0,0,0,0,0,0,0,0,0,0,0,0,0,0,0],"sum_hessian":[4.4211E4,2.5638E4,1.8573E4,2.1222E4,4.416E3,1.7481E4,1.092E3,2.122E4,2E0,4.415E3,1E0,1.748E4,1E0,1.062E3,3E1],"tree_param":{"num_deleted":"0","num_feature":"199","num_nodes":"15","size_leaf_vector":"1"}},{"base_weights":[2.7118175E-4,-1.02738395E-1,1.7274927E-1,-7.819414E-2,-2.3986267E-1,-5.7992026E-2,2.9715863E-1,-5.616836E-3,4.7608493E-3,-1.2944087E-2,3.594435E-2,-3.332663E-3,2.4782991E-1,1.2058938E-2,7.018646E-2],"categories":[],"categories_nodes":[],"categories_segments":[],"categories_sizes":[],"default_left":[0,0,0,0,0,0,0,0,0,0,0,0,0,0,0],"id":60,"left_children":[1,3,5,7,9,11,13,-1,-1,-1,-1,-1,-1,-1,-1],"loss_changes":[7.8552765E2,9.3144775E1,4.7459103E2,1.3902878E2,7.680759E1,2.5189165E2,6.6501996E2,0E0,0E0,0E0,0E0,0E0,0E0,0E0,0E0],"parents":[2147483647,0,0,1,1,2,2,3,3,4,4,5,5,6,6],"right_children":[2,4,6,8,10,12,14,-1,-1,-1,-1,-1,-1,-1,-1],"split_conditions":[7.510937E-1,6.396876E-1,-3.7632316E-1,-6.667621E-1,4.7875204E0,1E0,2.0581796E0,-5.616836E-3,4.7608493E-3,-1.2944087E-2,3.594435E-2,-3.332663E-3,2.4782991E-1,1.2058938E-2,7.018646E-2],"split_indices":[198,10,126,198,103,170,198,0,0,0,0,0,0,0,0],"split_type":[0,0,0,0,0,0,0,0,0,0,0,0,0,0,0],"sum_hessian":[4.4211E4,2.768E4,1.6531E4,2.3479E4,4.201E3,5.791E3,1.074E4,1.9617E4,3.862E3,4.12E3,8.1E1,5.782E3,9E0,1.0224E4,5.16E2],"tree_param":{"num_deleted":"0","num_feature":"199","num_nodes":"15","size_leaf_vector":"1"}},{"base_weights":[2.6550968E-4,-1.07607044E-1,1.4916958E-1,-8.261196E-2,-2.4943474E-1,4.3387666E-2,4.1791108E-1,-4.1800714E-3,1.762622E-1,-1.26174195E-2,2.7347523E-1,6.226243E-4,4.3394674E-2,1.7567793E-2,1.0022122E-1],"categories":[],"categories_nodes":[],"categories_segments":[],"categories_sizes":[],"default_left":[0,0,0,0,0,0,0,0,0,0,0,0,0,0,0],"id":61,"left_children":[1,3,5,7,9,11,13,-1,-1,-1,-1,-1,-1,-1,-1],"loss_changes":[7.101785E2,9.086954E1,5.280033E2,7.811426E1,6.538289E1,3.3996182E2,5.5322485E2,0E0,0E0,0E0,0E0,0E0,0E0,0E0,0E0],"parents":[2147483647,0,0,1,1,2,2,3,3,4,4,5,5,6,6],"right_children":[2,4,6,8,10,12,14,-1,-1,-1,-1,-1,-1,-1,-1],"split_conditions":[4.1878375E-1,1.2209019E-1,5.671863E-1,3.9633527E0,9.77341E0,1E0,2.4569514E0,-4.1800714E-3,1.762622E-1,-1.26174195E-2,2.7347523E-1,6.226243E-4,4.3394674E-2,1.7567793E-2,1.0022122E-1],"split_indices":[198,97,126,55,38,143,198,0,0,0,0,0,0,0,0],"split_type":[0,0,0,0,0,0,0,0,0,0,0,0,0,0,0],"sum_hessian":[4.4211E4,2.5638E4,1.8573E4,2.1798E4,3.84E3,1.3328E4,5.245E3,2.1793E4,5E0,3.839E3,1E0,1.2847E4,4.81E2,5.035E3,2.1E2],"tree_param":{"num_deleted":"0","num_feature":"199","num_nodes":"15","size_leaf_vector":"1"}},{"base_weights":[2.6570464E-4,-9.175215E-2,1.5888764E-1,-6.706635E-2,-2.2227223E-1,6.121951E-2,4.3813056E-1,-4.2119706E-3,1.5640711E-2,-1.1686732E-2,4.2825464E-2,2.0795407E-2,-6.5168756E-4,2.1559926E-2,7.39684E-1],"categories":[],"categories_nodes":[],"categories_segments":[],"categories_sizes":[],"default_left":[0,0,0,0,0,0,0,0,0,0,0,0,0,0,0],"id":62,"left_children":[1,3,5,7,9,11,13,-1,-1,-1,-1,-1,-1,-1,-1],"loss_changes":[6.4533514E2,9.013965E1,4.4267065E2,1.535423E2,5.5226364E1,3.1675793E2,4.121737E2,0E0,0E0,0E0,0E0,0E0,0E0,0E0,0E0],"parents":[2147483647,0,0,1,1,2,2,3,3,4,4,5,5,6,6],"right_children":[2,4,6,8,10,12,14,-1,-1,-1,-1,-1,-1,-1,-1],"split_conditions":[7.954017E-1,6.1753994E-1,1.670239E-1,4.1878375E-1,2.8277984E0,-6.1241674E-1,7.064983E0,-4.2119706E-3,1.5640711E-2,-1.1686732E-2,4.2825464E-2,2.0795407E-2,-6.5168756E-4,2.1559926E-2,7.39684E-1],"split_indices":[198,10,76,198,68,101,198,0,0,0,0,0,0,0,0],"split_type":[0,0,0,0,0,0,0,0,0,0,0,0,0,0,0],"sum_hessian":[4.4211E4,2.798E4,1.6231E4,2.3531E4,4.449E3,1.2026E4,4.205E3,2.2514E4,1.017E3,4.403E3,4.6E1,2.081E3,9.945E3,4.204E3,1E0],"tree_param":{"num_deleted":"0","num_feature":"199","num_nodes":"15","size_leaf_vector":"1"}},{"base_weights":[2.710624E-4,-7.422318E-3,1.082793E0,-1.873727E-2,4.570831E-1,6.436125E0,9.5679253E-1,-1.8336844E-3,1.2870899E-2,1.7196426E-2,1.3738973E-1,4.164643E-1,5.677411E-2,3.810351E-2,1.8516095E-1],"categories":[],"categories_nodes":[],"categories_segments":[],"categories_sizes":[],"default_left":[0,1,0,0,0,0,0,0,0,0,0,0,0,0,0],"id":63,"left_children":[1,3,5,7,9,11,13,-1,-1,-1,-1,-1,-1,-1,-1],"loss_changes":[3.6821677E2,2.3074591E2,2.0429279E2,2.122952E2,2.6966443E2,6.0787018E1,1.6082382E2,0E0,0E0,0E0,0E0,0E0,0E0,0E0,0E0],"parents":[2147483647,0,0,1,1,2,2,3,3,4,4,5,5,6,6],"right_children":[2,4,6,8,10,12,14,-1,-1,-1,-1,-1,-1,-1,-1],"split_conditions":[5.234387E0,2.5498192E0,-6.995946E-2,1.5646105E0,3.1034446E0,7.773486E0,3.419013E0,-1.8336844E-3,1.2870899E-2,1.7196426E-2,1.3738973E-1,4.164643E-1,5.677411E-2,3.810351E-2,1.8516095E-1],"split_indices":[25,39,79,126,123,23,115,0,0,0,0,0,0,0,0],"split_type":[0,0,0,0,0,0,0,0,0,0,0,0,0,0,0],"sum_hessian":[4.4211E4,4.39E4,3.11E2,4.2857E4,1.043E3,6E0,3.05E2,4.0244E4,2.613E3,9.95E2,4.8E1,4E0,2E0,2.86E2,1.9E1],"tree_param":{"num_deleted":"0","num_feature":"199","num_nodes":"15","size_leaf_vector":"1"}},{"base_weights":[2.7702263E-4,-8.6802565E-2,1.5038629E-1,-6.245637E-2,-2.0910192E-1,1.486193E-1,7.2076195E-1,-3.2482184E-3,1.2413037E-1,-1.1522882E-2,2.7316108E-2,3.6233987E-3,2.3080887E-2],"categories":[],"categories_nodes":[],"categories_segments":[],"categories_sizes":[],"default_left":[0,0,0,0,0,0,0,0,0,0,0,0,0],"id":64,"left_children":[1,3,5,7,9,11,-1,-1,-1,-1,-1,-1,-1],"loss_changes":[5.7792816E2,8.330104E1,4.0700012E2,1.4912177E2,7.506198E1,3.8683646E2,0E0,0E0,0E0,0E0,0E0,0E0,0E0],"parents":[2147483647,0,0,1,1,2,2,3,3,4,4,5,5],"right_children":[2,4,6,8,10,12,-1,-1,-1,-1,-1,-1,-1],"split_conditions":[7.954017E-1,2.0476939E-1,7.064983E0,1.6205467E0,4.7875204E0,6.093289E-1,7.2076195E-1,-3.2482184E-3,1.2413037E-1,-1.1522882E-2,2.7316108E-2,3.6233987E-3,2.3080887E-2],"split_indices":[198,122,198,121,103,79,0,0,0,0,0,0,0],"split_type":[0,0,0,0,0,0,0,0,0,0,0,0,0],"sum_hessian":[4.4211E4,2.798E4,1.6231E4,2.3336E4,4.644E3,1.623E4,1E0,2.3314E4,2.2E1,4.517E3,1.27E2,1.3055E4,3.175E3],"tree_param":{"num_deleted":"0","num_feature":"199","num_nodes":"13","size_leaf_vector":"1"}},{"base_weights":[2.8314564E-4,-1.6227107E-2,7.386514E-1,-9.244048E-2,9.4748065E-2,-7.840753E-1,1.0103959E0,-3.4406998E-3,-1.0297057E-2,-4.6918276E-3,1.031627E-2,-2.2133963E-2,-1.3026993E-1,4.8867397E-2,7.0274293E-1],"categories":[],"categories_nodes":[],"categories_segments":[],"categories_sizes":[],"default_left":[0,0,0,0,0,0,0,0,0,0,0,0,0,0,0],"id":65,"left_children":[1,3,5,7,9,11,13,-1,-1,-1,-1,-1,-1,-1,-1],"loss_changes":[5.389849E2,3.6577444E2,4.0092957E2,6.873993E1,3.7052286E2,9.025015E1,3.401906E2,0E0,0E0,0E0,0E0,0E0,0E0,0E0,0E0],"parents":[2147483647,0,0,1,1,2,2,3,3,4,4,5,5,6,6],"right_children":[2,4,6,8,10,12,14,-1,-1,-1,-1,-1,-1,-1,-1],"split_conditions":[1.5043296E0,4.1878375E-1,-1.1041733E0,-9.992865E-2,-2.9545093E-1,1.4650023E0,1E0,-3.4406998E-3,-1.0297057E-2,-4.6918276E-3,1.031627E-2,-2.2133963E-2,-1.3026993E-1,4.8867397E-2,7.0274293E-1],"split_indices":[198,198,126,100,126,100,152,0,0,0,0,0,0,0,0],"split_type":[0,0,0,0,0,0,0,0,0,0,0,0,0,0,0],"sum_hessian":[4.4211E4,4.3245E4,9.66E2,2.5638E4,1.7607E4,1.46E2,8.2E2,2.1222E4,4.416E3,6.545E3,1.1062E4,1.24E2,2.2E1,8.19E2,1E0],"tree_param":{"num_deleted":"0","num_feature":"199","num_nodes":"15","size_leaf_vector":"1"}},{"base_weights":[2.823333E-4,-1.5415967E-2,7.0233864E-1,-8.781899E-2,9.001091E-2,5.4316396E-1,3.331869E0,-3.0839124E-3,-9.0760505E-3,2.713567E-3,3.343857E-2,2.56854E-2,6.8517435E-1,8.456171E-2,3.612607E-1],"categories":[],"categories_nodes":[],"categories_segments":[],"categories_sizes":[],"default_left":[0,0,0,0,0,0,0,0,0,0,0,0,0,0,0],"id":66,"left_children":[1,3,5,7,9,11,13,-1,-1,-1,-1,-1,-1,-1,-1],"loss_changes":[4.872753E2,3.3011432E2,4.0293265E2,6.2789993E1,3.6417902E2,3.4688443E2,3.3909613E2,0E0,0E0,0E0,0E0,0E0,0E0,0E0,0E0],"parents":[2147483647,0,0,1,1,2,2,3,3,4,4,5,5,6,6],"right_children":[2,4,6,8,10,12,14,-1,-1,-1,-1,-1,-1,-1,-1],"split_conditions":[1.5043296E0,4.1878375E-1,2.5103838E0,-1.9364367E-1,-2.757854E-3,1E0,1.4541316E0,-3.0839124E-3,-9.0760505E-3,2.713567E-3,3.343857E-2,2.56854E-2,6.8517435E-1,8.456171E-2,3.612607E-1],"split_indices":[198,198,30,122,67,152,106,0,0,0,0,0,0,0,0],"split_type":[0,0,0,0,0,0,0,0,0,0,0,0,0,0,0],"sum_hessian":[4.4211E4,4.3245E4,9.66E2,2.5638E4,1.7607E4,9.12E2,5.4E1,2.0047E4,5.591E3,1.6584E4,1.023E3,9.11E2,1E0,3.9E1,1.5E1],"tree_param":{"num_deleted":"0","num_feature":"199","num_nodes":"15","size_leaf_vector":"1"}},{"base_weights":[2.948783E-4,-1.4644661E-2,6.6841793E-1,-9.561929E-2,7.13537E-2,5.167844E-1,3.1733816E0,-4.200111E-3,-2.2113863E-2,2.700688E-3,5.029447E-2,2.4402542E-2,6.68045E-1,9.980773E-2,4.135644E-1],"categories":[],"categories_nodes":[],"categories_segments":[],"categories_sizes":[],"default_left":[0,0,0,0,0,0,1,0,0,0,0,0,0,0,0],"id":67,"left_children":[1,3,5,7,9,11,13,-1,-1,-1,-1,-1,-1,-1,-1],"loss_changes":[4.4130972E2,3.0115836E2,3.6566193E2,8.966356E1,3.3980875E2,3.3042847E2,3.135658E2,0E0,0E0,0E0,0E0,0E0,0E0,0E0,0E0],"parents":[2147483647,0,0,1,1,2,2,3,3,4,4,5,5,6,6],"right_children":[2,4,6,8,10,12,14,-1,-1,-1,-1,-1,-1,-1,-1],"split_conditions":[1.5043296E0,-5.338381E-1,2.5103838E0,1.0280204E0,3.960703E0,1E0,4.6273227E0,-4.200111E-3,-2.2113863E-2,2.700688E-3,5.029447E-2,2.4402542E-2,6.68045E-1,9.980773E-2,4.135644E-1],"split_indices":[198,198,30,121,25,152,42,0,0,0,0,0,0,0,0],"split_type":[0,0,0,0,0,0,0,0,0,0,0,0,0,0,0],"sum_hessian":[4.4211E4,4.3245E4,9.66E2,2.2273E4,2.0972E4,9.12E2,5.4E1,2.1552E4,7.21E2,2.0591E4,3.81E2,9.11E2,1E0,4.5E1,9E0],"tree_param":{"num_deleted":"0","num_feature":"199","num_nodes":"15","size_leaf_vector":"1"}},{"base_weights":[3.0796413E-4,-1.3911857E-2,6.3624394E-1,-7.970476E-2,8.188994E-2,-7.956556E-1,8.9185053E-1,-2.93348E-3,-9.95329E-3,2.3239132E-3,3.2385748E-2,-2.3520486E-2,-1.2643513E-1,3.3995464E-2,1.4510047E-1],"categories":[],"categories_nodes":[],"categories_segments":[],"categories_sizes":[],"default_left":[0,0,0,0,0,0,1,0,0,0,0,0,0,0,0],"id":68,"left_children":[1,3,5,7,9,11,13,-1,-1,-1,-1,-1,-1,-1,-1],"loss_changes":[3.998134E2,2.7258948E2,3.5463446E2,6.436217E1,3.5277814E2,8.166942E1,3.4780206E2,0E0,0E0,0E0,0E0,0E0,0E0,0E0,0E0],"parents":[2147483647,0,0,1,1,2,2,3,3,4,4,5,5,6,6],"right_children":[2,4,6,8,10,12,14,-1,-1,-1,-1,-1,-1,-1,-1],"split_conditions":[1.5043296E0,4.1878375E-1,-1.1041733E0,1.2209019E-1,1.5646105E0,1.4650023E0,2.2043536E0,-2.93348E-3,-9.95329E-3,2.3239132E-3,3.2385748E-2,-2.3520486E-2,-1.2643513E-1,3.3995464E-2,1.4510047E-1],"split_indices":[198,198,126,97,126,100,36,0,0,0,0,0,0,0,0],"split_type":[0,0,0,0,0,0,0,0,0,0,0,0,0,0,0],"sum_hessian":[4.4211E4,4.3245E4,9.66E2,2.5638E4,1.7607E4,1.46E2,8.2E2,2.1798E4,3.84E3,1.6571E4,1.036E3,1.24E2,2.2E1,7.43E2,7.7E1],"tree_param":{"num_deleted":"0","num_feature":"199","num_nodes":"15","size_leaf_vector":"1"}},{"base_weights":[2.9371388E-4,-6.436133E-3,9.472383E-1,-4.3520223E-2,1.1595399E-1,2.2501783E0,5.254211E-1,9.1064855E-4,-5.304599E-3,5.671364E-3,6.4771634E-1,1.4266013E-1,-7.8626335E-2,1.281271E-2,1.7165345E-1],"categories":[],"categories_nodes":[],"categories_segments":[],"categories_sizes":[],"default_left":[0,0,0,0,0,0,0,0,0,0,0,0,0,0,0],"id":69,"left_children":[1,3,5,7,9,11,13,-1,-1,-1,-1,-1,-1,-1,-1],"loss_changes":[2.8175998E2,1.9925969E2,1.7029367E2,1.3014972E2,3.2969934E2,1.796806E2,1.846065E2,0E0,0E0,0E0,0E0,0E0,0E0,0E0,0E0],"parents":[2147483647,0,0,1,1,2,2,3,3,4,4,5,5,6,6],"right_children":[2,4,6,8,10,12,14,-1,-1,-1,-1,-1,-1,-1,-1],"split_conditions":[5.234387E0,7.5588816E-1,6.5000916E-1,1E0,5.1070223E0,1.1625013E-1,3.419013E0,9.1064855E-4,-5.304599E-3,5.671364E-3,6.4771634E-1,1.4266013E-1,-7.8626335E-2,1.281271E-2,1.7165345E-1],"split_indices":[25,126,123,171,18,67,115,0,0,0,0,0,0,0,0],"split_type":[0,0,0,0,0,0,0,0,0,0,0,0,0,0,0],"sum_hessian":[4.4211E4,4.39E4,3.11E2,3.3692E4,1.0208E4,7.5E1,2.36E2,1.696E4,1.6732E4,1.0207E4,1E0,6.5E1,1E1,2.17E2,1.9E1],"tree_param":{"num_deleted":"0","num_feature":"199","num_nodes":"15","size_leaf_vector":"1"}},{"base_weights":[2.9931596E-4,-6.5990486E-3,9.2897487E-1,-3.5019014E-2,1.399918E-1,2.0834413E-1,2.0138617E0,-2.467103E-3,1.3355577E-2,-2.493148E-4,1.5013076E-2,1.2189102E-1,-1.4734066E-3,6.5894835E-2,2.5163972E-1],"categories":[],"categories_nodes":[],"categories_segments":[],"categories_sizes":[],"default_left":[1,0,0,0,0,0,0,0,0,0,0,0,0,0,0],"id":70,"left_children":[1,3,5,7,9,11,13,-1,-1,-1,-1,-1,-1,-1,-1],"loss_changes":[2.8324332E2,1.8284286E2,2.5444806E2,1.5909381E2,1.656016E2,1.04520615E2,2.665066E2,0E0,0E0,0E0,0E0,0E0,0E0,0E0,0E0],"parents":[2147483647,0,0,1,1,2,2,3,3,4,4,5,5,6,6],"right_children":[2,4,6,8,10,12,14,-1,-1,-1,-1,-1,-1,-1,-1],"split_conditions":[5.118926E0,6.093289E-1,4.5671105E-1,1.156717E0,5.9098046E-2,6.392617E-1,3.641904E0,-2.467103E-3,1.3355577E-2,-2.493148E-4,1.5013076E-2,1.2189102E-1,-1.4734066E-3,6.5894835E-2,2.5163972E-1],"split_indices":[17,79,18,16,56,77,80,0,0,0,0,0,0,0,0],"split_type":[0,0,0,0,0,0,0,0,0,0,0,0,0,0,0],"sum_hessian":[4.4211E4,4.3886E4,3.25E2,3.676E4,7.126E3,1.96E2,1.29E2,3.5097E4,1.663E3,3.742E3,3.384E3,1.8E1,1.78E2,1.06E2,2.3E1],"tree_param":{"num_deleted":"0","num_feature":"199","num_nodes":"15","size_leaf_vector":"1"}},{"base_weights":[2.9485655E-4,-1.1872648E-2,6.605793E-1,-8.530132E-2,6.5495476E-2,3.6449724E-1,2.3353405E0,-3.4017998E-3,-1.56003935E-2,-1.5675675E-4,1.47024635E-2,-5.1722713E-2,3.4198046E-2,7.4733995E-2,3.11364E-1],"categories":[],"categories_nodes":[],"categories_segments":[],"categories_sizes":[],"default_left":[0,0,0,0,0,0,0,0,0,0,0,0,0,0,0],"id":71,"left_children":[1,3,5,7,9,11,13,-1,-1,-1,-1,-1,-1,-1,-1],"loss_changes":[3.552077E2,2.466365E2,3.958422E2,8.7162796E1,3.3159842E2,3.0505612E2,3.8330817E2,0E0,0E0,0E0,0E0,0E0,0E0,0E0,0E0],"parents":[2147483647,0,0,1,1,2,2,3,3,4,4,5,5,6,6],"right_children":[2,4,6,8,10,12,14,-1,-1,-1,-1,-1,-1,-1,-1],"split_conditions":[2.4126434E0,-5.338381E-1,1.1728531E0,6.1394703E-1,7.5588816E-1,-9.828649E-1,1.1330807E0,-3.4017998E-3,-1.56003935E-2,-1.5675675E-4,1.47024635E-2,-5.1722713E-2,3.4198046E-2,7.4733995E-2,3.11364E-1],"split_indices":[198,198,75,102,126,126,68,0,0,0,0,0,0,0,0],"split_type":[0,0,0,0,0,0,0,0,0,0,0,0,0,0,0],"sum_hessian":[4.4211E4,4.3412E4,7.99E2,2.2273E4,2.1139E4,6.8E2,1.19E2,2.0698E4,1.575E3,1.6258E4,4.881E3,1.26E2,5.54E2,9.9E1,2E1],"tree_param":{"num_deleted":"0","num_feature":"199","num_nodes":"15","size_leaf_vector":"1"}},{"base_weights":[2.8832554E-4,-1.3083318E-2,5.4836035E-1,-1.9049775E-2,8.4225893E-1,3.2432088E-1,1.7967538E0,-3.2814608E-3,3.3964228E-3,5.215377E-3,9.7880565E-2,-1.42155485E-2,3.968556E-2,6.8084344E-2,3.3058056E-1],"categories":[],"categories_nodes":[],"categories_segments":[],"categories_sizes":[],"default_left":[0,1,0,0,0,0,0,0,0,0,0,0,0,0,0],"id":72,"left_children":[1,3,5,7,9,11,13,-1,-1,-1,-1,-1,-1,-1,-1],"loss_changes":[3.2402036E2,2.2027715E2,2.9393024E2,1.7365546E2,2.4589551E2,2.5562885E2,3.261626E2,0E0,0E0,0E0,0E0,0E0,0E0,0E0,0E0],"parents":[2147483647,0,0,1,1,2,2,3,3,4,4,5,5,6,6],"right_children":[2,4,6,8,10,12,14,-1,-1,-1,-1,-1,-1,-1,-1],"split_conditions":[1.1277117E0,5.118926E0,1.1728531E0,7.954017E-1,4.5671105E-1,-3.7632316E-1,1.038941E0,-3.2814608E-3,3.3964228E-3,5.215377E-3,9.7880565E-2,-1.42155485E-2,3.968556E-2,6.8084344E-2,3.3058056E-1],"split_indices":[198,17,75,198,18,126,126,0,0,0,0,0,0,0,0],"split_type":[0,0,0,0,0,0,0,0,0,0,0,0,0,0,0],"sum_hessian":[4.4211E4,4.3159E4,1.052E3,4.2861E4,2.98E2,8.93E2,1.59E2,2.7913E4,1.4948E4,1.8E2,1.18E2,3.89E2,5.04E2,1.47E2,1.2E1],"tree_param":{"num_deleted":"0","num_feature":"199","num_nodes":"15","size_leaf_vector":"1"}},{"base_weights":[2.8580456E-4,-2.7663895E-4,6.216619E-1,-6.1467268E-2,1.0521133E-1,-1.8816304E-3,-9.374664E-3,-5.6623863E-3,9.896728E-3],"categories":[],"categories_nodes":[],"categories_segments":[],"categories_sizes":[],"default_left":[0,0,0,0,0,0,0,0,0],"id":73,"left_children":[1,3,-1,5,7,-1,-1,-1,-1],"loss_changes":[3.091706E2,2.8538297E2,0E0,8.4041916E1,3.2880127E2,0E0,0E0,0E0,0E0],"parents":[2147483647,0,0,1,1,3,3,4,4],"right_children":[2,4,-1,6,8,-1,-1,-1,-1],"split_conditions":[7.064983E0,7.954017E-1,6.216619E-1,6.1753994E-1,-1.16885565E-1,-1.8816304E-3,-9.374664E-3,-5.6623863E-3,9.896728E-3],"split_indices":[198,198,0,10,67,0,0,0,0],"split_type":[0,0,0,0,0,0,0,0,0],"sum_hessian":[4.4211E4,4.421E4,1E0,2.798E4,1.623E4,2.3531E4,4.449E3,4.836E3,1.1394E4],"tree_param":{"num_deleted":"0","num_feature":"199","num_nodes":"9","size_leaf_vector":"1"}},{"base_weights":[2.8541184E-4,-2.6297042E-4,6.0612035E-1,-1.2244255E-2,4.9128887E-1,-8.9356647E-4,3.9722223E-2,1.3415693E-2,8.2327865E-2],"categories":[],"categories_nodes":[],"categories_segments":[],"categories_sizes":[],"default_left":[0,0,0,1,0,0,0,0,0],"id":74,"left_children":[1,3,-1,5,7,-1,-1,-1,-1],"loss_changes":[2.9390494E2,2.603833E2,0E0,1.9593027E2,2.705492E2,0E0,0E0,0E0,0E0],"parents":[2147483647,0,0,1,1,3,3,4,4],"right_children":[2,4,-1,6,8,-1,-1,-1,-1],"split_conditions":[7.064983E0,1.1277117E0,6.0612035E-1,5.118926E0,9.715475E-1,-8.9356647E-4,3.9722223E-2,1.3415693E-2,8.2327865E-2],"split_indices":[198,198,0,17,126,0,0,0,0],"split_type":[0,0,0,0,0,0,0,0,0],"sum_hessian":[4.4211E4,4.421E4,1E0,4.3159E4,1.051E3,4.2861E4,2.98E2,8.82E2,1.69E2],"tree_param":{"num_deleted":"0","num_feature":"199","num_nodes":"9","size_leaf_vector":"1"}},{"base_weights":[2.879059E-4,-2.4676658E-4,5.9096736E-1,-5.8458082E-2,9.7227536E-2,-1.8402989E-3,-8.778423E-3,-4.599798E-3,9.963264E-3],"categories":[],"categories_nodes":[],"categories_segments":[],"categories_sizes":[],"default_left":[0,0,0,0,0,0,0,0,0],"id":75,"left_children":[1,3,-1,5,7,-1,-1,-1,-1],"loss_changes":[2.793929E2,2.5086365E2,0E0,7.0183876E1,3.1919788E2,0E0,0E0,0E0,0E0],"parents":[2147483647,0,0,1,1,3,3,4,4],"right_children":[2,4,-1,6,8,-1,-1,-1,-1],"split_conditions":[7.064983E0,7.510937E-1,5.9096736E-1,5.2231705E-1,-3.7632316E-1,-1.8402989E-3,-8.778423E-3,-4.599798E-3,9.963264E-3],"split_indices":[198,198,0,88,126,0,0,0,0],"split_type":[0,0,0,0,0,0,0,0,0],"sum_hessian":[4.4211E4,4.421E4,1E0,2.768E4,1.653E4,2.3362E4,4.318E3,5.791E3,1.0739E4],"tree_param":{"num_deleted":"0","num_feature":"199","num_nodes":"9","size_leaf_vector":"1"}},{"base_weights":[2.8677128E-4,-5.621231E-3,8.31591E-1,-1.5046324E-2,3.8130048E-1,5.8045673E0,7.151125E-1,1.9892945E-3,-3.485844E-3,1.3852283E-2,1.2463287E-1,3.795072E-1,4.4687495E-2,4.7339614E-2,-6.853266E-2],"categories":[],"categories_nodes":[],"categories_segments":[],"categories_sizes":[],"default_left":[0,1,0,0,0,0,0,0,0,0,0,0,0,0,0],"id":76,"left_children":[1,3,5,7,9,11,13,-1,-1,-1,-1,-1,-1,-1,-1],"loss_changes":[2.1714516E2,1.601027E2,1.7657349E2,1.2847852E2,2.291138E2,5.4596817E1,1.4916603E2,0E0,0E0,0E0,0E0,0E0,0E0,0E0,0E0],"parents":[2147483647,0,0,1,1,2,2,3,3,4,4,5,5,6,6],"right_children":[2,4,6,8,10,12,14,-1,-1,-1,-1,-1,-1,-1,-1],"split_conditions":[5.234387E0,2.5498192E0,-6.995946E-2,1E0,3.1034446E0,5.803652E0,4.490263E0,1.9892945E-3,-3.485844E-3,1.3852283E-2,1.2463287E-1,3.795072E-1,4.4687495E-2,4.7339614E-2,-6.853266E-2],"split_indices":[25,39,79,171,123,22,21,0,0,0,0,0,0,0,0],"split_type":[0,0,0,0,0,0,0,0,0,0,0,0,0,0,0],"sum_hessian":[4.4211E4,4.39E4,3.11E2,4.2857E4,1.043E3,6E0,3.05E2,2.1397E4,2.146E4,9.95E2,4.8E1,4E0,2E0,2.75E2,3E1],"tree_param":{"num_deleted":"0","num_feature":"199","num_nodes":"15","size_leaf_vector":"1"}},{"base_weights":[2.846393E-4,-2.3635295E-4,5.7584685E-1,-1.0020032E-2,5.31352E-1,-3.953989E-3,2.3926876E-3,1.8463006E-2,1.5584828E-1],"categories":[],"categories_nodes":[],"categories_segments":[],"categories_sizes":[],"default_left":[0,0,0,0,0,0,0,0,0],"id":77,"left_children":[1,3,-1,5,7,-1,-1,-1,-1],"loss_changes":[2.6527853E2,2.2994185E2,0E0,1.7351465E2,3.337155E2,0E0,0E0,0E0,0E0],"parents":[2147483647,0,0,1,1,3,3,4,4],"right_children":[2,4,-1,6,8,-1,-1,-1,-1],"split_conditions":[7.064983E0,2.4126434E0,5.7584685E-1,-8.883021E-1,2.5103838E0,-3.953989E-3,2.3926876E-3,1.8463006E-2,1.5584828E-1],"split_indices":[198,198,0,198,30,0,0,0,0],"split_type":[0,0,0,0,0,0,0,0,0],"sum_hessian":[4.4211E4,4.421E4,1E0,4.3412E4,7.98E2,1.9793E4,2.3619E4,7.52E2,4.6E1],"tree_param":{"num_deleted":"0","num_feature":"199","num_nodes":"9","size_leaf_vector":"1"}},{"base_weights":[2.8730853E-4,-2.2065865E-4,5.6145066E-1,-1.096528E-2,4.4059503E-1,-3.4078655E-3,2.5012556E-3,-3.6136456E-2,3.2197233E-2],"categories":[],"categories_nodes":[],"categories_segments":[],"categories_sizes":[],"default_left":[0,0,0,0,0,0,0,0,0],"id":78,"left_children":[1,3,-1,5,7,-1,-1,-1,-1],"loss_changes":[2.5217995E2,2.0940572E2,0E0,1.5055258E2,2.4932814E2,0E0,0E0,0E0,0E0],"parents":[2147483647,0,0,1,1,3,3,4,4],"right_children":[2,4,-1,6,8,-1,-1,-1,-1],"split_conditions":[7.064983E0,1.1277117E0,5.6145066E-1,-5.338381E-1,-1.1041733E0,-3.4078655E-3,2.5012556E-3,-3.6136456E-2,3.2197233E-2],"split_indices":[198,198,0,198,126,0,0,0,0],"split_type":[0,0,0,0,0,0,0,0,0],"sum_hessian":[4.4211E4,4.421E4,1E0,4.3159E4,1.051E3,2.2273E4,2.0886E4,1.56E2,8.95E2],"tree_param":{"num_deleted":"0","num_feature":"199","num_nodes":"9","size_leaf_vector":"1"}},{"base_weights":[2.8551777E-4,-2.0975011E-4,5.4741436E-1,-7.2933803E-3,6.2539685E-1,-8.164579E-4,1.8510032E-2,-3.4531202E-2,4.7807302E-2],"categories":[],"categories_nodes":[],"categories_segments":[],"categories_sizes":[],"default_left":[0,0,0,0,0,0,0,0,0],"id":79,"left_children":[1,3,-1,5,7,-1,-1,-1,-1],"loss_changes":[2.3972832E2,1.9592851E2,0E0,1.4912265E2,2.161204E2,0E0,0E0,0E0,0E0],"parents":[2147483647,0,0,1,1,3,3,4,4],"right_children":[2,4,-1,6,8,-1,-1,-1,-1],"split_conditions":[7.064983E0,4.040308E0,5.4741436E-1,1.1277117E0,-5.338381E-1,-8.164579E-4,1.8510032E-2,-3.4531202E-2,4.7807302E-2],"split_indices":[198,25,0,198,198,0,0,0,0],"split_type":[0,0,0,0,0,0,0,0,0],"sum_hessian":[4.4211E4,4.421E4,1E0,4.3716E4,4.94E2,4.2695E4,1.021E3,9.9E1,3.95E2],"tree_param":{"num_deleted":"0","num_feature":"199","num_nodes":"9","size_leaf_vector":"1"}},{"base_weights":[2.842851E-4,-1.9860093E-4,5.33729E-1,-4.934009E-2,8.4517576E-2,-1.3142822E-3,-8.56215E-3,2.1525523E-2,1.6027101E-3],"categories":[],"categories_nodes":[],"categories_segments":[],"categories_sizes":[],"default_left":[0,0,0,0,0,0,0,0,0],"id":80,"left_children":[1,3,-1,5,7,-1,-1,-1,-1],"loss_changes":[2.2789146E2,1.8405807E2,0E0,7.863341E1,2.946105E2,0E0,0E0,0E0,0E0],"parents":[2147483647,0,0,1,1,3,3,4,4],"right_children":[2,4,-1,6,8,-1,-1,-1,-1],"split_conditions":[7.064983E0,7.954017E-1,5.33729E-1,6.1753994E-1,-2.6836702E-1,-1.3142822E-3,-8.56215E-3,2.1525523E-2,1.6027101E-3],"split_indices":[198,198,0,10,10,0,0,0,0],"split_type":[0,0,0,0,0,0,0,0,0],"sum_hessian":[4.4211E4,4.421E4,1E0,2.798E4,1.623E4,2.3531E4,4.449E3,2.136E3,1.4094E4],"tree_param":{"num_deleted":"0","num_feature":"199","num_nodes":"9","size_leaf_vector":"1"}},{"base_weights":[2.8245457E-4,-1.8835919E-4,5.2038574E-1,-5.725703E-3,7.452475E-1,-7.425658E-4,1.8794093E-2,5.0623573E-2,-8.290291E-2],"categories":[],"categories_nodes":[],"categories_segments":[],"categories_sizes":[],"default_left":[0,1,0,0,1,0,0,0,0],"id":81,"left_children":[1,3,-1,5,7,-1,-1,-1,-1],"loss_changes":[2.166391E2,1.8249554E2,0E0,1.528343E2,2.1104271E2,0E0,0E0,0E0,0E0],"parents":[2147483647,0,0,1,